digraph Tree {
node [shape=box, style="filled, rounded", color="black", fontname="helvetica"] ;
edge [fontname="helvetica"] ;
0 [label=<brightness &le; -55.0<br/>squared_error = 3.658<br/>samples = 4500<br/>value = 1.239>, fillcolor="#fdf5f0"] ;
1 [label=<threshold &le; 115.0<br/>squared_error = 7.724<br/>samples = 1125<br/>value = 2.651>, fillcolor="#f9e3d2"] ;
0 -> 1 [labeldistance=2.5, labelangle=45, headlabel="True"] ;
2 [label=<contrast &le; 1.25<br/>squared_error = 2.492<br/>samples = 525<br/>value = 1.087>, fillcolor="#fdf7f3"] ;
1 -> 2 ;
3 [label=<threshold &le; 95.0<br/>squared_error = 5.708<br/>samples = 175<br/>value = 2.118>, fillcolor="#fbeade"] ;
2 -> 3 ;
4 [label=<threshold &le; 75.0<br/>squared_error = 1.876<br/>samples = 125<br/>value = 1.177>, fillcolor="#fdf6f1"] ;
3 -> 4 ;
5 [label=<brightness &le; -95.0<br/>squared_error = 0.173<br/>samples = 75<br/>value = 0.656>, fillcolor="#fffdfc"] ;
4 -> 5 ;
6 [label=<threshold &le; 65.0<br/>squared_error = 0.576<br/>samples = 15<br/>value = 1.1>, fillcolor="#fdf7f3"] ;
5 -> 6 ;
7 [label=<threshold &le; 55.0<br/>squared_error = 0.036<br/>samples = 10<br/>value = 0.692>, fillcolor="#fffdfb"] ;
6 -> 7 ;
8 [label=<morph &le; 8.0<br/>squared_error = 0.0<br/>samples = 5<br/>value = 0.545>, fillcolor="#fffffe"] ;
7 -> 8 ;
9 [label=<morph &le; 6.0<br/>squared_error = 0.0<br/>samples = 4<br/>value = 0.542>, fillcolor="#fffffe"] ;
8 -> 9 ;
10 [label=<morph &le; 4.0<br/>squared_error = 0.0<br/>samples = 3<br/>value = 0.541>, fillcolor="#fffffe"] ;
9 -> 10 ;
11 [label=<morph &le; 2.0<br/>squared_error = 0.0<br/>samples = 2<br/>value = 0.54>, fillcolor="#fffffe"] ;
10 -> 11 ;
12 [label=<squared_error = 0.0<br/>samples = 1<br/>value = 0.54>, fillcolor="#fffffe"] ;
11 -> 12 ;
13 [label=<squared_error = 0.0<br/>samples = 1<br/>value = 0.54>, fillcolor="#fffffe"] ;
11 -> 13 ;
14 [label=<squared_error = 0.0<br/>samples = 1<br/>value = 0.542>, fillcolor="#fffffe"] ;
10 -> 14 ;
15 [label=<squared_error = 0.0<br/>samples = 1<br/>value = 0.547>, fillcolor="#fffffe"] ;
9 -> 15 ;
16 [label=<squared_error = 0.0<br/>samples = 1<br/>value = 0.556>, fillcolor="#fffefe"] ;
8 -> 16 ;
17 [label=<morph &le; 8.0<br/>squared_error = 0.028<br/>samples = 5<br/>value = 0.839>, fillcolor="#fefbf8"] ;
7 -> 17 ;
18 [label=<morph &le; 6.0<br/>squared_error = 0.006<br/>samples = 4<br/>value = 0.764>, fillcolor="#fefcfa"] ;
17 -> 18 ;
19 [label=<morph &le; 4.0<br/>squared_error = 0.001<br/>samples = 3<br/>value = 0.72>, fillcolor="#fefcfb"] ;
18 -> 19 ;
20 [label=<morph &le; 2.0<br/>squared_error = 0.0<br/>samples = 2<br/>value = 0.7>, fillcolor="#fefdfb"] ;
19 -> 20 ;
21 [label=<squared_error = 0.0<br/>samples = 1<br/>value = 0.695>, fillcolor="#fefdfb"] ;
20 -> 21 ;
22 [label=<squared_error = -0.0<br/>samples = 1<br/>value = 0.704>, fillcolor="#fefcfb"] ;
20 -> 22 ;
23 [label=<squared_error = 0.0<br/>samples = 1<br/>value = 0.762>, fillcolor="#fefcfa"] ;
19 -> 23 ;
24 [label=<squared_error = -0.0<br/>samples = 1<br/>value = 0.894>, fillcolor="#fefaf7"] ;
18 -> 24 ;
25 [label=<squared_error = -0.0<br/>samples = 1<br/>value = 1.142>, fillcolor="#fdf7f2"] ;
17 -> 25 ;
26 [label=<morph &le; 6.0<br/>squared_error = 0.66<br/>samples = 5<br/>value = 1.915>, fillcolor="#fbece2"] ;
6 -> 26 ;
27 [label=<morph &le; 4.0<br/>squared_error = 0.046<br/>samples = 3<br/>value = 1.318>, fillcolor="#fdf4ee"] ;
26 -> 27 ;
28 [label=<morph &le; 2.0<br/>squared_error = 0.001<br/>samples = 2<br/>value = 1.168>, fillcolor="#fdf6f1"] ;
27 -> 28 ;
29 [label=<squared_error = 0.0<br/>samples = 1<br/>value = 1.134>, fillcolor="#fdf7f2"] ;
28 -> 29 ;
30 [label=<squared_error = -0.0<br/>samples = 1<br/>value = 1.201>, fillcolor="#fdf6f1"] ;
28 -> 30 ;
31 [label=<squared_error = 0.0<br/>samples = 1<br/>value = 1.619>, fillcolor="#fcf0e8"] ;
27 -> 31 ;
32 [label=<morph &le; 8.0<br/>squared_error = 0.243<br/>samples = 2<br/>value = 2.811>, fillcolor="#f9e0cf"] ;
26 -> 32 ;
33 [label=<squared_error = 0.0<br/>samples = 1<br/>value = 2.319>, fillcolor="#fae7d9"] ;
32 -> 33 ;
34 [label=<squared_error = -0.0<br/>samples = 1<br/>value = 3.304>, fillcolor="#f7dac5"] ;
32 -> 34 ;
35 [label=<brightness &le; -85.0<br/>squared_error = 0.01<br/>samples = 60<br/>value = 0.545>, fillcolor="#fffffe"] ;
5 -> 35 ;
36 [label=<threshold &le; 65.0<br/>squared_error = 0.031<br/>samples = 15<br/>value = 0.633>, fillcolor="#fffdfc"] ;
35 -> 36 ;
37 [label=<threshold &le; 55.0<br/>squared_error = 0.0<br/>samples = 10<br/>value = 0.53>, fillcolor="#ffffff"] ;
36 -> 37 ;
38 [label=<morph &le; 4.0<br/>squared_error = 0.0<br/>samples = 5<br/>value = 0.514>, fillcolor="#ffffff"] ;
37 -> 38 ;
39 [label=<morph &le; 2.0<br/>squared_error = 0.0<br/>samples = 2<br/>value = 0.514>, fillcolor="#ffffff"] ;
38 -> 39 ;
40 [label=<squared_error = 0.0<br/>samples = 1<br/>value = 0.514>, fillcolor="#ffffff"] ;
39 -> 40 ;
41 [label=<squared_error = 0.0<br/>samples = 1<br/>value = 0.514>, fillcolor="#ffffff"] ;
39 -> 41 ;
42 [label=<morph &le; 8.0<br/>squared_error = 0.0<br/>samples = 3<br/>value = 0.514>, fillcolor="#ffffff"] ;
38 -> 42 ;
43 [label=<morph &le; 6.0<br/>squared_error = 0.0<br/>samples = 2<br/>value = 0.514>, fillcolor="#ffffff"] ;
42 -> 43 ;
44 [label=<squared_error = 0.0<br/>samples = 1<br/>value = 0.514>, fillcolor="#ffffff"] ;
43 -> 44 ;
45 [label=<squared_error = 0.0<br/>samples = 1<br/>value = 0.514>, fillcolor="#ffffff"] ;
43 -> 45 ;
46 [label=<squared_error = 0.0<br/>samples = 1<br/>value = 0.514>, fillcolor="#ffffff"] ;
42 -> 46 ;
47 [label=<morph &le; 8.0<br/>squared_error = 0.0<br/>samples = 5<br/>value = 0.545>, fillcolor="#fffffe"] ;
37 -> 47 ;
48 [label=<morph &le; 6.0<br/>squared_error = 0.0<br/>samples = 4<br/>value = 0.542>, fillcolor="#fffffe"] ;
47 -> 48 ;
49 [label=<morph &le; 4.0<br/>squared_error = 0.0<br/>samples = 3<br/>value = 0.541>, fillcolor="#fffffe"] ;
48 -> 49 ;
50 [label=<morph &le; 2.0<br/>squared_error = 0.0<br/>samples = 2<br/>value = 0.54>, fillcolor="#fffffe"] ;
49 -> 50 ;
51 [label=<squared_error = 0.0<br/>samples = 1<br/>value = 0.54>, fillcolor="#fffffe"] ;
50 -> 51 ;
52 [label=<squared_error = 0.0<br/>samples = 1<br/>value = 0.54>, fillcolor="#fffffe"] ;
50 -> 52 ;
53 [label=<squared_error = 0.0<br/>samples = 1<br/>value = 0.542>, fillcolor="#fffffe"] ;
49 -> 53 ;
54 [label=<squared_error = 0.0<br/>samples = 1<br/>value = 0.547>, fillcolor="#fffffe"] ;
48 -> 54 ;
55 [label=<squared_error = 0.0<br/>samples = 1<br/>value = 0.556>, fillcolor="#fffefe"] ;
47 -> 55 ;
56 [label=<morph &le; 8.0<br/>squared_error = 0.028<br/>samples = 5<br/>value = 0.839>, fillcolor="#fefbf8"] ;
36 -> 56 ;
57 [label=<morph &le; 6.0<br/>squared_error = 0.006<br/>samples = 4<br/>value = 0.764>, fillcolor="#fefcfa"] ;
56 -> 57 ;
58 [label=<morph &le; 4.0<br/>squared_error = 0.001<br/>samples = 3<br/>value = 0.72>, fillcolor="#fefcfb"] ;
57 -> 58 ;
59 [label=<morph &le; 2.0<br/>squared_error = 0.0<br/>samples = 2<br/>value = 0.7>, fillcolor="#fefdfb"] ;
58 -> 59 ;
60 [label=<squared_error = 0.0<br/>samples = 1<br/>value = 0.695>, fillcolor="#fefdfb"] ;
59 -> 60 ;
61 [label=<squared_error = -0.0<br/>samples = 1<br/>value = 0.704>, fillcolor="#fefcfb"] ;
59 -> 61 ;
62 [label=<squared_error = 0.0<br/>samples = 1<br/>value = 0.762>, fillcolor="#fefcfa"] ;
58 -> 62 ;
63 [label=<squared_error = -0.0<br/>samples = 1<br/>value = 0.894>, fillcolor="#fefaf7"] ;
57 -> 63 ;
64 [label=<squared_error = -0.0<br/>samples = 1<br/>value = 1.142>, fillcolor="#fdf7f2"] ;
56 -> 64 ;
65 [label=<brightness &le; -75.0<br/>squared_error = 0.0<br/>samples = 45<br/>value = 0.516>, fillcolor="#ffffff"] ;
35 -> 65 ;
66 [label=<threshold &le; 65.0<br/>squared_error = 0.0<br/>samples = 15<br/>value = 0.524>, fillcolor="#ffffff"] ;
65 -> 66 ;
67 [label=<threshold &le; 55.0<br/>squared_error = 0.0<br/>samples = 10<br/>value = 0.513>, fillcolor="#ffffff"] ;
66 -> 67 ;
68 [label=<morph &le; 4.0<br/>squared_error = 0.0<br/>samples = 5<br/>value = 0.512>, fillcolor="#ffffff"] ;
67 -> 68 ;
69 [label=<morph &le; 2.0<br/>squared_error = 0.0<br/>samples = 2<br/>value = 0.512>, fillcolor="#ffffff"] ;
68 -> 69 ;
70 [label=<squared_error = 0.0<br/>samples = 1<br/>value = 0.512>, fillcolor="#ffffff"] ;
69 -> 70 ;
71 [label=<squared_error = -0.0<br/>samples = 1<br/>value = 0.512>, fillcolor="#ffffff"] ;
69 -> 71 ;
72 [label=<morph &le; 6.0<br/>squared_error = 0.0<br/>samples = 3<br/>value = 0.512>, fillcolor="#ffffff"] ;
68 -> 72 ;
73 [label=<squared_error = 0.0<br/>samples = 1<br/>value = 0.512>, fillcolor="#ffffff"] ;
72 -> 73 ;
74 [label=<morph &le; 8.0<br/>squared_error = 0.0<br/>samples = 2<br/>value = 0.512>, fillcolor="#ffffff"] ;
72 -> 74 ;
75 [label=<squared_error = 0.0<br/>samples = 1<br/>value = 0.512>, fillcolor="#ffffff"] ;
74 -> 75 ;
76 [label=<squared_error = 0.0<br/>samples = 1<br/>value = 0.512>, fillcolor="#ffffff"] ;
74 -> 76 ;
77 [label=<morph &le; 4.0<br/>squared_error = 0.0<br/>samples = 5<br/>value = 0.514>, fillcolor="#ffffff"] ;
67 -> 77 ;
78 [label=<morph &le; 2.0<br/>squared_error = 0.0<br/>samples = 2<br/>value = 0.514>, fillcolor="#ffffff"] ;
77 -> 78 ;
79 [label=<squared_error = 0.0<br/>samples = 1<br/>value = 0.514>, fillcolor="#ffffff"] ;
78 -> 79 ;
80 [label=<squared_error = 0.0<br/>samples = 1<br/>value = 0.514>, fillcolor="#ffffff"] ;
78 -> 80 ;
81 [label=<morph &le; 8.0<br/>squared_error = 0.0<br/>samples = 3<br/>value = 0.514>, fillcolor="#ffffff"] ;
77 -> 81 ;
82 [label=<morph &le; 6.0<br/>squared_error = 0.0<br/>samples = 2<br/>value = 0.514>, fillcolor="#ffffff"] ;
81 -> 82 ;
83 [label=<squared_error = 0.0<br/>samples = 1<br/>value = 0.514>, fillcolor="#ffffff"] ;
82 -> 83 ;
84 [label=<squared_error = 0.0<br/>samples = 1<br/>value = 0.514>, fillcolor="#ffffff"] ;
82 -> 84 ;
85 [label=<squared_error = 0.0<br/>samples = 1<br/>value = 0.514>, fillcolor="#ffffff"] ;
81 -> 85 ;
86 [label=<morph &le; 8.0<br/>squared_error = 0.0<br/>samples = 5<br/>value = 0.545>, fillcolor="#fffffe"] ;
66 -> 86 ;
87 [label=<morph &le; 6.0<br/>squared_error = 0.0<br/>samples = 4<br/>value = 0.542>, fillcolor="#fffffe"] ;
86 -> 87 ;
88 [label=<morph &le; 4.0<br/>squared_error = 0.0<br/>samples = 3<br/>value = 0.541>, fillcolor="#fffffe"] ;
87 -> 88 ;
89 [label=<morph &le; 2.0<br/>squared_error = 0.0<br/>samples = 2<br/>value = 0.54>, fillcolor="#fffffe"] ;
88 -> 89 ;
90 [label=<squared_error = 0.0<br/>samples = 1<br/>value = 0.54>, fillcolor="#fffffe"] ;
89 -> 90 ;
91 [label=<squared_error = 0.0<br/>samples = 1<br/>value = 0.54>, fillcolor="#fffffe"] ;
89 -> 91 ;
92 [label=<squared_error = 0.0<br/>samples = 1<br/>value = 0.542>, fillcolor="#fffffe"] ;
88 -> 92 ;
93 [label=<squared_error = 0.0<br/>samples = 1<br/>value = 0.547>, fillcolor="#fffffe"] ;
87 -> 93 ;
94 [label=<squared_error = 0.0<br/>samples = 1<br/>value = 0.556>, fillcolor="#fffefe"] ;
86 -> 94 ;
95 [label=<threshold &le; 65.0<br/>squared_error = 0.0<br/>samples = 30<br/>value = 0.512>, fillcolor="#ffffff"] ;
65 -> 95 ;
96 [label=<brightness &le; -65.0<br/>squared_error = 0.0<br/>samples = 20<br/>value = 0.512>, fillcolor="#ffffff"] ;
95 -> 96 ;
97 [label=<threshold &le; 55.0<br/>squared_error = 0.0<br/>samples = 10<br/>value = 0.512>, fillcolor="#ffffff"] ;
96 -> 97 ;
98 [label=<squared_error = 0.0<br/>samples = 5<br/>value = 0.511>, fillcolor="#ffffff"] ;
97 -> 98 ;
99 [label=<morph &le; 4.0<br/>squared_error = 0.0<br/>samples = 5<br/>value = 0.512>, fillcolor="#ffffff"] ;
97 -> 99 ;
100 [label=<morph &le; 2.0<br/>squared_error = 0.0<br/>samples = 2<br/>value = 0.512>, fillcolor="#ffffff"] ;
99 -> 100 ;
101 [label=<squared_error = 0.0<br/>samples = 1<br/>value = 0.512>, fillcolor="#ffffff"] ;
100 -> 101 ;
102 [label=<squared_error = -0.0<br/>samples = 1<br/>value = 0.512>, fillcolor="#ffffff"] ;
100 -> 102 ;
103 [label=<morph &le; 6.0<br/>squared_error = 0.0<br/>samples = 3<br/>value = 0.512>, fillcolor="#ffffff"] ;
99 -> 103 ;
104 [label=<squared_error = 0.0<br/>samples = 1<br/>value = 0.512>, fillcolor="#ffffff"] ;
103 -> 104 ;
105 [label=<morph &le; 8.0<br/>squared_error = 0.0<br/>samples = 2<br/>value = 0.512>, fillcolor="#ffffff"] ;
103 -> 105 ;
106 [label=<squared_error = 0.0<br/>samples = 1<br/>value = 0.512>, fillcolor="#ffffff"] ;
105 -> 106 ;
107 [label=<squared_error = 0.0<br/>samples = 1<br/>value = 0.512>, fillcolor="#ffffff"] ;
105 -> 107 ;
108 [label=<squared_error = -0.0<br/>samples = 10<br/>value = 0.511>, fillcolor="#ffffff"] ;
96 -> 108 ;
109 [label=<brightness &le; -65.0<br/>squared_error = 0.0<br/>samples = 10<br/>value = 0.513>, fillcolor="#ffffff"] ;
95 -> 109 ;
110 [label=<morph &le; 4.0<br/>squared_error = 0.0<br/>samples = 5<br/>value = 0.514>, fillcolor="#ffffff"] ;
109 -> 110 ;
111 [label=<morph &le; 2.0<br/>squared_error = 0.0<br/>samples = 2<br/>value = 0.514>, fillcolor="#ffffff"] ;
110 -> 111 ;
112 [label=<squared_error = 0.0<br/>samples = 1<br/>value = 0.514>, fillcolor="#ffffff"] ;
111 -> 112 ;
113 [label=<squared_error = 0.0<br/>samples = 1<br/>value = 0.514>, fillcolor="#ffffff"] ;
111 -> 113 ;
114 [label=<morph &le; 8.0<br/>squared_error = 0.0<br/>samples = 3<br/>value = 0.514>, fillcolor="#ffffff"] ;
110 -> 114 ;
115 [label=<morph &le; 6.0<br/>squared_error = 0.0<br/>samples = 2<br/>value = 0.514>, fillcolor="#ffffff"] ;
114 -> 115 ;
116 [label=<squared_error = 0.0<br/>samples = 1<br/>value = 0.514>, fillcolor="#ffffff"] ;
115 -> 116 ;
117 [label=<squared_error = 0.0<br/>samples = 1<br/>value = 0.514>, fillcolor="#ffffff"] ;
115 -> 117 ;
118 [label=<squared_error = 0.0<br/>samples = 1<br/>value = 0.514>, fillcolor="#ffffff"] ;
114 -> 118 ;
119 [label=<morph &le; 4.0<br/>squared_error = 0.0<br/>samples = 5<br/>value = 0.512>, fillcolor="#ffffff"] ;
109 -> 119 ;
120 [label=<morph &le; 2.0<br/>squared_error = 0.0<br/>samples = 2<br/>value = 0.512>, fillcolor="#ffffff"] ;
119 -> 120 ;
121 [label=<squared_error = 0.0<br/>samples = 1<br/>value = 0.512>, fillcolor="#ffffff"] ;
120 -> 121 ;
122 [label=<squared_error = -0.0<br/>samples = 1<br/>value = 0.512>, fillcolor="#ffffff"] ;
120 -> 122 ;
123 [label=<morph &le; 6.0<br/>squared_error = 0.0<br/>samples = 3<br/>value = 0.512>, fillcolor="#ffffff"] ;
119 -> 123 ;
124 [label=<squared_error = 0.0<br/>samples = 1<br/>value = 0.512>, fillcolor="#ffffff"] ;
123 -> 124 ;
125 [label=<morph &le; 8.0<br/>squared_error = 0.0<br/>samples = 2<br/>value = 0.512>, fillcolor="#ffffff"] ;
123 -> 125 ;
126 [label=<squared_error = 0.0<br/>samples = 1<br/>value = 0.512>, fillcolor="#ffffff"] ;
125 -> 126 ;
127 [label=<squared_error = 0.0<br/>samples = 1<br/>value = 0.512>, fillcolor="#ffffff"] ;
125 -> 127 ;
128 [label=<brightness &le; -85.0<br/>squared_error = 3.412<br/>samples = 50<br/>value = 1.959>, fillcolor="#fbece1"] ;
4 -> 128 ;
129 [label=<morph &le; 6.0<br/>squared_error = 3.513<br/>samples = 20<br/>value = 3.599>, fillcolor="#f7d6bf"] ;
128 -> 129 ;
130 [label=<brightness &le; -95.0<br/>squared_error = 1.336<br/>samples = 12<br/>value = 2.559>, fillcolor="#f9e4d4"] ;
129 -> 130 ;
131 [label=<morph &le; 4.0<br/>squared_error = 1.245<br/>samples = 6<br/>value = 3.227>, fillcolor="#f8dbc6"] ;
130 -> 131 ;
132 [label=<threshold &le; 85.0<br/>squared_error = 0.442<br/>samples = 4<br/>value = 2.676>, fillcolor="#f9e2d2"] ;
131 -> 132 ;
133 [label=<morph &le; 2.0<br/>squared_error = 0.015<br/>samples = 2<br/>value = 2.042>, fillcolor="#fbebdf"] ;
132 -> 133 ;
134 [label=<squared_error = 0.0<br/>samples = 1<br/>value = 1.92>, fillcolor="#fbece2"] ;
133 -> 134 ;
135 [label=<squared_error = 0.0<br/>samples = 1<br/>value = 2.165>, fillcolor="#fae9dd"] ;
133 -> 135 ;
136 [label=<morph &le; 2.0<br/>squared_error = 0.066<br/>samples = 2<br/>value = 3.31>, fillcolor="#f7dac5"] ;
132 -> 136 ;
137 [label=<squared_error = 0.0<br/>samples = 1<br/>value = 3.053>, fillcolor="#f8ddca"] ;
136 -> 137 ;
138 [label=<squared_error = -0.0<br/>samples = 1<br/>value = 3.566>, fillcolor="#f7d6bf"] ;
136 -> 138 ;
139 [label=<threshold &le; 85.0<br/>squared_error = 1.032<br/>samples = 2<br/>value = 4.328>, fillcolor="#f5ccaf"] ;
131 -> 139 ;
140 [label=<squared_error = 0.0<br/>samples = 1<br/>value = 3.312>, fillcolor="#f7dac5"] ;
139 -> 140 ;
141 [label=<squared_error = 0.0<br/>samples = 1<br/>value = 5.344>, fillcolor="#f2bf9a"] ;
139 -> 141 ;
142 [label=<threshold &le; 85.0<br/>squared_error = 0.536<br/>samples = 6<br/>value = 1.892>, fillcolor="#fbede2"] ;
130 -> 142 ;
143 [label=<morph &le; 4.0<br/>squared_error = 0.046<br/>samples = 3<br/>value = 1.318>, fillcolor="#fdf4ee"] ;
142 -> 143 ;
144 [label=<morph &le; 2.0<br/>squared_error = 0.001<br/>samples = 2<br/>value = 1.168>, fillcolor="#fdf6f1"] ;
143 -> 144 ;
145 [label=<squared_error = 0.0<br/>samples = 1<br/>value = 1.134>, fillcolor="#fdf7f2"] ;
144 -> 145 ;
146 [label=<squared_error = -0.0<br/>samples = 1<br/>value = 1.201>, fillcolor="#fdf6f1"] ;
144 -> 146 ;
147 [label=<squared_error = 0.0<br/>samples = 1<br/>value = 1.619>, fillcolor="#fcf0e8"] ;
143 -> 147 ;
148 [label=<morph &le; 4.0<br/>squared_error = 0.368<br/>samples = 3<br/>value = 2.465>, fillcolor="#fae5d6"] ;
142 -> 148 ;
149 [label=<morph &le; 2.0<br/>squared_error = 0.015<br/>samples = 2<br/>value = 2.042>, fillcolor="#fbebdf"] ;
148 -> 149 ;
150 [label=<squared_error = 0.0<br/>samples = 1<br/>value = 1.92>, fillcolor="#fbece2"] ;
149 -> 150 ;
151 [label=<squared_error = 0.0<br/>samples = 1<br/>value = 2.165>, fillcolor="#fae9dd"] ;
149 -> 151 ;
152 [label=<squared_error = 0.0<br/>samples = 1<br/>value = 3.312>, fillcolor="#f7dac5"] ;
148 -> 152 ;
153 [label=<threshold &le; 85.0<br/>squared_error = 2.725<br/>samples = 8<br/>value = 5.158>, fillcolor="#f2c19e"] ;
129 -> 153 ;
154 [label=<brightness &le; -95.0<br/>squared_error = 1.865<br/>samples = 4<br/>value = 4.058>, fillcolor="#f5d0b5"] ;
153 -> 154 ;
155 [label=<morph &le; 8.0<br/>squared_error = 0.376<br/>samples = 2<br/>value = 5.306>, fillcolor="#f2bf9b"] ;
154 -> 155 ;
156 [label=<squared_error = 0.0<br/>samples = 1<br/>value = 4.692>, fillcolor="#f4c8a8"] ;
155 -> 156 ;
157 [label=<squared_error = -0.0<br/>samples = 1<br/>value = 5.919>, fillcolor="#f0b78e"] ;
155 -> 157 ;
158 [label=<morph &le; 8.0<br/>squared_error = 0.243<br/>samples = 2<br/>value = 2.811>, fillcolor="#f9e0cf"] ;
154 -> 158 ;
159 [label=<squared_error = 0.0<br/>samples = 1<br/>value = 2.319>, fillcolor="#fae7d9"] ;
158 -> 159 ;
160 [label=<squared_error = -0.0<br/>samples = 1<br/>value = 3.304>, fillcolor="#f7dac5"] ;
158 -> 160 ;
161 [label=<brightness &le; -95.0<br/>squared_error = 1.167<br/>samples = 4<br/>value = 6.258>, fillcolor="#efb387"] ;
153 -> 161 ;
162 [label=<morph &le; 8.0<br/>squared_error = 0.145<br/>samples = 2<br/>value = 7.21>, fillcolor="#eda673"] ;
161 -> 162 ;
163 [label=<squared_error = 0.0<br/>samples = 1<br/>value = 6.83>, fillcolor="#eeab7b"] ;
162 -> 163 ;
164 [label=<squared_error = 0.0<br/>samples = 1<br/>value = 7.59>, fillcolor="#eca16b"] ;
162 -> 164 ;
165 [label=<morph &le; 8.0<br/>squared_error = 0.376<br/>samples = 2<br/>value = 5.306>, fillcolor="#f2bf9b"] ;
161 -> 165 ;
166 [label=<squared_error = 0.0<br/>samples = 1<br/>value = 4.692>, fillcolor="#f4c8a8"] ;
165 -> 166 ;
167 [label=<squared_error = -0.0<br/>samples = 1<br/>value = 5.919>, fillcolor="#f0b78e"] ;
165 -> 167 ;
168 [label=<brightness &le; -75.0<br/>squared_error = 0.358<br/>samples = 30<br/>value = 0.866>, fillcolor="#fefaf8"] ;
128 -> 168 ;
169 [label=<threshold &le; 85.0<br/>squared_error = 0.633<br/>samples = 10<br/>value = 1.377>, fillcolor="#fdf4ed"] ;
168 -> 169 ;
170 [label=<morph &le; 8.0<br/>squared_error = 0.028<br/>samples = 5<br/>value = 0.839>, fillcolor="#fefbf8"] ;
169 -> 170 ;
171 [label=<morph &le; 6.0<br/>squared_error = 0.006<br/>samples = 4<br/>value = 0.764>, fillcolor="#fefcfa"] ;
170 -> 171 ;
172 [label=<morph &le; 4.0<br/>squared_error = 0.001<br/>samples = 3<br/>value = 0.72>, fillcolor="#fefcfb"] ;
171 -> 172 ;
173 [label=<morph &le; 2.0<br/>squared_error = 0.0<br/>samples = 2<br/>value = 0.7>, fillcolor="#fefdfb"] ;
172 -> 173 ;
174 [label=<squared_error = 0.0<br/>samples = 1<br/>value = 0.695>, fillcolor="#fefdfb"] ;
173 -> 174 ;
175 [label=<squared_error = -0.0<br/>samples = 1<br/>value = 0.704>, fillcolor="#fefcfb"] ;
173 -> 175 ;
176 [label=<squared_error = 0.0<br/>samples = 1<br/>value = 0.762>, fillcolor="#fefcfa"] ;
172 -> 176 ;
177 [label=<squared_error = -0.0<br/>samples = 1<br/>value = 0.894>, fillcolor="#fefaf7"] ;
171 -> 177 ;
178 [label=<squared_error = -0.0<br/>samples = 1<br/>value = 1.142>, fillcolor="#fdf7f2"] ;
170 -> 178 ;
179 [label=<morph &le; 6.0<br/>squared_error = 0.66<br/>samples = 5<br/>value = 1.915>, fillcolor="#fbece2"] ;
169 -> 179 ;
180 [label=<morph &le; 4.0<br/>squared_error = 0.046<br/>samples = 3<br/>value = 1.318>, fillcolor="#fdf4ee"] ;
179 -> 180 ;
181 [label=<morph &le; 2.0<br/>squared_error = 0.001<br/>samples = 2<br/>value = 1.168>, fillcolor="#fdf6f1"] ;
180 -> 181 ;
182 [label=<squared_error = 0.0<br/>samples = 1<br/>value = 1.134>, fillcolor="#fdf7f2"] ;
181 -> 182 ;
183 [label=<squared_error = -0.0<br/>samples = 1<br/>value = 1.201>, fillcolor="#fdf6f1"] ;
181 -> 183 ;
184 [label=<squared_error = 0.0<br/>samples = 1<br/>value = 1.619>, fillcolor="#fcf0e8"] ;
180 -> 184 ;
185 [label=<morph &le; 8.0<br/>squared_error = 0.243<br/>samples = 2<br/>value = 2.811>, fillcolor="#f9e0cf"] ;
179 -> 185 ;
186 [label=<squared_error = 0.0<br/>samples = 1<br/>value = 2.319>, fillcolor="#fae7d9"] ;
185 -> 186 ;
187 [label=<squared_error = -0.0<br/>samples = 1<br/>value = 3.304>, fillcolor="#f7dac5"] ;
185 -> 187 ;
188 [label=<threshold &le; 85.0<br/>squared_error = 0.025<br/>samples = 20<br/>value = 0.611>, fillcolor="#fffefd"] ;
168 -> 188 ;
189 [label=<brightness &le; -65.0<br/>squared_error = 0.0<br/>samples = 10<br/>value = 0.53>, fillcolor="#ffffff"] ;
188 -> 189 ;
190 [label=<morph &le; 8.0<br/>squared_error = 0.0<br/>samples = 5<br/>value = 0.545>, fillcolor="#fffffe"] ;
189 -> 190 ;
191 [label=<morph &le; 6.0<br/>squared_error = 0.0<br/>samples = 4<br/>value = 0.542>, fillcolor="#fffffe"] ;
190 -> 191 ;
192 [label=<morph &le; 4.0<br/>squared_error = 0.0<br/>samples = 3<br/>value = 0.541>, fillcolor="#fffffe"] ;
191 -> 192 ;
193 [label=<morph &le; 2.0<br/>squared_error = 0.0<br/>samples = 2<br/>value = 0.54>, fillcolor="#fffffe"] ;
192 -> 193 ;
194 [label=<squared_error = 0.0<br/>samples = 1<br/>value = 0.54>, fillcolor="#fffffe"] ;
193 -> 194 ;
195 [label=<squared_error = 0.0<br/>samples = 1<br/>value = 0.54>, fillcolor="#fffffe"] ;
193 -> 195 ;
196 [label=<squared_error = 0.0<br/>samples = 1<br/>value = 0.542>, fillcolor="#fffffe"] ;
192 -> 196 ;
197 [label=<squared_error = 0.0<br/>samples = 1<br/>value = 0.547>, fillcolor="#fffffe"] ;
191 -> 197 ;
198 [label=<squared_error = 0.0<br/>samples = 1<br/>value = 0.556>, fillcolor="#fffefe"] ;
190 -> 198 ;
199 [label=<morph &le; 4.0<br/>squared_error = 0.0<br/>samples = 5<br/>value = 0.514>, fillcolor="#ffffff"] ;
189 -> 199 ;
200 [label=<morph &le; 2.0<br/>squared_error = 0.0<br/>samples = 2<br/>value = 0.514>, fillcolor="#ffffff"] ;
199 -> 200 ;
201 [label=<squared_error = 0.0<br/>samples = 1<br/>value = 0.514>, fillcolor="#ffffff"] ;
200 -> 201 ;
202 [label=<squared_error = 0.0<br/>samples = 1<br/>value = 0.514>, fillcolor="#ffffff"] ;
200 -> 202 ;
203 [label=<morph &le; 8.0<br/>squared_error = 0.0<br/>samples = 3<br/>value = 0.514>, fillcolor="#ffffff"] ;
199 -> 203 ;
204 [label=<morph &le; 6.0<br/>squared_error = 0.0<br/>samples = 2<br/>value = 0.514>, fillcolor="#ffffff"] ;
203 -> 204 ;
205 [label=<squared_error = 0.0<br/>samples = 1<br/>value = 0.514>, fillcolor="#ffffff"] ;
204 -> 205 ;
206 [label=<squared_error = 0.0<br/>samples = 1<br/>value = 0.514>, fillcolor="#ffffff"] ;
204 -> 206 ;
207 [label=<squared_error = 0.0<br/>samples = 1<br/>value = 0.514>, fillcolor="#ffffff"] ;
203 -> 207 ;
208 [label=<brightness &le; -65.0<br/>squared_error = 0.036<br/>samples = 10<br/>value = 0.692>, fillcolor="#fffdfb"] ;
188 -> 208 ;
209 [label=<morph &le; 8.0<br/>squared_error = 0.028<br/>samples = 5<br/>value = 0.839>, fillcolor="#fefbf8"] ;
208 -> 209 ;
210 [label=<morph &le; 6.0<br/>squared_error = 0.006<br/>samples = 4<br/>value = 0.764>, fillcolor="#fefcfa"] ;
209 -> 210 ;
211 [label=<morph &le; 4.0<br/>squared_error = 0.001<br/>samples = 3<br/>value = 0.72>, fillcolor="#fefcfb"] ;
210 -> 211 ;
212 [label=<morph &le; 2.0<br/>squared_error = 0.0<br/>samples = 2<br/>value = 0.7>, fillcolor="#fefdfb"] ;
211 -> 212 ;
213 [label=<squared_error = 0.0<br/>samples = 1<br/>value = 0.695>, fillcolor="#fefdfb"] ;
212 -> 213 ;
214 [label=<squared_error = -0.0<br/>samples = 1<br/>value = 0.704>, fillcolor="#fefcfb"] ;
212 -> 214 ;
215 [label=<squared_error = 0.0<br/>samples = 1<br/>value = 0.762>, fillcolor="#fefcfa"] ;
211 -> 215 ;
216 [label=<squared_error = -0.0<br/>samples = 1<br/>value = 0.894>, fillcolor="#fefaf7"] ;
210 -> 216 ;
217 [label=<squared_error = -0.0<br/>samples = 1<br/>value = 1.142>, fillcolor="#fdf7f2"] ;
209 -> 217 ;
218 [label=<morph &le; 8.0<br/>squared_error = 0.0<br/>samples = 5<br/>value = 0.545>, fillcolor="#fffffe"] ;
208 -> 218 ;
219 [label=<morph &le; 6.0<br/>squared_error = 0.0<br/>samples = 4<br/>value = 0.542>, fillcolor="#fffffe"] ;
218 -> 219 ;
220 [label=<morph &le; 4.0<br/>squared_error = 0.0<br/>samples = 3<br/>value = 0.541>, fillcolor="#fffffe"] ;
219 -> 220 ;
221 [label=<morph &le; 2.0<br/>squared_error = 0.0<br/>samples = 2<br/>value = 0.54>, fillcolor="#fffffe"] ;
220 -> 221 ;
222 [label=<squared_error = 0.0<br/>samples = 1<br/>value = 0.54>, fillcolor="#fffffe"] ;
221 -> 222 ;
223 [label=<squared_error = 0.0<br/>samples = 1<br/>value = 0.54>, fillcolor="#fffffe"] ;
221 -> 223 ;
224 [label=<squared_error = 0.0<br/>samples = 1<br/>value = 0.542>, fillcolor="#fffffe"] ;
220 -> 224 ;
225 [label=<squared_error = 0.0<br/>samples = 1<br/>value = 0.547>, fillcolor="#fffffe"] ;
219 -> 225 ;
226 [label=<squared_error = 0.0<br/>samples = 1<br/>value = 0.556>, fillcolor="#fffefe"] ;
218 -> 226 ;
227 [label=<brightness &le; -85.0<br/>squared_error = 7.549<br/>samples = 50<br/>value = 4.469>, fillcolor="#f4caac"] ;
3 -> 227 ;
228 [label=<morph &le; 4.0<br/>squared_error = 3.672<br/>samples = 20<br/>value = 6.884>, fillcolor="#eeaa7a"] ;
227 -> 228 ;
229 [label=<brightness &le; -95.0<br/>squared_error = 2.231<br/>samples = 8<br/>value = 5.158>, fillcolor="#f2c19e"] ;
228 -> 229 ;
230 [label=<threshold &le; 105.0<br/>squared_error = 1.615<br/>samples = 4<br/>value = 6.165>, fillcolor="#f0b489"] ;
229 -> 230 ;
231 [label=<morph &le; 2.0<br/>squared_error = 0.159<br/>samples = 2<br/>value = 4.991>, fillcolor="#f3c4a2"] ;
230 -> 231 ;
232 [label=<squared_error = 0.0<br/>samples = 1<br/>value = 4.593>, fillcolor="#f4c9aa"] ;
231 -> 232 ;
233 [label=<squared_error = -0.0<br/>samples = 1<br/>value = 5.39>, fillcolor="#f2be99"] ;
231 -> 233 ;
234 [label=<morph &le; 2.0<br/>squared_error = 0.316<br/>samples = 2<br/>value = 7.338>, fillcolor="#eca471"] ;
230 -> 234 ;
235 [label=<squared_error = 0.0<br/>samples = 1<br/>value = 6.776>, fillcolor="#eeac7c"] ;
234 -> 235 ;
236 [label=<squared_error = 0.0<br/>samples = 1<br/>value = 7.9>, fillcolor="#eb9d65"] ;
234 -> 236 ;
237 [label=<threshold &le; 105.0<br/>squared_error = 0.819<br/>samples = 4<br/>value = 4.151>, fillcolor="#f5cfb3"] ;
229 -> 237 ;
238 [label=<morph &le; 2.0<br/>squared_error = 0.066<br/>samples = 2<br/>value = 3.31>, fillcolor="#f7dac5"] ;
237 -> 238 ;
239 [label=<squared_error = 0.0<br/>samples = 1<br/>value = 3.053>, fillcolor="#f8ddca"] ;
238 -> 239 ;
240 [label=<squared_error = -0.0<br/>samples = 1<br/>value = 3.566>, fillcolor="#f7d6bf"] ;
238 -> 240 ;
241 [label=<morph &le; 2.0<br/>squared_error = 0.159<br/>samples = 2<br/>value = 4.991>, fillcolor="#f3c4a2"] ;
237 -> 241 ;
242 [label=<squared_error = 0.0<br/>samples = 1<br/>value = 4.593>, fillcolor="#f4c9aa"] ;
241 -> 242 ;
243 [label=<squared_error = -0.0<br/>samples = 1<br/>value = 5.39>, fillcolor="#f2be99"] ;
241 -> 243 ;
244 [label=<threshold &le; 105.0<br/>squared_error = 1.32<br/>samples = 12<br/>value = 8.036>, fillcolor="#ea9b62"] ;
228 -> 244 ;
245 [label=<brightness &le; -95.0<br/>squared_error = 1.242<br/>samples = 6<br/>value = 7.414>, fillcolor="#eca36f"] ;
244 -> 245 ;
246 [label=<morph &le; 6.0<br/>squared_error = 0.248<br/>samples = 3<br/>value = 8.241>, fillcolor="#ea985e"] ;
245 -> 246 ;
247 [label=<squared_error = 0.0<br/>samples = 1<br/>value = 7.537>, fillcolor="#eca26d"] ;
246 -> 247 ;
248 [label=<morph &le; 8.0<br/>squared_error = 0.0<br/>samples = 2<br/>value = 8.593>, fillcolor="#e99456"] ;
246 -> 248 ;
249 [label=<squared_error = 0.0<br/>samples = 1<br/>value = 8.589>, fillcolor="#e99457"] ;
248 -> 249 ;
250 [label=<squared_error = -0.0<br/>samples = 1<br/>value = 8.597>, fillcolor="#e99456"] ;
248 -> 250 ;
251 [label=<morph &le; 6.0<br/>squared_error = 0.87<br/>samples = 3<br/>value = 6.588>, fillcolor="#eeae80"] ;
245 -> 251 ;
252 [label=<squared_error = 0.0<br/>samples = 1<br/>value = 5.344>, fillcolor="#f2bf9a"] ;
251 -> 252 ;
253 [label=<morph &le; 8.0<br/>squared_error = 0.145<br/>samples = 2<br/>value = 7.21>, fillcolor="#eda673"] ;
251 -> 253 ;
254 [label=<squared_error = 0.0<br/>samples = 1<br/>value = 6.83>, fillcolor="#eeab7b"] ;
253 -> 254 ;
255 [label=<squared_error = 0.0<br/>samples = 1<br/>value = 7.59>, fillcolor="#eca16b"] ;
253 -> 255 ;
256 [label=<brightness &le; -95.0<br/>squared_error = 0.627<br/>samples = 6<br/>value = 8.657>, fillcolor="#e99355"] ;
244 -> 256 ;
257 [label=<morph &le; 8.0<br/>squared_error = 0.659<br/>samples = 3<br/>value = 9.073>, fillcolor="#e88d4c"] ;
256 -> 257 ;
258 [label=<morph &le; 6.0<br/>squared_error = 0.169<br/>samples = 2<br/>value = 9.596>, fillcolor="#e68642"] ;
257 -> 258 ;
259 [label=<squared_error = 0.0<br/>samples = 1<br/>value = 10.007>, fillcolor="#e58139"] ;
258 -> 259 ;
260 [label=<squared_error = 0.0<br/>samples = 1<br/>value = 9.184>, fillcolor="#e78c4a"] ;
258 -> 260 ;
261 [label=<squared_error = 0.0<br/>samples = 1<br/>value = 8.028>, fillcolor="#ea9b62"] ;
257 -> 261 ;
262 [label=<morph &le; 6.0<br/>squared_error = 0.248<br/>samples = 3<br/>value = 8.241>, fillcolor="#ea985e"] ;
256 -> 262 ;
263 [label=<squared_error = 0.0<br/>samples = 1<br/>value = 7.537>, fillcolor="#eca26d"] ;
262 -> 263 ;
264 [label=<morph &le; 8.0<br/>squared_error = 0.0<br/>samples = 2<br/>value = 8.593>, fillcolor="#e99456"] ;
262 -> 264 ;
265 [label=<squared_error = 0.0<br/>samples = 1<br/>value = 8.589>, fillcolor="#e99457"] ;
264 -> 265 ;
266 [label=<squared_error = -0.0<br/>samples = 1<br/>value = 8.597>, fillcolor="#e99456"] ;
264 -> 266 ;
267 [label=<brightness &le; -75.0<br/>squared_error = 3.65<br/>samples = 30<br/>value = 2.858>, fillcolor="#f9e0ce"] ;
227 -> 267 ;
268 [label=<morph &le; 6.0<br/>squared_error = 3.419<br/>samples = 10<br/>value = 4.439>, fillcolor="#f4cbad"] ;
267 -> 268 ;
269 [label=<morph &le; 4.0<br/>squared_error = 1.245<br/>samples = 6<br/>value = 3.227>, fillcolor="#f8dbc6"] ;
268 -> 269 ;
270 [label=<threshold &le; 105.0<br/>squared_error = 0.442<br/>samples = 4<br/>value = 2.676>, fillcolor="#f9e2d2"] ;
269 -> 270 ;
271 [label=<morph &le; 2.0<br/>squared_error = 0.015<br/>samples = 2<br/>value = 2.042>, fillcolor="#fbebdf"] ;
270 -> 271 ;
272 [label=<squared_error = 0.0<br/>samples = 1<br/>value = 1.92>, fillcolor="#fbece2"] ;
271 -> 272 ;
273 [label=<squared_error = 0.0<br/>samples = 1<br/>value = 2.165>, fillcolor="#fae9dd"] ;
271 -> 273 ;
274 [label=<morph &le; 2.0<br/>squared_error = 0.066<br/>samples = 2<br/>value = 3.31>, fillcolor="#f7dac5"] ;
270 -> 274 ;
275 [label=<squared_error = 0.0<br/>samples = 1<br/>value = 3.053>, fillcolor="#f8ddca"] ;
274 -> 275 ;
276 [label=<squared_error = -0.0<br/>samples = 1<br/>value = 3.566>, fillcolor="#f7d6bf"] ;
274 -> 276 ;
277 [label=<threshold &le; 105.0<br/>squared_error = 1.032<br/>samples = 2<br/>value = 4.328>, fillcolor="#f5ccaf"] ;
269 -> 277 ;
278 [label=<squared_error = 0.0<br/>samples = 1<br/>value = 3.312>, fillcolor="#f7dac5"] ;
277 -> 278 ;
279 [label=<squared_error = 0.0<br/>samples = 1<br/>value = 5.344>, fillcolor="#f2bf9a"] ;
277 -> 279 ;
280 [label=<threshold &le; 105.0<br/>squared_error = 1.167<br/>samples = 4<br/>value = 6.258>, fillcolor="#efb387"] ;
268 -> 280 ;
281 [label=<morph &le; 8.0<br/>squared_error = 0.376<br/>samples = 2<br/>value = 5.306>, fillcolor="#f2bf9b"] ;
280 -> 281 ;
282 [label=<squared_error = 0.0<br/>samples = 1<br/>value = 4.692>, fillcolor="#f4c8a8"] ;
281 -> 282 ;
283 [label=<squared_error = -0.0<br/>samples = 1<br/>value = 5.919>, fillcolor="#f0b78e"] ;
281 -> 283 ;
284 [label=<morph &le; 8.0<br/>squared_error = 0.145<br/>samples = 2<br/>value = 7.21>, fillcolor="#eda673"] ;
280 -> 284 ;
285 [label=<squared_error = 0.0<br/>samples = 1<br/>value = 6.83>, fillcolor="#eeab7b"] ;
284 -> 285 ;
286 [label=<squared_error = 0.0<br/>samples = 1<br/>value = 7.59>, fillcolor="#eca16b"] ;
284 -> 286 ;
287 [label=<morph &le; 6.0<br/>squared_error = 1.891<br/>samples = 20<br/>value = 2.068>, fillcolor="#fbeadf"] ;
267 -> 287 ;
288 [label=<brightness &le; -65.0<br/>squared_error = 0.515<br/>samples = 12<br/>value = 1.455>, fillcolor="#fcf2eb"] ;
287 -> 288 ;
289 [label=<threshold &le; 105.0<br/>squared_error = 0.536<br/>samples = 6<br/>value = 1.892>, fillcolor="#fbede2"] ;
288 -> 289 ;
290 [label=<morph &le; 4.0<br/>squared_error = 0.046<br/>samples = 3<br/>value = 1.318>, fillcolor="#fdf4ee"] ;
289 -> 290 ;
291 [label=<morph &le; 2.0<br/>squared_error = 0.001<br/>samples = 2<br/>value = 1.168>, fillcolor="#fdf6f1"] ;
290 -> 291 ;
292 [label=<squared_error = 0.0<br/>samples = 1<br/>value = 1.134>, fillcolor="#fdf7f2"] ;
291 -> 292 ;
293 [label=<squared_error = -0.0<br/>samples = 1<br/>value = 1.201>, fillcolor="#fdf6f1"] ;
291 -> 293 ;
294 [label=<squared_error = 0.0<br/>samples = 1<br/>value = 1.619>, fillcolor="#fcf0e8"] ;
290 -> 294 ;
295 [label=<morph &le; 4.0<br/>squared_error = 0.368<br/>samples = 3<br/>value = 2.465>, fillcolor="#fae5d6"] ;
289 -> 295 ;
296 [label=<morph &le; 2.0<br/>squared_error = 0.015<br/>samples = 2<br/>value = 2.042>, fillcolor="#fbebdf"] ;
295 -> 296 ;
297 [label=<squared_error = 0.0<br/>samples = 1<br/>value = 1.92>, fillcolor="#fbece2"] ;
296 -> 297 ;
298 [label=<squared_error = 0.0<br/>samples = 1<br/>value = 2.165>, fillcolor="#fae9dd"] ;
296 -> 298 ;
299 [label=<squared_error = -0.0<br/>samples = 1<br/>value = 3.312>, fillcolor="#f7dac5"] ;
295 -> 299 ;
300 [label=<threshold &le; 105.0<br/>squared_error = 0.113<br/>samples = 6<br/>value = 1.019>, fillcolor="#fef8f4"] ;
288 -> 300 ;
301 [label=<morph &le; 4.0<br/>squared_error = 0.001<br/>samples = 3<br/>value = 0.72>, fillcolor="#fefcfb"] ;
300 -> 301 ;
302 [label=<morph &le; 2.0<br/>squared_error = 0.0<br/>samples = 2<br/>value = 0.7>, fillcolor="#fefdfb"] ;
301 -> 302 ;
303 [label=<squared_error = 0.0<br/>samples = 1<br/>value = 0.695>, fillcolor="#fefdfb"] ;
302 -> 303 ;
304 [label=<squared_error = -0.0<br/>samples = 1<br/>value = 0.704>, fillcolor="#fefcfb"] ;
302 -> 304 ;
305 [label=<squared_error = -0.0<br/>samples = 1<br/>value = 0.762>, fillcolor="#fefcfa"] ;
301 -> 305 ;
306 [label=<morph &le; 4.0<br/>squared_error = 0.046<br/>samples = 3<br/>value = 1.318>, fillcolor="#fdf4ee"] ;
300 -> 306 ;
307 [label=<morph &le; 2.0<br/>squared_error = 0.001<br/>samples = 2<br/>value = 1.168>, fillcolor="#fdf6f1"] ;
306 -> 307 ;
308 [label=<squared_error = 0.0<br/>samples = 1<br/>value = 1.134>, fillcolor="#fdf7f2"] ;
307 -> 308 ;
309 [label=<squared_error = -0.0<br/>samples = 1<br/>value = 1.201>, fillcolor="#fdf6f1"] ;
307 -> 309 ;
310 [label=<squared_error = 0.0<br/>samples = 1<br/>value = 1.619>, fillcolor="#fcf0e8"] ;
306 -> 310 ;
311 [label=<brightness &le; -65.0<br/>squared_error = 2.548<br/>samples = 8<br/>value = 2.987>, fillcolor="#f8decb"] ;
287 -> 311 ;
312 [label=<threshold &le; 105.0<br/>squared_error = 1.865<br/>samples = 4<br/>value = 4.058>, fillcolor="#f5d0b5"] ;
311 -> 312 ;
313 [label=<morph &le; 8.0<br/>squared_error = 0.243<br/>samples = 2<br/>value = 2.811>, fillcolor="#f9e0cf"] ;
312 -> 313 ;
314 [label=<squared_error = 0.0<br/>samples = 1<br/>value = 2.319>, fillcolor="#fae7d9"] ;
313 -> 314 ;
315 [label=<squared_error = -0.0<br/>samples = 1<br/>value = 3.304>, fillcolor="#f7dac5"] ;
313 -> 315 ;
316 [label=<morph &le; 8.0<br/>squared_error = 0.376<br/>samples = 2<br/>value = 5.306>, fillcolor="#f2bf9b"] ;
312 -> 316 ;
317 [label=<squared_error = 0.0<br/>samples = 1<br/>value = 4.692>, fillcolor="#f4c8a8"] ;
316 -> 317 ;
318 [label=<squared_error = -0.0<br/>samples = 1<br/>value = 5.919>, fillcolor="#f0b78e"] ;
316 -> 318 ;
319 [label=<threshold &le; 105.0<br/>squared_error = 0.933<br/>samples = 4<br/>value = 1.915>, fillcolor="#fbece2"] ;
311 -> 319 ;
320 [label=<morph &le; 8.0<br/>squared_error = 0.015<br/>samples = 2<br/>value = 1.018>, fillcolor="#fef8f4"] ;
319 -> 320 ;
321 [label=<squared_error = 0.0<br/>samples = 1<br/>value = 0.894>, fillcolor="#fefaf7"] ;
320 -> 321 ;
322 [label=<squared_error = -0.0<br/>samples = 1<br/>value = 1.142>, fillcolor="#fdf7f2"] ;
320 -> 322 ;
323 [label=<morph &le; 8.0<br/>squared_error = 0.243<br/>samples = 2<br/>value = 2.811>, fillcolor="#f9e0cf"] ;
319 -> 323 ;
324 [label=<squared_error = 0.0<br/>samples = 1<br/>value = 2.319>, fillcolor="#fae7d9"] ;
323 -> 324 ;
325 [label=<squared_error = -0.0<br/>samples = 1<br/>value = 3.304>, fillcolor="#f7dac5"] ;
323 -> 325 ;
326 [label=<brightness &le; -95.0<br/>squared_error = 0.089<br/>samples = 350<br/>value = 0.572>, fillcolor="#fffefe"] ;
2 -> 326 ;
327 [label=<threshold &le; 95.0<br/>squared_error = 0.371<br/>samples = 70<br/>value = 0.753>, fillcolor="#fefcfa"] ;
326 -> 327 ;
328 [label=<threshold &le; 85.0<br/>squared_error = 0.011<br/>samples = 50<br/>value = 0.553>, fillcolor="#fffefe"] ;
327 -> 328 ;
329 [label=<threshold &le; 75.0<br/>squared_error = 0.001<br/>samples = 40<br/>value = 0.523>, fillcolor="#ffffff"] ;
328 -> 329 ;
330 [label=<threshold &le; 65.0<br/>squared_error = 0.0<br/>samples = 30<br/>value = 0.515>, fillcolor="#ffffff"] ;
329 -> 330 ;
331 [label=<contrast &le; 1.75<br/>squared_error = 0.0<br/>samples = 20<br/>value = 0.512>, fillcolor="#ffffff"] ;
330 -> 331 ;
332 [label=<threshold &le; 55.0<br/>squared_error = 0.0<br/>samples = 10<br/>value = 0.513>, fillcolor="#ffffff"] ;
331 -> 332 ;
333 [label=<morph &le; 4.0<br/>squared_error = 0.0<br/>samples = 5<br/>value = 0.512>, fillcolor="#ffffff"] ;
332 -> 333 ;
334 [label=<morph &le; 2.0<br/>squared_error = 0.0<br/>samples = 2<br/>value = 0.512>, fillcolor="#ffffff"] ;
333 -> 334 ;
335 [label=<squared_error = 0.0<br/>samples = 1<br/>value = 0.512>, fillcolor="#ffffff"] ;
334 -> 335 ;
336 [label=<squared_error = 0.0<br/>samples = 1<br/>value = 0.512>, fillcolor="#ffffff"] ;
334 -> 336 ;
337 [label=<morph &le; 8.0<br/>squared_error = 0.0<br/>samples = 3<br/>value = 0.512>, fillcolor="#ffffff"] ;
333 -> 337 ;
338 [label=<morph &le; 6.0<br/>squared_error = 0.0<br/>samples = 2<br/>value = 0.512>, fillcolor="#ffffff"] ;
337 -> 338 ;
339 [label=<squared_error = 0.0<br/>samples = 1<br/>value = 0.512>, fillcolor="#ffffff"] ;
338 -> 339 ;
340 [label=<squared_error = 0.0<br/>samples = 1<br/>value = 0.512>, fillcolor="#ffffff"] ;
338 -> 340 ;
341 [label=<squared_error = -0.0<br/>samples = 1<br/>value = 0.512>, fillcolor="#ffffff"] ;
337 -> 341 ;
342 [label=<morph &le; 4.0<br/>squared_error = 0.0<br/>samples = 5<br/>value = 0.514>, fillcolor="#ffffff"] ;
332 -> 342 ;
343 [label=<morph &le; 2.0<br/>squared_error = 0.0<br/>samples = 2<br/>value = 0.514>, fillcolor="#ffffff"] ;
342 -> 343 ;
344 [label=<squared_error = 0.0<br/>samples = 1<br/>value = 0.514>, fillcolor="#ffffff"] ;
343 -> 344 ;
345 [label=<squared_error = -0.0<br/>samples = 1<br/>value = 0.514>, fillcolor="#ffffff"] ;
343 -> 345 ;
346 [label=<morph &le; 8.0<br/>squared_error = 0.0<br/>samples = 3<br/>value = 0.514>, fillcolor="#ffffff"] ;
342 -> 346 ;
347 [label=<morph &le; 6.0<br/>squared_error = 0.0<br/>samples = 2<br/>value = 0.514>, fillcolor="#ffffff"] ;
346 -> 347 ;
348 [label=<squared_error = 0.0<br/>samples = 1<br/>value = 0.514>, fillcolor="#ffffff"] ;
347 -> 348 ;
349 [label=<squared_error = 0.0<br/>samples = 1<br/>value = 0.514>, fillcolor="#ffffff"] ;
347 -> 349 ;
350 [label=<squared_error = 0.0<br/>samples = 1<br/>value = 0.514>, fillcolor="#ffffff"] ;
346 -> 350 ;
351 [label=<threshold &le; 55.0<br/>squared_error = 0.0<br/>samples = 10<br/>value = 0.512>, fillcolor="#ffffff"] ;
331 -> 351 ;
352 [label=<squared_error = 0.0<br/>samples = 5<br/>value = 0.511>, fillcolor="#ffffff"] ;
351 -> 352 ;
353 [label=<morph &le; 4.0<br/>squared_error = 0.0<br/>samples = 5<br/>value = 0.512>, fillcolor="#ffffff"] ;
351 -> 353 ;
354 [label=<morph &le; 2.0<br/>squared_error = 0.0<br/>samples = 2<br/>value = 0.512>, fillcolor="#ffffff"] ;
353 -> 354 ;
355 [label=<squared_error = 0.0<br/>samples = 1<br/>value = 0.512>, fillcolor="#ffffff"] ;
354 -> 355 ;
356 [label=<squared_error = 0.0<br/>samples = 1<br/>value = 0.512>, fillcolor="#ffffff"] ;
354 -> 356 ;
357 [label=<morph &le; 6.0<br/>squared_error = 0.0<br/>samples = 3<br/>value = 0.512>, fillcolor="#ffffff"] ;
353 -> 357 ;
358 [label=<squared_error = 0.0<br/>samples = 1<br/>value = 0.512>, fillcolor="#ffffff"] ;
357 -> 358 ;
359 [label=<morph &le; 8.0<br/>squared_error = 0.0<br/>samples = 2<br/>value = 0.512>, fillcolor="#ffffff"] ;
357 -> 359 ;
360 [label=<squared_error = 0.0<br/>samples = 1<br/>value = 0.512>, fillcolor="#ffffff"] ;
359 -> 360 ;
361 [label=<squared_error = 0.0<br/>samples = 1<br/>value = 0.512>, fillcolor="#ffffff"] ;
359 -> 361 ;
362 [label=<contrast &le; 1.75<br/>squared_error = 0.0<br/>samples = 10<br/>value = 0.519>, fillcolor="#ffffff"] ;
330 -> 362 ;
363 [label=<morph &le; 6.0<br/>squared_error = 0.0<br/>samples = 5<br/>value = 0.525>, fillcolor="#ffffff"] ;
362 -> 363 ;
364 [label=<morph &le; 4.0<br/>squared_error = 0.0<br/>samples = 3<br/>value = 0.525>, fillcolor="#ffffff"] ;
363 -> 364 ;
365 [label=<morph &le; 2.0<br/>squared_error = 0.0<br/>samples = 2<br/>value = 0.524>, fillcolor="#ffffff"] ;
364 -> 365 ;
366 [label=<squared_error = 0.0<br/>samples = 1<br/>value = 0.524>, fillcolor="#ffffff"] ;
365 -> 366 ;
367 [label=<squared_error = 0.0<br/>samples = 1<br/>value = 0.525>, fillcolor="#ffffff"] ;
365 -> 367 ;
368 [label=<squared_error = 0.0<br/>samples = 1<br/>value = 0.525>, fillcolor="#ffffff"] ;
364 -> 368 ;
369 [label=<morph &le; 8.0<br/>squared_error = 0.0<br/>samples = 2<br/>value = 0.527>, fillcolor="#ffffff"] ;
363 -> 369 ;
370 [label=<squared_error = 0.0<br/>samples = 1<br/>value = 0.526>, fillcolor="#ffffff"] ;
369 -> 370 ;
371 [label=<squared_error = 0.0<br/>samples = 1<br/>value = 0.528>, fillcolor="#ffffff"] ;
369 -> 371 ;
372 [label=<morph &le; 4.0<br/>squared_error = 0.0<br/>samples = 5<br/>value = 0.513>, fillcolor="#ffffff"] ;
362 -> 372 ;
373 [label=<morph &le; 2.0<br/>squared_error = 0.0<br/>samples = 2<br/>value = 0.512>, fillcolor="#ffffff"] ;
372 -> 373 ;
374 [label=<squared_error = 0.0<br/>samples = 1<br/>value = 0.512>, fillcolor="#ffffff"] ;
373 -> 374 ;
375 [label=<squared_error = -0.0<br/>samples = 1<br/>value = 0.513>, fillcolor="#ffffff"] ;
373 -> 375 ;
376 [label=<morph &le; 6.0<br/>squared_error = 0.0<br/>samples = 3<br/>value = 0.513>, fillcolor="#ffffff"] ;
372 -> 376 ;
377 [label=<squared_error = 0.0<br/>samples = 1<br/>value = 0.513>, fillcolor="#ffffff"] ;
376 -> 377 ;
378 [label=<morph &le; 8.0<br/>squared_error = 0.0<br/>samples = 2<br/>value = 0.513>, fillcolor="#ffffff"] ;
376 -> 378 ;
379 [label=<squared_error = 0.0<br/>samples = 1<br/>value = 0.513>, fillcolor="#ffffff"] ;
378 -> 379 ;
380 [label=<squared_error = -0.0<br/>samples = 1<br/>value = 0.513>, fillcolor="#ffffff"] ;
378 -> 380 ;
381 [label=<contrast &le; 1.75<br/>squared_error = 0.001<br/>samples = 10<br/>value = 0.549>, fillcolor="#fffffe"] ;
329 -> 381 ;
382 [label=<morph &le; 8.0<br/>squared_error = 0.0<br/>samples = 5<br/>value = 0.583>, fillcolor="#fffefe"] ;
381 -> 382 ;
383 [label=<morph &le; 6.0<br/>squared_error = 0.0<br/>samples = 4<br/>value = 0.573>, fillcolor="#fffefe"] ;
382 -> 383 ;
384 [label=<morph &le; 4.0<br/>squared_error = 0.0<br/>samples = 3<br/>value = 0.568>, fillcolor="#fffefe"] ;
383 -> 384 ;
385 [label=<morph &le; 2.0<br/>squared_error = 0.0<br/>samples = 2<br/>value = 0.566>, fillcolor="#fffefe"] ;
384 -> 385 ;
386 [label=<squared_error = 0.0<br/>samples = 1<br/>value = 0.566>, fillcolor="#fffefe"] ;
385 -> 386 ;
387 [label=<squared_error = -0.0<br/>samples = 1<br/>value = 0.567>, fillcolor="#fffefe"] ;
385 -> 387 ;
388 [label=<squared_error = 0.0<br/>samples = 1<br/>value = 0.573>, fillcolor="#fffefe"] ;
384 -> 388 ;
389 [label=<squared_error = -0.0<br/>samples = 1<br/>value = 0.589>, fillcolor="#fffefd"] ;
383 -> 389 ;
390 [label=<squared_error = -0.0<br/>samples = 1<br/>value = 0.623>, fillcolor="#fffefd"] ;
382 -> 390 ;
391 [label=<morph &le; 4.0<br/>squared_error = 0.0<br/>samples = 5<br/>value = 0.514>, fillcolor="#ffffff"] ;
381 -> 391 ;
392 [label=<morph &le; 2.0<br/>squared_error = 0.0<br/>samples = 2<br/>value = 0.514>, fillcolor="#ffffff"] ;
391 -> 392 ;
393 [label=<squared_error = 0.0<br/>samples = 1<br/>value = 0.514>, fillcolor="#ffffff"] ;
392 -> 393 ;
394 [label=<squared_error = -0.0<br/>samples = 1<br/>value = 0.514>, fillcolor="#ffffff"] ;
392 -> 394 ;
395 [label=<morph &le; 8.0<br/>squared_error = 0.0<br/>samples = 3<br/>value = 0.514>, fillcolor="#ffffff"] ;
391 -> 395 ;
396 [label=<morph &le; 6.0<br/>squared_error = 0.0<br/>samples = 2<br/>value = 0.514>, fillcolor="#ffffff"] ;
395 -> 396 ;
397 [label=<squared_error = 0.0<br/>samples = 1<br/>value = 0.514>, fillcolor="#ffffff"] ;
396 -> 397 ;
398 [label=<squared_error = -0.0<br/>samples = 1<br/>value = 0.514>, fillcolor="#ffffff"] ;
396 -> 398 ;
399 [label=<squared_error = 0.0<br/>samples = 1<br/>value = 0.514>, fillcolor="#ffffff"] ;
395 -> 399 ;
400 [label=<contrast &le; 1.75<br/>squared_error = 0.036<br/>samples = 10<br/>value = 0.672>, fillcolor="#fffdfc"] ;
328 -> 400 ;
401 [label=<morph &le; 8.0<br/>squared_error = 0.025<br/>samples = 5<br/>value = 0.825>, fillcolor="#fefbf8"] ;
400 -> 401 ;
402 [label=<morph &le; 6.0<br/>squared_error = 0.006<br/>samples = 4<br/>value = 0.753>, fillcolor="#fefcfa"] ;
401 -> 402 ;
403 [label=<morph &le; 4.0<br/>squared_error = 0.001<br/>samples = 3<br/>value = 0.712>, fillcolor="#fefcfb"] ;
402 -> 403 ;
404 [label=<morph &le; 2.0<br/>squared_error = 0.0<br/>samples = 2<br/>value = 0.693>, fillcolor="#fffdfb"] ;
403 -> 404 ;
405 [label=<squared_error = 0.0<br/>samples = 1<br/>value = 0.689>, fillcolor="#fffdfb"] ;
404 -> 405 ;
406 [label=<squared_error = -0.0<br/>samples = 1<br/>value = 0.697>, fillcolor="#fefdfb"] ;
404 -> 406 ;
407 [label=<squared_error = -0.0<br/>samples = 1<br/>value = 0.751>, fillcolor="#fefcfa"] ;
403 -> 407 ;
408 [label=<squared_error = 0.0<br/>samples = 1<br/>value = 0.875>, fillcolor="#fefaf7"] ;
402 -> 408 ;
409 [label=<squared_error = 0.0<br/>samples = 1<br/>value = 1.112>, fillcolor="#fdf7f2"] ;
401 -> 409 ;
410 [label=<morph &le; 6.0<br/>squared_error = 0.0<br/>samples = 5<br/>value = 0.52>, fillcolor="#ffffff"] ;
400 -> 410 ;
411 [label=<morph &le; 4.0<br/>squared_error = 0.0<br/>samples = 3<br/>value = 0.52>, fillcolor="#ffffff"] ;
410 -> 411 ;
412 [label=<morph &le; 2.0<br/>squared_error = 0.0<br/>samples = 2<br/>value = 0.52>, fillcolor="#ffffff"] ;
411 -> 412 ;
413 [label=<squared_error = 0.0<br/>samples = 1<br/>value = 0.519>, fillcolor="#ffffff"] ;
412 -> 413 ;
414 [label=<squared_error = 0.0<br/>samples = 1<br/>value = 0.52>, fillcolor="#ffffff"] ;
412 -> 414 ;
415 [label=<squared_error = -0.0<br/>samples = 1<br/>value = 0.52>, fillcolor="#ffffff"] ;
411 -> 415 ;
416 [label=<morph &le; 8.0<br/>squared_error = 0.0<br/>samples = 2<br/>value = 0.52>, fillcolor="#ffffff"] ;
410 -> 416 ;
417 [label=<squared_error = 0.0<br/>samples = 1<br/>value = 0.52>, fillcolor="#ffffff"] ;
416 -> 417 ;
418 [label=<squared_error = -0.0<br/>samples = 1<br/>value = 0.521>, fillcolor="#ffffff"] ;
416 -> 418 ;
419 [label=<contrast &le; 1.75<br/>squared_error = 0.921<br/>samples = 20<br/>value = 1.253>, fillcolor="#fdf5f0"] ;
327 -> 419 ;
420 [label=<morph &le; 6.0<br/>squared_error = 0.937<br/>samples = 10<br/>value = 1.924>, fillcolor="#fbece2"] ;
419 -> 420 ;
421 [label=<threshold &le; 105.0<br/>squared_error = 0.136<br/>samples = 6<br/>value = 1.333>, fillcolor="#fdf4ee"] ;
420 -> 421 ;
422 [label=<morph &le; 4.0<br/>squared_error = 0.016<br/>samples = 3<br/>value = 1.054>, fillcolor="#fef8f4"] ;
421 -> 422 ;
423 [label=<morph &le; 2.0<br/>squared_error = 0.0<br/>samples = 2<br/>value = 0.967>, fillcolor="#fef9f6"] ;
422 -> 423 ;
424 [label=<squared_error = 0.0<br/>samples = 1<br/>value = 0.948>, fillcolor="#fef9f6"] ;
423 -> 424 ;
425 [label=<squared_error = -0.0<br/>samples = 1<br/>value = 0.985>, fillcolor="#fef9f5"] ;
423 -> 425 ;
426 [label=<squared_error = 0.0<br/>samples = 1<br/>value = 1.229>, fillcolor="#fdf5f0"] ;
422 -> 426 ;
427 [label=<morph &le; 4.0<br/>squared_error = 0.101<br/>samples = 3<br/>value = 1.611>, fillcolor="#fcf0e8"] ;
421 -> 427 ;
428 [label=<morph &le; 2.0<br/>squared_error = 0.003<br/>samples = 2<br/>value = 1.388>, fillcolor="#fdf3ed"] ;
427 -> 428 ;
429 [label=<squared_error = 0.0<br/>samples = 1<br/>value = 1.335>, fillcolor="#fdf4ee"] ;
428 -> 429 ;
430 [label=<squared_error = 0.0<br/>samples = 1<br/>value = 1.441>, fillcolor="#fcf3ec"] ;
428 -> 430 ;
431 [label=<squared_error = -0.0<br/>samples = 1<br/>value = 2.057>, fillcolor="#fbeadf"] ;
427 -> 431 ;
432 [label=<threshold &le; 105.0<br/>squared_error = 0.826<br/>samples = 4<br/>value = 2.812>, fillcolor="#f9e0cf"] ;
420 -> 432 ;
433 [label=<morph &le; 8.0<br/>squared_error = 0.13<br/>samples = 2<br/>value = 2.045>, fillcolor="#fbebdf"] ;
432 -> 433 ;
434 [label=<squared_error = 0.0<br/>samples = 1<br/>value = 1.685>, fillcolor="#fcefe7"] ;
433 -> 434 ;
435 [label=<squared_error = 0.0<br/>samples = 1<br/>value = 2.405>, fillcolor="#fae6d8"] ;
433 -> 435 ;
436 [label=<morph &le; 8.0<br/>squared_error = 0.345<br/>samples = 2<br/>value = 3.58>, fillcolor="#f7d6bf"] ;
432 -> 436 ;
437 [label=<squared_error = 0.0<br/>samples = 1<br/>value = 2.992>, fillcolor="#f8decb"] ;
436 -> 437 ;
438 [label=<squared_error = 0.0<br/>samples = 1<br/>value = 4.167>, fillcolor="#f5ceb3"] ;
436 -> 438 ;
439 [label=<threshold &le; 105.0<br/>squared_error = 0.002<br/>samples = 10<br/>value = 0.581>, fillcolor="#fffefe"] ;
419 -> 439 ;
440 [label=<morph &le; 8.0<br/>squared_error = 0.0<br/>samples = 5<br/>value = 0.543>, fillcolor="#fffffe"] ;
439 -> 440 ;
441 [label=<morph &le; 6.0<br/>squared_error = 0.0<br/>samples = 4<br/>value = 0.54>, fillcolor="#fffffe"] ;
440 -> 441 ;
442 [label=<morph &le; 4.0<br/>squared_error = 0.0<br/>samples = 3<br/>value = 0.539>, fillcolor="#fffffe"] ;
441 -> 442 ;
443 [label=<morph &le; 2.0<br/>squared_error = 0.0<br/>samples = 2<br/>value = 0.538>, fillcolor="#fffffe"] ;
442 -> 443 ;
444 [label=<squared_error = 0.0<br/>samples = 1<br/>value = 0.538>, fillcolor="#fffffe"] ;
443 -> 444 ;
445 [label=<squared_error = 0.0<br/>samples = 1<br/>value = 0.538>, fillcolor="#fffffe"] ;
443 -> 445 ;
446 [label=<squared_error = 0.0<br/>samples = 1<br/>value = 0.54>, fillcolor="#fffffe"] ;
442 -> 446 ;
447 [label=<squared_error = 0.0<br/>samples = 1<br/>value = 0.544>, fillcolor="#fffffe"] ;
441 -> 447 ;
448 [label=<squared_error = -0.0<br/>samples = 1<br/>value = 0.552>, fillcolor="#fffefe"] ;
440 -> 448 ;
449 [label=<morph &le; 8.0<br/>squared_error = 0.001<br/>samples = 5<br/>value = 0.619>, fillcolor="#fffefd"] ;
439 -> 449 ;
450 [label=<morph &le; 6.0<br/>squared_error = 0.0<br/>samples = 4<br/>value = 0.601>, fillcolor="#fffefd"] ;
449 -> 450 ;
451 [label=<morph &le; 4.0<br/>squared_error = 0.0<br/>samples = 3<br/>value = 0.592>, fillcolor="#fffefd"] ;
450 -> 451 ;
452 [label=<morph &le; 2.0<br/>squared_error = 0.0<br/>samples = 2<br/>value = 0.588>, fillcolor="#fffefd"] ;
451 -> 452 ;
453 [label=<squared_error = 0.0<br/>samples = 1<br/>value = 0.587>, fillcolor="#fffefd"] ;
452 -> 453 ;
454 [label=<squared_error = 0.0<br/>samples = 1<br/>value = 0.588>, fillcolor="#fffefd"] ;
452 -> 454 ;
455 [label=<squared_error = 0.0<br/>samples = 1<br/>value = 0.6>, fillcolor="#fffefd"] ;
451 -> 455 ;
456 [label=<squared_error = -0.0<br/>samples = 1<br/>value = 0.629>, fillcolor="#fffdfd"] ;
450 -> 456 ;
457 [label=<squared_error = 0.0<br/>samples = 1<br/>value = 0.689>, fillcolor="#fffdfb"] ;
449 -> 457 ;
458 [label=<threshold &le; 105.0<br/>squared_error = 0.008<br/>samples = 280<br/>value = 0.527>, fillcolor="#ffffff"] ;
326 -> 458 ;
459 [label=<threshold &le; 95.0<br/>squared_error = 0.001<br/>samples = 240<br/>value = 0.516>, fillcolor="#ffffff"] ;
458 -> 459 ;
460 [label=<brightness &le; -85.0<br/>squared_error = 0.0<br/>samples = 200<br/>value = 0.513>, fillcolor="#ffffff"] ;
459 -> 460 ;
461 [label=<threshold &le; 85.0<br/>squared_error = 0.0<br/>samples = 50<br/>value = 0.516>, fillcolor="#ffffff"] ;
460 -> 461 ;
462 [label=<threshold &le; 75.0<br/>squared_error = 0.0<br/>samples = 40<br/>value = 0.512>, fillcolor="#ffffff"] ;
461 -> 462 ;
463 [label=<contrast &le; 1.75<br/>squared_error = 0.0<br/>samples = 30<br/>value = 0.512>, fillcolor="#ffffff"] ;
462 -> 463 ;
464 [label=<threshold &le; 65.0<br/>squared_error = 0.0<br/>samples = 15<br/>value = 0.512>, fillcolor="#ffffff"] ;
463 -> 464 ;
465 [label=<threshold &le; 55.0<br/>squared_error = 0.0<br/>samples = 10<br/>value = 0.512>, fillcolor="#ffffff"] ;
464 -> 465 ;
466 [label=<squared_error = 0.0<br/>samples = 5<br/>value = 0.511>, fillcolor="#ffffff"] ;
465 -> 466 ;
467 [label=<morph &le; 4.0<br/>squared_error = 0.0<br/>samples = 5<br/>value = 0.512>, fillcolor="#ffffff"] ;
465 -> 467 ;
468 [label=<morph &le; 2.0<br/>squared_error = 0.0<br/>samples = 2<br/>value = 0.512>, fillcolor="#ffffff"] ;
467 -> 468 ;
469 [label=<squared_error = 0.0<br/>samples = 1<br/>value = 0.512>, fillcolor="#ffffff"] ;
468 -> 469 ;
470 [label=<squared_error = -0.0<br/>samples = 1<br/>value = 0.512>, fillcolor="#ffffff"] ;
468 -> 470 ;
471 [label=<morph &le; 6.0<br/>squared_error = 0.0<br/>samples = 3<br/>value = 0.512>, fillcolor="#ffffff"] ;
467 -> 471 ;
472 [label=<squared_error = 0.0<br/>samples = 1<br/>value = 0.512>, fillcolor="#ffffff"] ;
471 -> 472 ;
473 [label=<morph &le; 8.0<br/>squared_error = 0.0<br/>samples = 2<br/>value = 0.512>, fillcolor="#ffffff"] ;
471 -> 473 ;
474 [label=<squared_error = 0.0<br/>samples = 1<br/>value = 0.512>, fillcolor="#ffffff"] ;
473 -> 474 ;
475 [label=<squared_error = 0.0<br/>samples = 1<br/>value = 0.512>, fillcolor="#ffffff"] ;
473 -> 475 ;
476 [label=<morph &le; 4.0<br/>squared_error = 0.0<br/>samples = 5<br/>value = 0.513>, fillcolor="#ffffff"] ;
464 -> 476 ;
477 [label=<morph &le; 2.0<br/>squared_error = 0.0<br/>samples = 2<br/>value = 0.513>, fillcolor="#ffffff"] ;
476 -> 477 ;
478 [label=<squared_error = 0.0<br/>samples = 1<br/>value = 0.513>, fillcolor="#ffffff"] ;
477 -> 478 ;
479 [label=<squared_error = 0.0<br/>samples = 1<br/>value = 0.513>, fillcolor="#ffffff"] ;
477 -> 479 ;
480 [label=<morph &le; 8.0<br/>squared_error = 0.0<br/>samples = 3<br/>value = 0.513>, fillcolor="#ffffff"] ;
476 -> 480 ;
481 [label=<morph &le; 6.0<br/>squared_error = 0.0<br/>samples = 2<br/>value = 0.513>, fillcolor="#ffffff"] ;
480 -> 481 ;
482 [label=<squared_error = 0.0<br/>samples = 1<br/>value = 0.513>, fillcolor="#ffffff"] ;
481 -> 482 ;
483 [label=<squared_error = 0.0<br/>samples = 1<br/>value = 0.513>, fillcolor="#ffffff"] ;
481 -> 483 ;
484 [label=<squared_error = 0.0<br/>samples = 1<br/>value = 0.513>, fillcolor="#ffffff"] ;
480 -> 484 ;
485 [label=<squared_error = -0.0<br/>samples = 15<br/>value = 0.511>, fillcolor="#ffffff"] ;
463 -> 485 ;
486 [label=<contrast &le; 1.75<br/>squared_error = 0.0<br/>samples = 10<br/>value = 0.514>, fillcolor="#ffffff"] ;
462 -> 486 ;
487 [label=<morph &le; 6.0<br/>squared_error = 0.0<br/>samples = 5<br/>value = 0.517>, fillcolor="#ffffff"] ;
486 -> 487 ;
488 [label=<morph &le; 4.0<br/>squared_error = 0.0<br/>samples = 3<br/>value = 0.517>, fillcolor="#ffffff"] ;
487 -> 488 ;
489 [label=<morph &le; 2.0<br/>squared_error = 0.0<br/>samples = 2<br/>value = 0.517>, fillcolor="#ffffff"] ;
488 -> 489 ;
490 [label=<squared_error = 0.0<br/>samples = 1<br/>value = 0.517>, fillcolor="#ffffff"] ;
489 -> 490 ;
491 [label=<squared_error = 0.0<br/>samples = 1<br/>value = 0.517>, fillcolor="#ffffff"] ;
489 -> 491 ;
492 [label=<squared_error = -0.0<br/>samples = 1<br/>value = 0.517>, fillcolor="#ffffff"] ;
488 -> 492 ;
493 [label=<morph &le; 8.0<br/>squared_error = 0.0<br/>samples = 2<br/>value = 0.517>, fillcolor="#ffffff"] ;
487 -> 493 ;
494 [label=<squared_error = 0.0<br/>samples = 1<br/>value = 0.517>, fillcolor="#ffffff"] ;
493 -> 494 ;
495 [label=<squared_error = 0.0<br/>samples = 1<br/>value = 0.517>, fillcolor="#ffffff"] ;
493 -> 495 ;
496 [label=<morph &le; 4.0<br/>squared_error = 0.0<br/>samples = 5<br/>value = 0.512>, fillcolor="#ffffff"] ;
486 -> 496 ;
497 [label=<morph &le; 2.0<br/>squared_error = 0.0<br/>samples = 2<br/>value = 0.512>, fillcolor="#ffffff"] ;
496 -> 497 ;
498 [label=<squared_error = 0.0<br/>samples = 1<br/>value = 0.512>, fillcolor="#ffffff"] ;
497 -> 498 ;
499 [label=<squared_error = 0.0<br/>samples = 1<br/>value = 0.512>, fillcolor="#ffffff"] ;
497 -> 499 ;
500 [label=<morph &le; 6.0<br/>squared_error = 0.0<br/>samples = 3<br/>value = 0.512>, fillcolor="#ffffff"] ;
496 -> 500 ;
501 [label=<squared_error = 0.0<br/>samples = 1<br/>value = 0.512>, fillcolor="#ffffff"] ;
500 -> 501 ;
502 [label=<morph &le; 8.0<br/>squared_error = 0.0<br/>samples = 2<br/>value = 0.512>, fillcolor="#ffffff"] ;
500 -> 502 ;
503 [label=<squared_error = 0.0<br/>samples = 1<br/>value = 0.512>, fillcolor="#ffffff"] ;
502 -> 503 ;
504 [label=<squared_error = 0.0<br/>samples = 1<br/>value = 0.512>, fillcolor="#ffffff"] ;
502 -> 504 ;
505 [label=<contrast &le; 1.75<br/>squared_error = 0.0<br/>samples = 10<br/>value = 0.528>, fillcolor="#ffffff"] ;
461 -> 505 ;
506 [label=<morph &le; 8.0<br/>squared_error = 0.0<br/>samples = 5<br/>value = 0.543>, fillcolor="#fffffe"] ;
505 -> 506 ;
507 [label=<morph &le; 6.0<br/>squared_error = 0.0<br/>samples = 4<br/>value = 0.54>, fillcolor="#fffffe"] ;
506 -> 507 ;
508 [label=<morph &le; 4.0<br/>squared_error = 0.0<br/>samples = 3<br/>value = 0.539>, fillcolor="#fffffe"] ;
507 -> 508 ;
509 [label=<morph &le; 2.0<br/>squared_error = 0.0<br/>samples = 2<br/>value = 0.538>, fillcolor="#fffffe"] ;
508 -> 509 ;
510 [label=<squared_error = 0.0<br/>samples = 1<br/>value = 0.538>, fillcolor="#fffffe"] ;
509 -> 510 ;
511 [label=<squared_error = 0.0<br/>samples = 1<br/>value = 0.539>, fillcolor="#fffffe"] ;
509 -> 511 ;
512 [label=<squared_error = 0.0<br/>samples = 1<br/>value = 0.54>, fillcolor="#fffffe"] ;
508 -> 512 ;
513 [label=<squared_error = 0.0<br/>samples = 1<br/>value = 0.545>, fillcolor="#fffffe"] ;
507 -> 513 ;
514 [label=<squared_error = 0.0<br/>samples = 1<br/>value = 0.553>, fillcolor="#fffefe"] ;
506 -> 514 ;
515 [label=<morph &le; 4.0<br/>squared_error = 0.0<br/>samples = 5<br/>value = 0.513>, fillcolor="#ffffff"] ;
505 -> 515 ;
516 [label=<morph &le; 2.0<br/>squared_error = 0.0<br/>samples = 2<br/>value = 0.512>, fillcolor="#ffffff"] ;
515 -> 516 ;
517 [label=<squared_error = 0.0<br/>samples = 1<br/>value = 0.512>, fillcolor="#ffffff"] ;
516 -> 517 ;
518 [label=<squared_error = -0.0<br/>samples = 1<br/>value = 0.513>, fillcolor="#ffffff"] ;
516 -> 518 ;
519 [label=<morph &le; 6.0<br/>squared_error = 0.0<br/>samples = 3<br/>value = 0.513>, fillcolor="#ffffff"] ;
515 -> 519 ;
520 [label=<squared_error = 0.0<br/>samples = 1<br/>value = 0.513>, fillcolor="#ffffff"] ;
519 -> 520 ;
521 [label=<morph &le; 8.0<br/>squared_error = 0.0<br/>samples = 2<br/>value = 0.513>, fillcolor="#ffffff"] ;
519 -> 521 ;
522 [label=<squared_error = 0.0<br/>samples = 1<br/>value = 0.513>, fillcolor="#ffffff"] ;
521 -> 522 ;
523 [label=<squared_error = -0.0<br/>samples = 1<br/>value = 0.513>, fillcolor="#ffffff"] ;
521 -> 523 ;
524 [label=<threshold &le; 85.0<br/>squared_error = 0.0<br/>samples = 150<br/>value = 0.512>, fillcolor="#ffffff"] ;
460 -> 524 ;
525 [label=<threshold &le; 75.0<br/>squared_error = 0.0<br/>samples = 120<br/>value = 0.512>, fillcolor="#ffffff"] ;
524 -> 525 ;
526 [label=<brightness &le; -75.0<br/>squared_error = 0.0<br/>samples = 90<br/>value = 0.511>, fillcolor="#ffffff"] ;
525 -> 526 ;
527 [label=<threshold &le; 65.0<br/>squared_error = 0.0<br/>samples = 30<br/>value = 0.511>, fillcolor="#ffffff"] ;
526 -> 527 ;
528 [label=<squared_error = -0.0<br/>samples = 20<br/>value = 0.511>, fillcolor="#ffffff"] ;
527 -> 528 ;
529 [label=<contrast &le; 1.75<br/>squared_error = 0.0<br/>samples = 10<br/>value = 0.511>, fillcolor="#ffffff"] ;
527 -> 529 ;
530 [label=<morph &le; 2.0<br/>squared_error = 0.0<br/>samples = 5<br/>value = 0.512>, fillcolor="#ffffff"] ;
529 -> 530 ;
531 [label=<squared_error = 0.0<br/>samples = 1<br/>value = 0.512>, fillcolor="#ffffff"] ;
530 -> 531 ;
532 [label=<morph &le; 6.0<br/>squared_error = 0.0<br/>samples = 4<br/>value = 0.512>, fillcolor="#ffffff"] ;
530 -> 532 ;
533 [label=<morph &le; 4.0<br/>squared_error = 0.0<br/>samples = 2<br/>value = 0.512>, fillcolor="#ffffff"] ;
532 -> 533 ;
534 [label=<squared_error = 0.0<br/>samples = 1<br/>value = 0.512>, fillcolor="#ffffff"] ;
533 -> 534 ;
535 [label=<squared_error = 0.0<br/>samples = 1<br/>value = 0.512>, fillcolor="#ffffff"] ;
533 -> 535 ;
536 [label=<morph &le; 8.0<br/>squared_error = 0.0<br/>samples = 2<br/>value = 0.512>, fillcolor="#ffffff"] ;
532 -> 536 ;
537 [label=<squared_error = 0.0<br/>samples = 1<br/>value = 0.512>, fillcolor="#ffffff"] ;
536 -> 537 ;
538 [label=<squared_error = 0.0<br/>samples = 1<br/>value = 0.512>, fillcolor="#ffffff"] ;
536 -> 538 ;
539 [label=<squared_error = 0.0<br/>samples = 5<br/>value = 0.511>, fillcolor="#ffffff"] ;
529 -> 539 ;
540 [label=<threshold &le; 65.0<br/>squared_error = 0.0<br/>samples = 60<br/>value = 0.511>, fillcolor="#ffffff"] ;
526 -> 540 ;
541 [label=<squared_error = -0.0<br/>samples = 40<br/>value = 0.511>, fillcolor="#ffffff"] ;
540 -> 541 ;
542 [label=<contrast &le; 1.75<br/>squared_error = 0.0<br/>samples = 20<br/>value = 0.511>, fillcolor="#ffffff"] ;
540 -> 542 ;
543 [label=<squared_error = -0.0<br/>samples = 10<br/>value = 0.511>, fillcolor="#ffffff"] ;
542 -> 543 ;
544 [label=<squared_error = -0.0<br/>samples = 10<br/>value = 0.511>, fillcolor="#ffffff"] ;
542 -> 544 ;
545 [label=<brightness &le; -75.0<br/>squared_error = 0.0<br/>samples = 30<br/>value = 0.512>, fillcolor="#ffffff"] ;
525 -> 545 ;
546 [label=<contrast &le; 1.75<br/>squared_error = 0.0<br/>samples = 10<br/>value = 0.512>, fillcolor="#ffffff"] ;
545 -> 546 ;
547 [label=<morph &le; 4.0<br/>squared_error = 0.0<br/>samples = 5<br/>value = 0.512>, fillcolor="#ffffff"] ;
546 -> 547 ;
548 [label=<morph &le; 2.0<br/>squared_error = 0.0<br/>samples = 2<br/>value = 0.512>, fillcolor="#ffffff"] ;
547 -> 548 ;
549 [label=<squared_error = 0.0<br/>samples = 1<br/>value = 0.512>, fillcolor="#ffffff"] ;
548 -> 549 ;
550 [label=<squared_error = 0.0<br/>samples = 1<br/>value = 0.512>, fillcolor="#ffffff"] ;
548 -> 550 ;
551 [label=<morph &le; 8.0<br/>squared_error = 0.0<br/>samples = 3<br/>value = 0.512>, fillcolor="#ffffff"] ;
547 -> 551 ;
552 [label=<morph &le; 6.0<br/>squared_error = 0.0<br/>samples = 2<br/>value = 0.512>, fillcolor="#ffffff"] ;
551 -> 552 ;
553 [label=<squared_error = 0.0<br/>samples = 1<br/>value = 0.512>, fillcolor="#ffffff"] ;
552 -> 553 ;
554 [label=<squared_error = 0.0<br/>samples = 1<br/>value = 0.512>, fillcolor="#ffffff"] ;
552 -> 554 ;
555 [label=<squared_error = -0.0<br/>samples = 1<br/>value = 0.512>, fillcolor="#ffffff"] ;
551 -> 555 ;
556 [label=<squared_error = 0.0<br/>samples = 5<br/>value = 0.511>, fillcolor="#ffffff"] ;
546 -> 556 ;
557 [label=<squared_error = -0.0<br/>samples = 20<br/>value = 0.511>, fillcolor="#ffffff"] ;
545 -> 557 ;
558 [label=<brightness &le; -75.0<br/>squared_error = 0.0<br/>samples = 30<br/>value = 0.512>, fillcolor="#ffffff"] ;
524 -> 558 ;
559 [label=<contrast &le; 1.75<br/>squared_error = 0.0<br/>samples = 10<br/>value = 0.513>, fillcolor="#ffffff"] ;
558 -> 559 ;
560 [label=<morph &le; 4.0<br/>squared_error = 0.0<br/>samples = 5<br/>value = 0.514>, fillcolor="#ffffff"] ;
559 -> 560 ;
561 [label=<morph &le; 2.0<br/>squared_error = 0.0<br/>samples = 2<br/>value = 0.514>, fillcolor="#ffffff"] ;
560 -> 561 ;
562 [label=<squared_error = 0.0<br/>samples = 1<br/>value = 0.514>, fillcolor="#ffffff"] ;
561 -> 562 ;
563 [label=<squared_error = -0.0<br/>samples = 1<br/>value = 0.514>, fillcolor="#ffffff"] ;
561 -> 563 ;
564 [label=<morph &le; 8.0<br/>squared_error = 0.0<br/>samples = 3<br/>value = 0.514>, fillcolor="#ffffff"] ;
560 -> 564 ;
565 [label=<morph &le; 6.0<br/>squared_error = 0.0<br/>samples = 2<br/>value = 0.514>, fillcolor="#ffffff"] ;
564 -> 565 ;
566 [label=<squared_error = 0.0<br/>samples = 1<br/>value = 0.514>, fillcolor="#ffffff"] ;
565 -> 566 ;
567 [label=<squared_error = 0.0<br/>samples = 1<br/>value = 0.514>, fillcolor="#ffffff"] ;
565 -> 567 ;
568 [label=<squared_error = 0.0<br/>samples = 1<br/>value = 0.514>, fillcolor="#ffffff"] ;
564 -> 568 ;
569 [label=<squared_error = 0.0<br/>samples = 5<br/>value = 0.511>, fillcolor="#ffffff"] ;
559 -> 569 ;
570 [label=<brightness &le; -65.0<br/>squared_error = 0.0<br/>samples = 20<br/>value = 0.512>, fillcolor="#ffffff"] ;
558 -> 570 ;
571 [label=<contrast &le; 1.75<br/>squared_error = 0.0<br/>samples = 10<br/>value = 0.512>, fillcolor="#ffffff"] ;
570 -> 571 ;
572 [label=<morph &le; 4.0<br/>squared_error = 0.0<br/>samples = 5<br/>value = 0.512>, fillcolor="#ffffff"] ;
571 -> 572 ;
573 [label=<morph &le; 2.0<br/>squared_error = 0.0<br/>samples = 2<br/>value = 0.512>, fillcolor="#ffffff"] ;
572 -> 573 ;
574 [label=<squared_error = 0.0<br/>samples = 1<br/>value = 0.512>, fillcolor="#ffffff"] ;
573 -> 574 ;
575 [label=<squared_error = -0.0<br/>samples = 1<br/>value = 0.512>, fillcolor="#ffffff"] ;
573 -> 575 ;
576 [label=<morph &le; 6.0<br/>squared_error = 0.0<br/>samples = 3<br/>value = 0.512>, fillcolor="#ffffff"] ;
572 -> 576 ;
577 [label=<squared_error = 0.0<br/>samples = 1<br/>value = 0.512>, fillcolor="#ffffff"] ;
576 -> 577 ;
578 [label=<morph &le; 8.0<br/>squared_error = 0.0<br/>samples = 2<br/>value = 0.512>, fillcolor="#ffffff"] ;
576 -> 578 ;
579 [label=<squared_error = 0.0<br/>samples = 1<br/>value = 0.512>, fillcolor="#ffffff"] ;
578 -> 579 ;
580 [label=<squared_error = 0.0<br/>samples = 1<br/>value = 0.512>, fillcolor="#ffffff"] ;
578 -> 580 ;
581 [label=<squared_error = -0.0<br/>samples = 5<br/>value = 0.511>, fillcolor="#ffffff"] ;
571 -> 581 ;
582 [label=<squared_error = -0.0<br/>samples = 10<br/>value = 0.511>, fillcolor="#ffffff"] ;
570 -> 582 ;
583 [label=<brightness &le; -85.0<br/>squared_error = 0.004<br/>samples = 40<br/>value = 0.535>, fillcolor="#ffffff"] ;
459 -> 583 ;
584 [label=<contrast &le; 1.75<br/>squared_error = 0.009<br/>samples = 10<br/>value = 0.596>, fillcolor="#fffefd"] ;
583 -> 584 ;
585 [label=<morph &le; 8.0<br/>squared_error = 0.005<br/>samples = 5<br/>value = 0.678>, fillcolor="#fffdfc"] ;
584 -> 585 ;
586 [label=<morph &le; 6.0<br/>squared_error = 0.001<br/>samples = 4<br/>value = 0.645>, fillcolor="#fffdfc"] ;
585 -> 586 ;
587 [label=<morph &le; 4.0<br/>squared_error = 0.0<br/>samples = 3<br/>value = 0.628>, fillcolor="#fffdfd"] ;
586 -> 587 ;
588 [label=<morph &le; 2.0<br/>squared_error = 0.0<br/>samples = 2<br/>value = 0.62>, fillcolor="#fffefd"] ;
587 -> 588 ;
589 [label=<squared_error = 0.0<br/>samples = 1<br/>value = 0.618>, fillcolor="#fffefd"] ;
588 -> 589 ;
590 [label=<squared_error = 0.0<br/>samples = 1<br/>value = 0.622>, fillcolor="#fffefd"] ;
588 -> 590 ;
591 [label=<squared_error = -0.0<br/>samples = 1<br/>value = 0.643>, fillcolor="#fffdfc"] ;
587 -> 591 ;
592 [label=<squared_error = -0.0<br/>samples = 1<br/>value = 0.698>, fillcolor="#fefdfb"] ;
586 -> 592 ;
593 [label=<squared_error = -0.0<br/>samples = 1<br/>value = 0.809>, fillcolor="#fefbf9"] ;
585 -> 593 ;
594 [label=<morph &le; 4.0<br/>squared_error = 0.0<br/>samples = 5<br/>value = 0.514>, fillcolor="#ffffff"] ;
584 -> 594 ;
595 [label=<morph &le; 2.0<br/>squared_error = 0.0<br/>samples = 2<br/>value = 0.514>, fillcolor="#ffffff"] ;
594 -> 595 ;
596 [label=<squared_error = 0.0<br/>samples = 1<br/>value = 0.514>, fillcolor="#ffffff"] ;
595 -> 596 ;
597 [label=<squared_error = -0.0<br/>samples = 1<br/>value = 0.514>, fillcolor="#ffffff"] ;
595 -> 597 ;
598 [label=<morph &le; 8.0<br/>squared_error = 0.0<br/>samples = 3<br/>value = 0.514>, fillcolor="#ffffff"] ;
594 -> 598 ;
599 [label=<morph &le; 6.0<br/>squared_error = 0.0<br/>samples = 2<br/>value = 0.514>, fillcolor="#ffffff"] ;
598 -> 599 ;
600 [label=<squared_error = 0.0<br/>samples = 1<br/>value = 0.514>, fillcolor="#ffffff"] ;
599 -> 600 ;
601 [label=<squared_error = -0.0<br/>samples = 1<br/>value = 0.514>, fillcolor="#ffffff"] ;
599 -> 601 ;
602 [label=<squared_error = 0.0<br/>samples = 1<br/>value = 0.514>, fillcolor="#ffffff"] ;
598 -> 602 ;
603 [label=<brightness &le; -75.0<br/>squared_error = 0.0<br/>samples = 30<br/>value = 0.514>, fillcolor="#ffffff"] ;
583 -> 603 ;
604 [label=<contrast &le; 1.75<br/>squared_error = 0.0<br/>samples = 10<br/>value = 0.519>, fillcolor="#ffffff"] ;
603 -> 604 ;
605 [label=<morph &le; 6.0<br/>squared_error = 0.0<br/>samples = 5<br/>value = 0.525>, fillcolor="#ffffff"] ;
604 -> 605 ;
606 [label=<morph &le; 4.0<br/>squared_error = 0.0<br/>samples = 3<br/>value = 0.525>, fillcolor="#ffffff"] ;
605 -> 606 ;
607 [label=<morph &le; 2.0<br/>squared_error = 0.0<br/>samples = 2<br/>value = 0.524>, fillcolor="#ffffff"] ;
606 -> 607 ;
608 [label=<squared_error = 0.0<br/>samples = 1<br/>value = 0.524>, fillcolor="#ffffff"] ;
607 -> 608 ;
609 [label=<squared_error = 0.0<br/>samples = 1<br/>value = 0.525>, fillcolor="#ffffff"] ;
607 -> 609 ;
610 [label=<squared_error = 0.0<br/>samples = 1<br/>value = 0.525>, fillcolor="#ffffff"] ;
606 -> 610 ;
611 [label=<morph &le; 8.0<br/>squared_error = 0.0<br/>samples = 2<br/>value = 0.527>, fillcolor="#ffffff"] ;
605 -> 611 ;
612 [label=<squared_error = 0.0<br/>samples = 1<br/>value = 0.526>, fillcolor="#ffffff"] ;
611 -> 612 ;
613 [label=<squared_error = 0.0<br/>samples = 1<br/>value = 0.528>, fillcolor="#ffffff"] ;
611 -> 613 ;
614 [label=<morph &le; 4.0<br/>squared_error = 0.0<br/>samples = 5<br/>value = 0.512>, fillcolor="#ffffff"] ;
604 -> 614 ;
615 [label=<morph &le; 2.0<br/>squared_error = 0.0<br/>samples = 2<br/>value = 0.512>, fillcolor="#ffffff"] ;
614 -> 615 ;
616 [label=<squared_error = 0.0<br/>samples = 1<br/>value = 0.512>, fillcolor="#ffffff"] ;
615 -> 616 ;
617 [label=<squared_error = 0.0<br/>samples = 1<br/>value = 0.512>, fillcolor="#ffffff"] ;
615 -> 617 ;
618 [label=<morph &le; 6.0<br/>squared_error = 0.0<br/>samples = 3<br/>value = 0.512>, fillcolor="#ffffff"] ;
614 -> 618 ;
619 [label=<squared_error = 0.0<br/>samples = 1<br/>value = 0.512>, fillcolor="#ffffff"] ;
618 -> 619 ;
620 [label=<morph &le; 8.0<br/>squared_error = 0.0<br/>samples = 2<br/>value = 0.512>, fillcolor="#ffffff"] ;
618 -> 620 ;
621 [label=<squared_error = 0.0<br/>samples = 1<br/>value = 0.512>, fillcolor="#ffffff"] ;
620 -> 621 ;
622 [label=<squared_error = 0.0<br/>samples = 1<br/>value = 0.512>, fillcolor="#ffffff"] ;
620 -> 622 ;
623 [label=<contrast &le; 1.75<br/>squared_error = 0.0<br/>samples = 20<br/>value = 0.512>, fillcolor="#ffffff"] ;
603 -> 623 ;
624 [label=<brightness &le; -65.0<br/>squared_error = 0.0<br/>samples = 10<br/>value = 0.512>, fillcolor="#ffffff"] ;
623 -> 624 ;
625 [label=<morph &le; 4.0<br/>squared_error = 0.0<br/>samples = 5<br/>value = 0.513>, fillcolor="#ffffff"] ;
624 -> 625 ;
626 [label=<morph &le; 2.0<br/>squared_error = 0.0<br/>samples = 2<br/>value = 0.513>, fillcolor="#ffffff"] ;
625 -> 626 ;
627 [label=<squared_error = 0.0<br/>samples = 1<br/>value = 0.513>, fillcolor="#ffffff"] ;
626 -> 627 ;
628 [label=<squared_error = 0.0<br/>samples = 1<br/>value = 0.513>, fillcolor="#ffffff"] ;
626 -> 628 ;
629 [label=<morph &le; 8.0<br/>squared_error = 0.0<br/>samples = 3<br/>value = 0.513>, fillcolor="#ffffff"] ;
625 -> 629 ;
630 [label=<morph &le; 6.0<br/>squared_error = 0.0<br/>samples = 2<br/>value = 0.513>, fillcolor="#ffffff"] ;
629 -> 630 ;
631 [label=<squared_error = 0.0<br/>samples = 1<br/>value = 0.513>, fillcolor="#ffffff"] ;
630 -> 631 ;
632 [label=<squared_error = 0.0<br/>samples = 1<br/>value = 0.513>, fillcolor="#ffffff"] ;
630 -> 632 ;
633 [label=<squared_error = 0.0<br/>samples = 1<br/>value = 0.513>, fillcolor="#ffffff"] ;
629 -> 633 ;
634 [label=<morph &le; 2.0<br/>squared_error = 0.0<br/>samples = 5<br/>value = 0.512>, fillcolor="#ffffff"] ;
624 -> 634 ;
635 [label=<squared_error = 0.0<br/>samples = 1<br/>value = 0.512>, fillcolor="#ffffff"] ;
634 -> 635 ;
636 [label=<morph &le; 6.0<br/>squared_error = 0.0<br/>samples = 4<br/>value = 0.512>, fillcolor="#ffffff"] ;
634 -> 636 ;
637 [label=<morph &le; 4.0<br/>squared_error = 0.0<br/>samples = 2<br/>value = 0.512>, fillcolor="#ffffff"] ;
636 -> 637 ;
638 [label=<squared_error = 0.0<br/>samples = 1<br/>value = 0.512>, fillcolor="#ffffff"] ;
637 -> 638 ;
639 [label=<squared_error = 0.0<br/>samples = 1<br/>value = 0.512>, fillcolor="#ffffff"] ;
637 -> 639 ;
640 [label=<morph &le; 8.0<br/>squared_error = 0.0<br/>samples = 2<br/>value = 0.512>, fillcolor="#ffffff"] ;
636 -> 640 ;
641 [label=<squared_error = 0.0<br/>samples = 1<br/>value = 0.512>, fillcolor="#ffffff"] ;
640 -> 641 ;
642 [label=<squared_error = 0.0<br/>samples = 1<br/>value = 0.512>, fillcolor="#ffffff"] ;
640 -> 642 ;
643 [label=<squared_error = -0.0<br/>samples = 10<br/>value = 0.511>, fillcolor="#ffffff"] ;
623 -> 643 ;
644 [label=<brightness &le; -85.0<br/>squared_error = 0.045<br/>samples = 40<br/>value = 0.592>, fillcolor="#fffefd"] ;
458 -> 644 ;
645 [label=<contrast &le; 1.75<br/>squared_error = 0.123<br/>samples = 10<br/>value = 0.793>, fillcolor="#fefbf9"] ;
644 -> 645 ;
646 [label=<morph &le; 8.0<br/>squared_error = 0.096<br/>samples = 5<br/>value = 1.067>, fillcolor="#fdf8f3"] ;
645 -> 646 ;
647 [label=<morph &le; 6.0<br/>squared_error = 0.024<br/>samples = 4<br/>value = 0.928>, fillcolor="#fef9f6"] ;
646 -> 647 ;
648 [label=<morph &le; 4.0<br/>squared_error = 0.004<br/>samples = 3<br/>value = 0.845>, fillcolor="#fefbf8"] ;
647 -> 648 ;
649 [label=<morph &le; 2.0<br/>squared_error = 0.0<br/>samples = 2<br/>value = 0.802>, fillcolor="#fefbf9"] ;
648 -> 649 ;
650 [label=<squared_error = 0.0<br/>samples = 1<br/>value = 0.793>, fillcolor="#fefbf9"] ;
649 -> 650 ;
651 [label=<squared_error = 0.0<br/>samples = 1<br/>value = 0.811>, fillcolor="#fefbf9"] ;
649 -> 651 ;
652 [label=<squared_error = -0.0<br/>samples = 1<br/>value = 0.93>, fillcolor="#fef9f6"] ;
648 -> 652 ;
653 [label=<squared_error = 0.0<br/>samples = 1<br/>value = 1.18>, fillcolor="#fdf6f1"] ;
647 -> 653 ;
654 [label=<squared_error = -0.0<br/>samples = 1<br/>value = 1.62>, fillcolor="#fcf0e8"] ;
646 -> 654 ;
655 [label=<morph &le; 6.0<br/>squared_error = 0.0<br/>samples = 5<br/>value = 0.52>, fillcolor="#ffffff"] ;
645 -> 655 ;
656 [label=<morph &le; 4.0<br/>squared_error = 0.0<br/>samples = 3<br/>value = 0.52>, fillcolor="#ffffff"] ;
655 -> 656 ;
657 [label=<morph &le; 2.0<br/>squared_error = 0.0<br/>samples = 2<br/>value = 0.52>, fillcolor="#ffffff"] ;
656 -> 657 ;
658 [label=<squared_error = 0.0<br/>samples = 1<br/>value = 0.519>, fillcolor="#ffffff"] ;
657 -> 658 ;
659 [label=<squared_error = 0.0<br/>samples = 1<br/>value = 0.52>, fillcolor="#ffffff"] ;
657 -> 659 ;
660 [label=<squared_error = -0.0<br/>samples = 1<br/>value = 0.52>, fillcolor="#ffffff"] ;
656 -> 660 ;
661 [label=<morph &le; 8.0<br/>squared_error = 0.0<br/>samples = 2<br/>value = 0.52>, fillcolor="#ffffff"] ;
655 -> 661 ;
662 [label=<squared_error = 0.0<br/>samples = 1<br/>value = 0.52>, fillcolor="#ffffff"] ;
661 -> 662 ;
663 [label=<squared_error = -0.0<br/>samples = 1<br/>value = 0.521>, fillcolor="#ffffff"] ;
661 -> 663 ;
664 [label=<brightness &le; -75.0<br/>squared_error = 0.001<br/>samples = 30<br/>value = 0.525>, fillcolor="#ffffff"] ;
644 -> 664 ;
665 [label=<contrast &le; 1.75<br/>squared_error = 0.001<br/>samples = 10<br/>value = 0.548>, fillcolor="#fffffe"] ;
664 -> 665 ;
666 [label=<morph &le; 8.0<br/>squared_error = 0.0<br/>samples = 5<br/>value = 0.583>, fillcolor="#fffefe"] ;
665 -> 666 ;
667 [label=<morph &le; 6.0<br/>squared_error = 0.0<br/>samples = 4<br/>value = 0.573>, fillcolor="#fffefe"] ;
666 -> 667 ;
668 [label=<morph &le; 4.0<br/>squared_error = 0.0<br/>samples = 3<br/>value = 0.568>, fillcolor="#fffefe"] ;
667 -> 668 ;
669 [label=<morph &le; 2.0<br/>squared_error = 0.0<br/>samples = 2<br/>value = 0.566>, fillcolor="#fffefe"] ;
668 -> 669 ;
670 [label=<squared_error = 0.0<br/>samples = 1<br/>value = 0.566>, fillcolor="#fffefe"] ;
669 -> 670 ;
671 [label=<squared_error = -0.0<br/>samples = 1<br/>value = 0.567>, fillcolor="#fffefe"] ;
669 -> 671 ;
672 [label=<squared_error = 0.0<br/>samples = 1<br/>value = 0.573>, fillcolor="#fffefe"] ;
668 -> 672 ;
673 [label=<squared_error = -0.0<br/>samples = 1<br/>value = 0.589>, fillcolor="#fffefd"] ;
667 -> 673 ;
674 [label=<squared_error = -0.0<br/>samples = 1<br/>value = 0.623>, fillcolor="#fffefd"] ;
666 -> 674 ;
675 [label=<morph &le; 4.0<br/>squared_error = 0.0<br/>samples = 5<br/>value = 0.513>, fillcolor="#ffffff"] ;
665 -> 675 ;
676 [label=<morph &le; 2.0<br/>squared_error = 0.0<br/>samples = 2<br/>value = 0.512>, fillcolor="#ffffff"] ;
675 -> 676 ;
677 [label=<squared_error = 0.0<br/>samples = 1<br/>value = 0.512>, fillcolor="#ffffff"] ;
676 -> 677 ;
678 [label=<squared_error = -0.0<br/>samples = 1<br/>value = 0.513>, fillcolor="#ffffff"] ;
676 -> 678 ;
679 [label=<morph &le; 6.0<br/>squared_error = 0.0<br/>samples = 3<br/>value = 0.513>, fillcolor="#ffffff"] ;
675 -> 679 ;
680 [label=<squared_error = 0.0<br/>samples = 1<br/>value = 0.513>, fillcolor="#ffffff"] ;
679 -> 680 ;
681 [label=<morph &le; 8.0<br/>squared_error = 0.0<br/>samples = 2<br/>value = 0.513>, fillcolor="#ffffff"] ;
679 -> 681 ;
682 [label=<squared_error = 0.0<br/>samples = 1<br/>value = 0.513>, fillcolor="#ffffff"] ;
681 -> 682 ;
683 [label=<squared_error = -0.0<br/>samples = 1<br/>value = 0.513>, fillcolor="#ffffff"] ;
681 -> 683 ;
684 [label=<contrast &le; 1.75<br/>squared_error = 0.0<br/>samples = 20<br/>value = 0.513>, fillcolor="#ffffff"] ;
664 -> 684 ;
685 [label=<brightness &le; -65.0<br/>squared_error = 0.0<br/>samples = 10<br/>value = 0.515>, fillcolor="#ffffff"] ;
684 -> 685 ;
686 [label=<morph &le; 6.0<br/>squared_error = 0.0<br/>samples = 5<br/>value = 0.517>, fillcolor="#ffffff"] ;
685 -> 686 ;
687 [label=<morph &le; 4.0<br/>squared_error = 0.0<br/>samples = 3<br/>value = 0.517>, fillcolor="#ffffff"] ;
686 -> 687 ;
688 [label=<morph &le; 2.0<br/>squared_error = 0.0<br/>samples = 2<br/>value = 0.517>, fillcolor="#ffffff"] ;
687 -> 688 ;
689 [label=<squared_error = 0.0<br/>samples = 1<br/>value = 0.517>, fillcolor="#ffffff"] ;
688 -> 689 ;
690 [label=<squared_error = 0.0<br/>samples = 1<br/>value = 0.517>, fillcolor="#ffffff"] ;
688 -> 690 ;
691 [label=<squared_error = -0.0<br/>samples = 1<br/>value = 0.517>, fillcolor="#ffffff"] ;
687 -> 691 ;
692 [label=<morph &le; 8.0<br/>squared_error = 0.0<br/>samples = 2<br/>value = 0.517>, fillcolor="#ffffff"] ;
686 -> 692 ;
693 [label=<squared_error = 0.0<br/>samples = 1<br/>value = 0.517>, fillcolor="#ffffff"] ;
692 -> 693 ;
694 [label=<squared_error = 0.0<br/>samples = 1<br/>value = 0.517>, fillcolor="#ffffff"] ;
692 -> 694 ;
695 [label=<morph &le; 4.0<br/>squared_error = 0.0<br/>samples = 5<br/>value = 0.512>, fillcolor="#ffffff"] ;
685 -> 695 ;
696 [label=<morph &le; 2.0<br/>squared_error = 0.0<br/>samples = 2<br/>value = 0.512>, fillcolor="#ffffff"] ;
695 -> 696 ;
697 [label=<squared_error = 0.0<br/>samples = 1<br/>value = 0.512>, fillcolor="#ffffff"] ;
696 -> 697 ;
698 [label=<squared_error = 0.0<br/>samples = 1<br/>value = 0.512>, fillcolor="#ffffff"] ;
696 -> 698 ;
699 [label=<morph &le; 8.0<br/>squared_error = 0.0<br/>samples = 3<br/>value = 0.512>, fillcolor="#ffffff"] ;
695 -> 699 ;
700 [label=<morph &le; 6.0<br/>squared_error = 0.0<br/>samples = 2<br/>value = 0.512>, fillcolor="#ffffff"] ;
699 -> 700 ;
701 [label=<squared_error = 0.0<br/>samples = 1<br/>value = 0.512>, fillcolor="#ffffff"] ;
700 -> 701 ;
702 [label=<squared_error = 0.0<br/>samples = 1<br/>value = 0.512>, fillcolor="#ffffff"] ;
700 -> 702 ;
703 [label=<squared_error = -0.0<br/>samples = 1<br/>value = 0.512>, fillcolor="#ffffff"] ;
699 -> 703 ;
704 [label=<squared_error = -0.0<br/>samples = 10<br/>value = 0.511>, fillcolor="#ffffff"] ;
684 -> 704 ;
705 [label=<contrast &le; 1.75<br/>squared_error = 8.289<br/>samples = 600<br/>value = 4.019>, fillcolor="#f5d0b6"] ;
1 -> 705 ;
706 [label=<contrast &le; 1.25<br/>squared_error = 6.306<br/>samples = 400<br/>value = 5.28>, fillcolor="#f2c09c"] ;
705 -> 706 ;
707 [label=<threshold &le; 155.0<br/>squared_error = 1.742<br/>samples = 200<br/>value = 6.369>, fillcolor="#efb185"] ;
706 -> 707 ;
708 [label=<morph &le; 4.0<br/>squared_error = 2.885<br/>samples = 100<br/>value = 6.79>, fillcolor="#eeac7c"] ;
707 -> 708 ;
709 [label=<brightness &le; -65.0<br/>squared_error = 3.63<br/>samples = 40<br/>value = 6.277>, fillcolor="#efb287"] ;
708 -> 709 ;
710 [label=<brightness &le; -75.0<br/>squared_error = 2.441<br/>samples = 32<br/>value = 6.742>, fillcolor="#eeac7d"] ;
709 -> 710 ;
711 [label=<threshold &le; 145.0<br/>squared_error = 1.557<br/>samples = 24<br/>value = 6.956>, fillcolor="#eda979"] ;
710 -> 711 ;
712 [label=<morph &le; 2.0<br/>squared_error = 1.711<br/>samples = 18<br/>value = 7.237>, fillcolor="#eda673"] ;
711 -> 712 ;
713 [label=<threshold &le; 125.0<br/>squared_error = 1.643<br/>samples = 9<br/>value = 7.043>, fillcolor="#eda877"] ;
712 -> 713 ;
714 [label=<brightness &le; -85.0<br/>squared_error = 2.677<br/>samples = 3<br/>value = 6.655>, fillcolor="#eead7f"] ;
713 -> 714 ;
715 [label=<brightness &le; -95.0<br/>squared_error = 0.826<br/>samples = 2<br/>value = 7.685>, fillcolor="#eba069"] ;
714 -> 715 ;
716 [label=<squared_error = 0.0<br/>samples = 1<br/>value = 8.595>, fillcolor="#e99456"] ;
715 -> 716 ;
717 [label=<squared_error = 0.0<br/>samples = 1<br/>value = 6.776>, fillcolor="#eeac7c"] ;
715 -> 717 ;
718 [label=<squared_error = -0.0<br/>samples = 1<br/>value = 4.593>, fillcolor="#f4c9aa"] ;
714 -> 718 ;
719 [label=<brightness &le; -95.0<br/>squared_error = 1.013<br/>samples = 6<br/>value = 7.237>, fillcolor="#eda673"] ;
713 -> 719 ;
720 [label=<threshold &le; 135.0<br/>squared_error = 0.184<br/>samples = 2<br/>value = 6.343>, fillcolor="#efb285"] ;
719 -> 720 ;
721 [label=<squared_error = 0.0<br/>samples = 1<br/>value = 6.772>, fillcolor="#eeac7c"] ;
720 -> 721 ;
722 [label=<squared_error = 0.0<br/>samples = 1<br/>value = 5.915>, fillcolor="#f0b78e"] ;
720 -> 722 ;
723 [label=<brightness &le; -85.0<br/>squared_error = 0.828<br/>samples = 4<br/>value = 7.684>, fillcolor="#eba069"] ;
719 -> 723 ;
724 [label=<threshold &le; 135.0<br/>squared_error = 0.831<br/>samples = 2<br/>value = 7.683>, fillcolor="#eba069"] ;
723 -> 724 ;
725 [label=<squared_error = 0.0<br/>samples = 1<br/>value = 8.595>, fillcolor="#e99456"] ;
724 -> 725 ;
726 [label=<squared_error = -0.0<br/>samples = 1<br/>value = 6.772>, fillcolor="#eeac7c"] ;
724 -> 726 ;
727 [label=<threshold &le; 135.0<br/>squared_error = 0.826<br/>samples = 2<br/>value = 7.685>, fillcolor="#eba069"] ;
723 -> 727 ;
728 [label=<squared_error = 0.0<br/>samples = 1<br/>value = 6.776>, fillcolor="#eeac7c"] ;
727 -> 728 ;
729 [label=<squared_error = 0.0<br/>samples = 1<br/>value = 8.595>, fillcolor="#e99456"] ;
727 -> 729 ;
730 [label=<threshold &le; 135.0<br/>squared_error = 1.703<br/>samples = 9<br/>value = 7.43>, fillcolor="#eca36f"] ;
712 -> 730 ;
731 [label=<brightness &le; -85.0<br/>squared_error = 1.622<br/>samples = 6<br/>value = 7.592>, fillcolor="#eca16b"] ;
730 -> 731 ;
732 [label=<brightness &le; -95.0<br/>squared_error = 0.973<br/>samples = 4<br/>value = 8.065>, fillcolor="#ea9b61"] ;
731 -> 732 ;
733 [label=<threshold &le; 125.0<br/>squared_error = 1.446<br/>samples = 2<br/>value = 7.719>, fillcolor="#eb9f69"] ;
732 -> 733 ;
734 [label=<squared_error = 0.0<br/>samples = 1<br/>value = 8.921>, fillcolor="#e88f50"] ;
733 -> 734 ;
735 [label=<squared_error = -0.0<br/>samples = 1<br/>value = 6.516>, fillcolor="#efaf82"] ;
733 -> 735 ;
736 [label=<threshold &le; 125.0<br/>squared_error = 0.261<br/>samples = 2<br/>value = 8.411>, fillcolor="#e9965a"] ;
732 -> 736 ;
737 [label=<squared_error = 0.0<br/>samples = 1<br/>value = 7.9>, fillcolor="#eb9d65"] ;
736 -> 737 ;
738 [label=<squared_error = 0.0<br/>samples = 1<br/>value = 8.921>, fillcolor="#e88f50"] ;
736 -> 738 ;
739 [label=<threshold &le; 125.0<br/>squared_error = 1.576<br/>samples = 2<br/>value = 6.645>, fillcolor="#eeae7f"] ;
731 -> 739 ;
740 [label=<squared_error = 0.0<br/>samples = 1<br/>value = 5.39>, fillcolor="#f2be99"] ;
739 -> 740 ;
741 [label=<squared_error = 0.0<br/>samples = 1<br/>value = 7.9>, fillcolor="#eb9d65"] ;
739 -> 741 ;
742 [label=<brightness &le; -85.0<br/>squared_error = 1.711<br/>samples = 3<br/>value = 7.108>, fillcolor="#eda775"] ;
730 -> 742 ;
743 [label=<brightness &le; -95.0<br/>squared_error = 0.099<br/>samples = 2<br/>value = 6.201>, fillcolor="#efb488"] ;
742 -> 743 ;
744 [label=<squared_error = 0.0<br/>samples = 1<br/>value = 5.886>, fillcolor="#f0b88f"] ;
743 -> 744 ;
745 [label=<squared_error = -0.0<br/>samples = 1<br/>value = 6.516>, fillcolor="#efaf82"] ;
743 -> 745 ;
746 [label=<squared_error = 0.0<br/>samples = 1<br/>value = 8.921>, fillcolor="#e88f50"] ;
742 -> 746 ;
747 [label=<brightness &le; -85.0<br/>squared_error = 0.148<br/>samples = 6<br/>value = 6.113>, fillcolor="#f0b58a"] ;
711 -> 747 ;
748 [label=<brightness &le; -95.0<br/>squared_error = 0.003<br/>samples = 4<br/>value = 5.848>, fillcolor="#f0b890"] ;
747 -> 748 ;
749 [label=<morph &le; 2.0<br/>squared_error = 0.0<br/>samples = 2<br/>value = 5.795>, fillcolor="#f1b991"] ;
748 -> 749 ;
750 [label=<squared_error = 0.0<br/>samples = 1<br/>value = 5.795>, fillcolor="#f1b991"] ;
749 -> 750 ;
751 [label=<squared_error = -0.0<br/>samples = 1<br/>value = 5.794>, fillcolor="#f1b991"] ;
749 -> 751 ;
752 [label=<morph &le; 2.0<br/>squared_error = 0.0<br/>samples = 2<br/>value = 5.9>, fillcolor="#f0b78f"] ;
748 -> 752 ;
753 [label=<squared_error = 0.0<br/>samples = 1<br/>value = 5.915>, fillcolor="#f0b78e"] ;
752 -> 753 ;
754 [label=<squared_error = -0.0<br/>samples = 1<br/>value = 5.886>, fillcolor="#f0b88f"] ;
752 -> 754 ;
755 [label=<morph &le; 2.0<br/>squared_error = 0.016<br/>samples = 2<br/>value = 6.644>, fillcolor="#eeae7f"] ;
747 -> 755 ;
756 [label=<squared_error = 0.0<br/>samples = 1<br/>value = 6.772>, fillcolor="#eeac7c"] ;
755 -> 756 ;
757 [label=<squared_error = -0.0<br/>samples = 1<br/>value = 6.516>, fillcolor="#efaf82"] ;
755 -> 757 ;
758 [label=<threshold &le; 135.0<br/>squared_error = 4.545<br/>samples = 8<br/>value = 6.099>, fillcolor="#f0b58a"] ;
710 -> 758 ;
759 [label=<threshold &le; 125.0<br/>squared_error = 0.819<br/>samples = 4<br/>value = 4.151>, fillcolor="#f5cfb3"] ;
758 -> 759 ;
760 [label=<morph &le; 2.0<br/>squared_error = 0.066<br/>samples = 2<br/>value = 3.31>, fillcolor="#f7dac5"] ;
759 -> 760 ;
761 [label=<squared_error = 0.0<br/>samples = 1<br/>value = 3.053>, fillcolor="#f8ddca"] ;
760 -> 761 ;
762 [label=<squared_error = -0.0<br/>samples = 1<br/>value = 3.566>, fillcolor="#f7d6bf"] ;
760 -> 762 ;
763 [label=<morph &le; 2.0<br/>squared_error = 0.159<br/>samples = 2<br/>value = 4.991>, fillcolor="#f3c4a2"] ;
759 -> 763 ;
764 [label=<squared_error = 0.0<br/>samples = 1<br/>value = 4.593>, fillcolor="#f4c9aa"] ;
763 -> 764 ;
765 [label=<squared_error = -0.0<br/>samples = 1<br/>value = 5.39>, fillcolor="#f2be99"] ;
763 -> 765 ;
766 [label=<threshold &le; 145.0<br/>squared_error = 0.675<br/>samples = 4<br/>value = 8.048>, fillcolor="#ea9b62"] ;
758 -> 766 ;
767 [label=<morph &le; 2.0<br/>squared_error = 0.316<br/>samples = 2<br/>value = 7.338>, fillcolor="#eca471"] ;
766 -> 767 ;
768 [label=<squared_error = 0.0<br/>samples = 1<br/>value = 6.776>, fillcolor="#eeac7c"] ;
767 -> 768 ;
769 [label=<squared_error = 0.0<br/>samples = 1<br/>value = 7.9>, fillcolor="#eb9d65"] ;
767 -> 769 ;
770 [label=<morph &le; 2.0<br/>squared_error = 0.027<br/>samples = 2<br/>value = 8.758>, fillcolor="#e89253"] ;
766 -> 770 ;
771 [label=<squared_error = 0.0<br/>samples = 1<br/>value = 8.595>, fillcolor="#e99456"] ;
770 -> 771 ;
772 [label=<squared_error = 0.0<br/>samples = 1<br/>value = 8.921>, fillcolor="#e88f50"] ;
770 -> 772 ;
773 [label=<threshold &le; 135.0<br/>squared_error = 4.071<br/>samples = 8<br/>value = 4.42>, fillcolor="#f4cbad"] ;
709 -> 773 ;
774 [label=<threshold &le; 125.0<br/>squared_error = 0.442<br/>samples = 4<br/>value = 2.676>, fillcolor="#f9e2d2"] ;
773 -> 774 ;
775 [label=<morph &le; 2.0<br/>squared_error = 0.015<br/>samples = 2<br/>value = 2.042>, fillcolor="#fbebdf"] ;
774 -> 775 ;
776 [label=<squared_error = 0.0<br/>samples = 1<br/>value = 1.92>, fillcolor="#fbece2"] ;
775 -> 776 ;
777 [label=<squared_error = 0.0<br/>samples = 1<br/>value = 2.165>, fillcolor="#fae9dd"] ;
775 -> 777 ;
778 [label=<morph &le; 2.0<br/>squared_error = 0.066<br/>samples = 2<br/>value = 3.31>, fillcolor="#f7dac5"] ;
774 -> 778 ;
779 [label=<squared_error = 0.0<br/>samples = 1<br/>value = 3.053>, fillcolor="#f8ddca"] ;
778 -> 779 ;
780 [label=<squared_error = -0.0<br/>samples = 1<br/>value = 3.566>, fillcolor="#f7d6bf"] ;
778 -> 780 ;
781 [label=<threshold &le; 145.0<br/>squared_error = 1.615<br/>samples = 4<br/>value = 6.165>, fillcolor="#f0b489"] ;
773 -> 781 ;
782 [label=<morph &le; 2.0<br/>squared_error = 0.159<br/>samples = 2<br/>value = 4.991>, fillcolor="#f3c4a2"] ;
781 -> 782 ;
783 [label=<squared_error = 0.0<br/>samples = 1<br/>value = 4.593>, fillcolor="#f4c9aa"] ;
782 -> 783 ;
784 [label=<squared_error = -0.0<br/>samples = 1<br/>value = 5.39>, fillcolor="#f2be99"] ;
782 -> 784 ;
785 [label=<morph &le; 2.0<br/>squared_error = 0.316<br/>samples = 2<br/>value = 7.338>, fillcolor="#eca471"] ;
781 -> 785 ;
786 [label=<squared_error = 0.0<br/>samples = 1<br/>value = 6.776>, fillcolor="#eeac7c"] ;
785 -> 786 ;
787 [label=<squared_error = 0.0<br/>samples = 1<br/>value = 7.9>, fillcolor="#eb9d65"] ;
785 -> 787 ;
788 [label=<brightness &le; -95.0<br/>squared_error = 2.097<br/>samples = 60<br/>value = 7.132>, fillcolor="#eda775"] ;
708 -> 788 ;
789 [label=<threshold &le; 125.0<br/>squared_error = 0.351<br/>samples = 12<br/>value = 6.179>, fillcolor="#efb489"] ;
788 -> 789 ;
790 [label=<morph &le; 6.0<br/>squared_error = 0.296<br/>samples = 3<br/>value = 7.075>, fillcolor="#eda876"] ;
789 -> 790 ;
791 [label=<squared_error = 0.0<br/>samples = 1<br/>value = 7.78>, fillcolor="#eb9f67"] ;
790 -> 791 ;
792 [label=<morph &le; 8.0<br/>squared_error = 0.071<br/>samples = 2<br/>value = 6.722>, fillcolor="#eead7d"] ;
790 -> 792 ;
793 [label=<squared_error = 0.0<br/>samples = 1<br/>value = 6.989>, fillcolor="#eda978"] ;
792 -> 793 ;
794 [label=<squared_error = -0.0<br/>samples = 1<br/>value = 6.456>, fillcolor="#efb083"] ;
792 -> 794 ;
795 [label=<threshold &le; 135.0<br/>squared_error = 0.013<br/>samples = 9<br/>value = 5.881>, fillcolor="#f0b88f"] ;
789 -> 795 ;
796 [label=<morph &le; 6.0<br/>squared_error = 0.009<br/>samples = 3<br/>value = 6.021>, fillcolor="#f0b68c"] ;
795 -> 796 ;
797 [label=<squared_error = 0.0<br/>samples = 1<br/>value = 6.148>, fillcolor="#f0b489"] ;
796 -> 797 ;
798 [label=<morph &le; 8.0<br/>squared_error = 0.002<br/>samples = 2<br/>value = 5.957>, fillcolor="#f0b78d"] ;
796 -> 798 ;
799 [label=<squared_error = 0.0<br/>samples = 1<br/>value = 6.0>, fillcolor="#f0b68d"] ;
798 -> 799 ;
800 [label=<squared_error = 0.0<br/>samples = 1<br/>value = 5.914>, fillcolor="#f0b78e"] ;
798 -> 800 ;
801 [label=<threshold &le; 145.0<br/>squared_error = 0.0<br/>samples = 6<br/>value = 5.811>, fillcolor="#f0b991"] ;
795 -> 801 ;
802 [label=<morph &le; 6.0<br/>squared_error = 0.0<br/>samples = 3<br/>value = 5.828>, fillcolor="#f0b890"] ;
801 -> 802 ;
803 [label=<squared_error = 0.0<br/>samples = 1<br/>value = 5.848>, fillcolor="#f0b890"] ;
802 -> 803 ;
804 [label=<morph &le; 8.0<br/>squared_error = 0.0<br/>samples = 2<br/>value = 5.818>, fillcolor="#f0b990"] ;
802 -> 804 ;
805 [label=<squared_error = 0.0<br/>samples = 1<br/>value = 5.824>, fillcolor="#f0b990"] ;
804 -> 805 ;
806 [label=<squared_error = 0.0<br/>samples = 1<br/>value = 5.812>, fillcolor="#f0b990"] ;
804 -> 806 ;
807 [label=<morph &le; 6.0<br/>squared_error = 0.0<br/>samples = 3<br/>value = 5.794>, fillcolor="#f1b991"] ;
801 -> 807 ;
808 [label=<squared_error = 0.0<br/>samples = 1<br/>value = 5.794>, fillcolor="#f1b991"] ;
807 -> 808 ;
809 [label=<morph &le; 8.0<br/>squared_error = 0.0<br/>samples = 2<br/>value = 5.793>, fillcolor="#f1b991"] ;
807 -> 809 ;
810 [label=<squared_error = 0.0<br/>samples = 1<br/>value = 5.794>, fillcolor="#f1b991"] ;
809 -> 810 ;
811 [label=<squared_error = -0.0<br/>samples = 1<br/>value = 5.793>, fillcolor="#f1b991"] ;
809 -> 811 ;
812 [label=<threshold &le; 145.0<br/>squared_error = 2.249<br/>samples = 48<br/>value = 7.37>, fillcolor="#eca470"] ;
788 -> 812 ;
813 [label=<brightness &le; -65.0<br/>squared_error = 2.305<br/>samples = 36<br/>value = 7.494>, fillcolor="#eca26d"] ;
812 -> 813 ;
814 [label=<brightness &le; -85.0<br/>squared_error = 1.653<br/>samples = 27<br/>value = 7.829>, fillcolor="#eb9e66"] ;
813 -> 814 ;
815 [label=<threshold &le; 125.0<br/>squared_error = 1.924<br/>samples = 9<br/>value = 7.389>, fillcolor="#eca470"] ;
814 -> 815 ;
816 [label=<morph &le; 8.0<br/>squared_error = 0.659<br/>samples = 3<br/>value = 9.073>, fillcolor="#e88d4c"] ;
815 -> 816 ;
817 [label=<morph &le; 6.0<br/>squared_error = 0.169<br/>samples = 2<br/>value = 9.596>, fillcolor="#e68642"] ;
816 -> 817 ;
818 [label=<squared_error = 0.0<br/>samples = 1<br/>value = 10.007>, fillcolor="#e58139"] ;
817 -> 818 ;
819 [label=<squared_error = 0.0<br/>samples = 1<br/>value = 9.184>, fillcolor="#e78c4a"] ;
817 -> 819 ;
820 [label=<squared_error = 0.0<br/>samples = 1<br/>value = 8.028>, fillcolor="#ea9b62"] ;
816 -> 820 ;
821 [label=<threshold &le; 135.0<br/>squared_error = 0.43<br/>samples = 6<br/>value = 6.548>, fillcolor="#eeaf81"] ;
815 -> 821 ;
822 [label=<morph &le; 6.0<br/>squared_error = 0.296<br/>samples = 3<br/>value = 7.075>, fillcolor="#eda876"] ;
821 -> 822 ;
823 [label=<squared_error = 0.0<br/>samples = 1<br/>value = 7.78>, fillcolor="#eb9f67"] ;
822 -> 823 ;
824 [label=<morph &le; 8.0<br/>squared_error = 0.071<br/>samples = 2<br/>value = 6.722>, fillcolor="#eead7d"] ;
822 -> 824 ;
825 [label=<squared_error = 0.0<br/>samples = 1<br/>value = 6.989>, fillcolor="#eda978"] ;
824 -> 825 ;
826 [label=<squared_error = -0.0<br/>samples = 1<br/>value = 6.456>, fillcolor="#efb083"] ;
824 -> 826 ;
827 [label=<morph &le; 6.0<br/>squared_error = 0.009<br/>samples = 3<br/>value = 6.021>, fillcolor="#f0b68c"] ;
821 -> 827 ;
828 [label=<squared_error = 0.0<br/>samples = 1<br/>value = 6.148>, fillcolor="#f0b489"] ;
827 -> 828 ;
829 [label=<morph &le; 8.0<br/>squared_error = 0.002<br/>samples = 2<br/>value = 5.957>, fillcolor="#f0b78d"] ;
827 -> 829 ;
830 [label=<squared_error = 0.0<br/>samples = 1<br/>value = 6.0>, fillcolor="#f0b68d"] ;
829 -> 830 ;
831 [label=<squared_error = 0.0<br/>samples = 1<br/>value = 5.914>, fillcolor="#f0b78e"] ;
829 -> 831 ;
832 [label=<threshold &le; 125.0<br/>squared_error = 1.373<br/>samples = 18<br/>value = 8.048>, fillcolor="#ea9b62"] ;
814 -> 832 ;
833 [label=<brightness &le; -75.0<br/>squared_error = 1.242<br/>samples = 6<br/>value = 7.414>, fillcolor="#eca36f"] ;
832 -> 833 ;
834 [label=<morph &le; 6.0<br/>squared_error = 0.248<br/>samples = 3<br/>value = 8.241>, fillcolor="#ea985e"] ;
833 -> 834 ;
835 [label=<squared_error = 0.0<br/>samples = 1<br/>value = 7.537>, fillcolor="#eca26d"] ;
834 -> 835 ;
836 [label=<morph &le; 8.0<br/>squared_error = 0.0<br/>samples = 2<br/>value = 8.593>, fillcolor="#e99456"] ;
834 -> 836 ;
837 [label=<squared_error = 0.0<br/>samples = 1<br/>value = 8.589>, fillcolor="#e99457"] ;
836 -> 837 ;
838 [label=<squared_error = -0.0<br/>samples = 1<br/>value = 8.597>, fillcolor="#e99456"] ;
836 -> 838 ;
839 [label=<morph &le; 6.0<br/>squared_error = 0.87<br/>samples = 3<br/>value = 6.588>, fillcolor="#eeae80"] ;
833 -> 839 ;
840 [label=<squared_error = 0.0<br/>samples = 1<br/>value = 5.344>, fillcolor="#f2bf9a"] ;
839 -> 840 ;
841 [label=<morph &le; 8.0<br/>squared_error = 0.145<br/>samples = 2<br/>value = 7.21>, fillcolor="#eda673"] ;
839 -> 841 ;
842 [label=<squared_error = 0.0<br/>samples = 1<br/>value = 6.83>, fillcolor="#eeab7b"] ;
841 -> 842 ;
843 [label=<squared_error = 0.0<br/>samples = 1<br/>value = 7.59>, fillcolor="#eca16b"] ;
841 -> 843 ;
844 [label=<morph &le; 8.0<br/>squared_error = 1.136<br/>samples = 12<br/>value = 8.365>, fillcolor="#e9975b"] ;
832 -> 844 ;
845 [label=<morph &le; 6.0<br/>squared_error = 1.127<br/>samples = 8<br/>value = 8.66>, fillcolor="#e99355"] ;
844 -> 845 ;
846 [label=<brightness &le; -75.0<br/>squared_error = 1.387<br/>samples = 4<br/>value = 8.833>, fillcolor="#e89151"] ;
845 -> 846 ;
847 [label=<threshold &le; 135.0<br/>squared_error = 1.24<br/>samples = 2<br/>value = 8.893>, fillcolor="#e89050"] ;
846 -> 847 ;
848 [label=<squared_error = 0.0<br/>samples = 1<br/>value = 10.007>, fillcolor="#e58139"] ;
847 -> 848 ;
849 [label=<squared_error = 0.0<br/>samples = 1<br/>value = 7.78>, fillcolor="#eb9f67"] ;
847 -> 849 ;
850 [label=<threshold &le; 135.0<br/>squared_error = 1.526<br/>samples = 2<br/>value = 8.772>, fillcolor="#e89153"] ;
846 -> 850 ;
851 [label=<squared_error = 0.0<br/>samples = 1<br/>value = 7.537>, fillcolor="#eca26d"] ;
850 -> 851 ;
852 [label=<squared_error = 0.0<br/>samples = 1<br/>value = 10.007>, fillcolor="#e58139"] ;
850 -> 852 ;
853 [label=<threshold &le; 135.0<br/>squared_error = 0.807<br/>samples = 4<br/>value = 8.486>, fillcolor="#e99559"] ;
845 -> 853 ;
854 [label=<brightness &le; -75.0<br/>squared_error = 0.089<br/>samples = 2<br/>value = 8.886>, fillcolor="#e89050"] ;
853 -> 854 ;
855 [label=<squared_error = 0.0<br/>samples = 1<br/>value = 9.184>, fillcolor="#e78c4a"] ;
854 -> 855 ;
856 [label=<squared_error = 0.0<br/>samples = 1<br/>value = 8.589>, fillcolor="#e99457"] ;
854 -> 856 ;
857 [label=<brightness &le; -75.0<br/>squared_error = 1.205<br/>samples = 2<br/>value = 8.086>, fillcolor="#ea9a61"] ;
853 -> 857 ;
858 [label=<squared_error = 0.0<br/>samples = 1<br/>value = 6.989>, fillcolor="#eda978"] ;
857 -> 858 ;
859 [label=<squared_error = 0.0<br/>samples = 1<br/>value = 9.184>, fillcolor="#e78c4a"] ;
857 -> 859 ;
860 [label=<brightness &le; -75.0<br/>squared_error = 0.636<br/>samples = 4<br/>value = 7.777>, fillcolor="#eb9f67"] ;
844 -> 860 ;
861 [label=<threshold &le; 135.0<br/>squared_error = 0.618<br/>samples = 2<br/>value = 7.242>, fillcolor="#eda673"] ;
860 -> 861 ;
862 [label=<squared_error = 0.0<br/>samples = 1<br/>value = 8.028>, fillcolor="#ea9b62"] ;
861 -> 862 ;
863 [label=<squared_error = 0.0<br/>samples = 1<br/>value = 6.456>, fillcolor="#efb083"] ;
861 -> 863 ;
864 [label=<threshold &le; 135.0<br/>squared_error = 0.081<br/>samples = 2<br/>value = 8.313>, fillcolor="#ea975c"] ;
860 -> 864 ;
865 [label=<squared_error = 0.0<br/>samples = 1<br/>value = 8.597>, fillcolor="#e99456"] ;
864 -> 865 ;
866 [label=<squared_error = -0.0<br/>samples = 1<br/>value = 8.028>, fillcolor="#ea9b62"] ;
864 -> 866 ;
867 [label=<threshold &le; 125.0<br/>squared_error = 2.915<br/>samples = 9<br/>value = 6.49>, fillcolor="#efb082"] ;
813 -> 867 ;
868 [label=<morph &le; 6.0<br/>squared_error = 1.134<br/>samples = 3<br/>value = 4.641>, fillcolor="#f4c8a9"] ;
867 -> 868 ;
