digraph Tree {
node [shape=box, style="filled, rounded", color="black", fontname="helvetica"] ;
edge [fontname="helvetica"] ;
0 [label=<brightness &le; 45.0<br/>squared_error = 8.029<br/>samples = 4500<br/>value = 5.072>, fillcolor="#f8dcc7"] ;
1 [label=<brightness &le; -75.0<br/>squared_error = 6.028<br/>samples = 3375<br/>value = 5.711>, fillcolor="#f7d7c0"] ;
0 -> 1 [labeldistance=2.5, labelangle=45, headlabel="True"] ;
2 [label=<threshold &le; 85.0<br/>squared_error = 2.916<br/>samples = 675<br/>value = 4.473>, fillcolor="#f9e0ce"] ;
1 -> 2 ;
3 [label=<contrast &le; 1.25<br/>squared_error = 3.561<br/>samples = 180<br/>value = 2.576>, fillcolor="#fbeee4"] ;
2 -> 3 ;
4 [label=<threshold &le; 55.0<br/>squared_error = 1.779<br/>samples = 60<br/>value = 4.536>, fillcolor="#f9e0ce"] ;
3 -> 4 ;
5 [label=<brightness &le; -85.0<br/>squared_error = 1.691<br/>samples = 15<br/>value = 2.999>, fillcolor="#fbebdf"] ;
4 -> 5 ;
6 [label=<brightness &le; -95.0<br/>squared_error = 0.527<br/>samples = 10<br/>value = 2.181>, fillcolor="#fcf1e9"] ;
5 -> 6 ;
7 [label=<morph &le; 6.0<br/>squared_error = 0.018<br/>samples = 5<br/>value = 1.463>, fillcolor="#fdf6f1"] ;
6 -> 7 ;
8 [label=<morph &le; 4.0<br/>squared_error = 0.003<br/>samples = 3<br/>value = 1.364>, fillcolor="#fdf7f2"] ;
7 -> 8 ;
9 [label=<morph &le; 2.0<br/>squared_error = 0.0<br/>samples = 2<br/>value = 1.329>, fillcolor="#fdf7f3"] ;
8 -> 9 ;
10 [label=<squared_error = 0.0<br/>samples = 1<br/>value = 1.311>, fillcolor="#fdf7f3"] ;
9 -> 10 ;
11 [label=<squared_error = 0.0<br/>samples = 1<br/>value = 1.347>, fillcolor="#fdf7f2"] ;
9 -> 11 ;
12 [label=<squared_error = 0.0<br/>samples = 1<br/>value = 1.435>, fillcolor="#fdf6f1"] ;
8 -> 12 ;
13 [label=<morph &le; 8.0<br/>squared_error = 0.004<br/>samples = 2<br/>value = 1.611>, fillcolor="#fdf5ef"] ;
7 -> 13 ;
14 [label=<squared_error = 0.0<br/>samples = 1<br/>value = 1.548>, fillcolor="#fdf5f0"] ;
13 -> 14 ;
15 [label=<squared_error = 0.0<br/>samples = 1<br/>value = 1.674>, fillcolor="#fdf5ef"] ;
13 -> 15 ;
16 [label=<morph &le; 6.0<br/>squared_error = 0.006<br/>samples = 5<br/>value = 2.898>, fillcolor="#fbece0"] ;
6 -> 16 ;
17 [label=<morph &le; 4.0<br/>squared_error = 0.0<br/>samples = 3<br/>value = 2.84>, fillcolor="#fbece1"] ;
16 -> 17 ;
18 [label=<morph &le; 2.0<br/>squared_error = 0.0<br/>samples = 2<br/>value = 2.828>, fillcolor="#fbece1"] ;
17 -> 18 ;
19 [label=<squared_error = 0.0<br/>samples = 1<br/>value = 2.83>, fillcolor="#fbece1"] ;
18 -> 19 ;
20 [label=<squared_error = 0.0<br/>samples = 1<br/>value = 2.825>, fillcolor="#fbece1"] ;
18 -> 20 ;
21 [label=<squared_error = 0.0<br/>samples = 1<br/>value = 2.863>, fillcolor="#fbece1"] ;
17 -> 21 ;
22 [label=<morph &le; 8.0<br/>squared_error = 0.002<br/>samples = 2<br/>value = 2.987>, fillcolor="#fbebdf"] ;
16 -> 22 ;
23 [label=<squared_error = 0.0<br/>samples = 1<br/>value = 2.941>, fillcolor="#fbebe0"] ;
22 -> 23 ;
24 [label=<squared_error = 0.0<br/>samples = 1<br/>value = 3.032>, fillcolor="#fbebdf"] ;
22 -> 24 ;
25 [label=<morph &le; 2.0<br/>squared_error = 0.004<br/>samples = 5<br/>value = 4.635>, fillcolor="#f8dfcc"] ;
5 -> 25 ;
26 [label=<squared_error = 0.0<br/>samples = 1<br/>value = 4.751>, fillcolor="#f8decb"] ;
25 -> 26 ;
27 [label=<morph &le; 4.0<br/>squared_error = 0.001<br/>samples = 4<br/>value = 4.606>, fillcolor="#f8dfcd"] ;
25 -> 27 ;
28 [label=<squared_error = 0.0<br/>samples = 1<br/>value = 4.65>, fillcolor="#f8dfcc"] ;
27 -> 28 ;
29 [label=<morph &le; 8.0<br/>squared_error = 0.0<br/>samples = 3<br/>value = 4.591>, fillcolor="#f8dfcd"] ;
27 -> 29 ;
30 [label=<morph &le; 6.0<br/>squared_error = 0.0<br/>samples = 2<br/>value = 4.585>, fillcolor="#f8dfcd"] ;
29 -> 30 ;
31 [label=<squared_error = 0.0<br/>samples = 1<br/>value = 4.59>, fillcolor="#f8dfcd"] ;
30 -> 31 ;
32 [label=<squared_error = 0.0<br/>samples = 1<br/>value = 4.581>, fillcolor="#f8dfcd"] ;
30 -> 32 ;
33 [label=<squared_error = 0.0<br/>samples = 1<br/>value = 4.603>, fillcolor="#f8dfcd"] ;
29 -> 33 ;
34 [label=<brightness &le; -95.0<br/>squared_error = 0.758<br/>samples = 45<br/>value = 5.049>, fillcolor="#f8dcc8"] ;
4 -> 34 ;
35 [label=<threshold &le; 65.0<br/>squared_error = 1.216<br/>samples = 15<br/>value = 4.33>, fillcolor="#f9e1d0"] ;
34 -> 35 ;
36 [label=<morph &le; 6.0<br/>squared_error = 0.009<br/>samples = 5<br/>value = 2.879>, fillcolor="#fbece1"] ;
35 -> 36 ;
37 [label=<morph &le; 4.0<br/>squared_error = 0.001<br/>samples = 3<br/>value = 2.807>, fillcolor="#fbece1"] ;
36 -> 37 ;
38 [label=<morph &le; 2.0<br/>squared_error = 0.0<br/>samples = 2<br/>value = 2.788>, fillcolor="#fbece2"] ;
37 -> 38 ;
39 [label=<squared_error = 0.0<br/>samples = 1<br/>value = 2.785>, fillcolor="#fbece2"] ;
38 -> 39 ;
40 [label=<squared_error = 0.0<br/>samples = 1<br/>value = 2.791>, fillcolor="#fbece2"] ;
38 -> 40 ;
41 [label=<squared_error = 0.0<br/>samples = 1<br/>value = 2.846>, fillcolor="#fbece1"] ;
37 -> 41 ;
42 [label=<morph &le; 8.0<br/>squared_error = 0.002<br/>samples = 2<br/>value = 2.985>, fillcolor="#fbebdf"] ;
36 -> 42 ;
43 [label=<squared_error = 0.0<br/>samples = 1<br/>value = 2.939>, fillcolor="#fbebe0"] ;
42 -> 43 ;
44 [label=<squared_error = 0.0<br/>samples = 1<br/>value = 3.032>, fillcolor="#fbebdf"] ;
42 -> 44 ;
45 [label=<threshold &le; 75.0<br/>squared_error = 0.24<br/>samples = 10<br/>value = 5.056>, fillcolor="#f8dcc8"] ;
35 -> 45 ;
46 [label=<morph &le; 8.0<br/>squared_error = 0.001<br/>samples = 5<br/>value = 4.568>, fillcolor="#f8dfcd"] ;
45 -> 46 ;
47 [label=<morph &le; 2.0<br/>squared_error = 0.001<br/>samples = 4<br/>value = 4.56>, fillcolor="#f8dfcd"] ;
46 -> 47 ;
48 [label=<squared_error = 0.0<br/>samples = 1<br/>value = 4.596>, fillcolor="#f8dfcd"] ;
47 -> 48 ;
49 [label=<morph &le; 6.0<br/>squared_error = 0.0<br/>samples = 3<br/>value = 4.548>, fillcolor="#f8dfcd"] ;
47 -> 49 ;
50 [label=<morph &le; 4.0<br/>squared_error = 0.0<br/>samples = 2<br/>value = 4.538>, fillcolor="#f9e0ce"] ;
49 -> 50 ;
51 [label=<squared_error = 0.0<br/>samples = 1<br/>value = 4.542>, fillcolor="#f9e0ce"] ;
50 -> 51 ;
52 [label=<squared_error = 0.0<br/>samples = 1<br/>value = 4.534>, fillcolor="#f9e0ce"] ;
50 -> 52 ;
53 [label=<squared_error = 0.0<br/>samples = 1<br/>value = 4.567>, fillcolor="#f8dfcd"] ;
49 -> 53 ;
54 [label=<squared_error = 0.0<br/>samples = 1<br/>value = 4.601>, fillcolor="#f8dfcd"] ;
46 -> 54 ;
55 [label=<morph &le; 2.0<br/>squared_error = 0.003<br/>samples = 5<br/>value = 5.543>, fillcolor="#f7d8c2"] ;
45 -> 55 ;
56 [label=<squared_error = 0.0<br/>samples = 1<br/>value = 5.649>, fillcolor="#f7d7c1"] ;
55 -> 56 ;
57 [label=<morph &le; 4.0<br/>squared_error = 0.001<br/>samples = 4<br/>value = 5.517>, fillcolor="#f7d8c2"] ;
55 -> 57 ;
58 [label=<squared_error = 0.0<br/>samples = 1<br/>value = 5.562>, fillcolor="#f7d8c2"] ;
57 -> 58 ;
59 [label=<morph &le; 6.0<br/>squared_error = 0.0<br/>samples = 3<br/>value = 5.501>, fillcolor="#f7d8c2"] ;
57 -> 59 ;
60 [label=<squared_error = 0.0<br/>samples = 1<br/>value = 5.502>, fillcolor="#f7d8c2"] ;
59 -> 60 ;
61 [label=<squared_error = 0.0<br/>samples = 2<br/>value = 5.501>, fillcolor="#f7d8c2"] ;
59 -> 61 ;
62 [label=<threshold &le; 65.0<br/>squared_error = 0.142<br/>samples = 30<br/>value = 5.408>, fillcolor="#f7d9c4"] ;
34 -> 62 ;
63 [label=<brightness &le; -85.0<br/>squared_error = 0.263<br/>samples = 10<br/>value = 5.095>, fillcolor="#f8dbc7"] ;
62 -> 63 ;
64 [label=<morph &le; 2.0<br/>squared_error = 0.001<br/>samples = 5<br/>value = 4.589>, fillcolor="#f8dfcd"] ;
63 -> 64 ;
65 [label=<squared_error = 0.0<br/>samples = 1<br/>value = 4.652>, fillcolor="#f8dfcc"] ;
64 -> 65 ;
66 [label=<morph &le; 8.0<br/>squared_error = 0.0<br/>samples = 4<br/>value = 4.573>, fillcolor="#f8dfcd"] ;
64 -> 66 ;
67 [label=<morph &le; 4.0<br/>squared_error = 0.0<br/>samples = 3<br/>value = 4.564>, fillcolor="#f8dfcd"] ;
66 -> 67 ;
68 [label=<squared_error = 0.0<br/>samples = 1<br/>value = 4.583>, fillcolor="#f8dfcd"] ;
67 -> 68 ;
69 [label=<morph &le; 6.0<br/>squared_error = 0.0<br/>samples = 2<br/>value = 4.555>, fillcolor="#f8dfcd"] ;
67 -> 69 ;
70 [label=<squared_error = 0.0<br/>samples = 1<br/>value = 4.542>, fillcolor="#f9e0ce"] ;
69 -> 70 ;
71 [label=<squared_error = 0.0<br/>samples = 1<br/>value = 4.567>, fillcolor="#f8dfcd"] ;
69 -> 71 ;
72 [label=<squared_error = 0.0<br/>samples = 1<br/>value = 4.601>, fillcolor="#f8dfcd"] ;
66 -> 72 ;
73 [label=<morph &le; 4.0<br/>squared_error = 0.013<br/>samples = 5<br/>value = 5.6>, fillcolor="#f7d8c1"] ;
63 -> 73 ;
74 [label=<morph &le; 2.0<br/>squared_error = 0.004<br/>samples = 2<br/>value = 5.731>, fillcolor="#f7d7c0"] ;
73 -> 74 ;
75 [label=<squared_error = 0.0<br/>samples = 1<br/>value = 5.797>, fillcolor="#f7d6bf"] ;
74 -> 75 ;
76 [label=<squared_error = 0.0<br/>samples = 1<br/>value = 5.666>, fillcolor="#f7d7c1"] ;
74 -> 76 ;
77 [label=<morph &le; 6.0<br/>squared_error = 0.0<br/>samples = 3<br/>value = 5.513>, fillcolor="#f7d8c2"] ;
73 -> 77 ;
78 [label=<squared_error = 0.0<br/>samples = 1<br/>value = 5.534>, fillcolor="#f7d8c2"] ;
77 -> 78 ;
79 [label=<morph &le; 8.0<br/>squared_error = 0.0<br/>samples = 2<br/>value = 5.502>, fillcolor="#f7d8c2"] ;
77 -> 79 ;
80 [label=<squared_error = 0.0<br/>samples = 1<br/>value = 5.504>, fillcolor="#f7d8c2"] ;
79 -> 80 ;
81 [label=<squared_error = 0.0<br/>samples = 1<br/>value = 5.501>, fillcolor="#f7d8c2"] ;
79 -> 81 ;
82 [label=<morph &le; 4.0<br/>squared_error = 0.007<br/>samples = 20<br/>value = 5.565>, fillcolor="#f7d8c2"] ;
62 -> 82 ;
83 [label=<morph &le; 2.0<br/>squared_error = 0.004<br/>samples = 8<br/>value = 5.658>, fillcolor="#f7d7c1"] ;
82 -> 83 ;
84 [label=<brightness &le; -85.0<br/>squared_error = 0.001<br/>samples = 4<br/>value = 5.713>, fillcolor="#f7d7c0"] ;
83 -> 84 ;
85 [label=<threshold &le; 75.0<br/>squared_error = 0.0<br/>samples = 2<br/>value = 5.694>, fillcolor="#f7d7c0"] ;
84 -> 85 ;
86 [label=<squared_error = 0.0<br/>samples = 1<br/>value = 5.709>, fillcolor="#f7d7c0"] ;
85 -> 86 ;
87 [label=<squared_error = 0.0<br/>samples = 1<br/>value = 5.68>, fillcolor="#f7d7c0"] ;
85 -> 87 ;
88 [label=<threshold &le; 75.0<br/>squared_error = 0.0<br/>samples = 2<br/>value = 5.732>, fillcolor="#f7d7c0"] ;
84 -> 88 ;
89 [label=<squared_error = 0.0<br/>samples = 1<br/>value = 5.751>, fillcolor="#f7d7c0"] ;
88 -> 89 ;
90 [label=<squared_error = 0.0<br/>samples = 1<br/>value = 5.714>, fillcolor="#f7d7c0"] ;
88 -> 90 ;
91 [label=<brightness &le; -85.0<br/>squared_error = 0.0<br/>samples = 4<br/>value = 5.602>, fillcolor="#f7d8c1"] ;
83 -> 91 ;
92 [label=<threshold &le; 75.0<br/>squared_error = 0.0<br/>samples = 2<br/>value = 5.589>, fillcolor="#f7d8c1"] ;
91 -> 92 ;
93 [label=<squared_error = 0.0<br/>samples = 1<br/>value = 5.6>, fillcolor="#f7d8c1"] ;
92 -> 93 ;
94 [label=<squared_error = 0.0<br/>samples = 1<br/>value = 5.578>, fillcolor="#f7d8c2"] ;
92 -> 94 ;
95 [label=<threshold &le; 75.0<br/>squared_error = 0.0<br/>samples = 2<br/>value = 5.616>, fillcolor="#f7d8c1"] ;
91 -> 95 ;
96 [label=<squared_error = 0.0<br/>samples = 1<br/>value = 5.63>, fillcolor="#f7d8c1"] ;
95 -> 96 ;
97 [label=<squared_error = 0.0<br/>samples = 1<br/>value = 5.601>, fillcolor="#f7d8c1"] ;
95 -> 97 ;
98 [label=<morph &le; 6.0<br/>squared_error = 0.0<br/>samples = 12<br/>value = 5.502>, fillcolor="#f7d8c2"] ;
82 -> 98 ;
99 [label=<threshold &le; 75.0<br/>squared_error = 0.0<br/>samples = 4<br/>value = 5.505>, fillcolor="#f7d8c2"] ;
98 -> 99 ;
100 [label=<brightness &le; -85.0<br/>squared_error = 0.0<br/>samples = 2<br/>value = 5.508>, fillcolor="#f7d8c2"] ;
99 -> 100 ;
101 [label=<squared_error = 0.0<br/>samples = 1<br/>value = 5.503>, fillcolor="#f7d8c2"] ;
100 -> 101 ;
102 [label=<squared_error = 0.0<br/>samples = 1<br/>value = 5.513>, fillcolor="#f7d8c2"] ;
100 -> 102 ;
103 [label=<brightness &le; -85.0<br/>squared_error = 0.0<br/>samples = 2<br/>value = 5.502>, fillcolor="#f7d8c2"] ;
99 -> 103 ;
104 [label=<squared_error = 0.0<br/>samples = 1<br/>value = 5.502>, fillcolor="#f7d8c2"] ;
103 -> 104 ;
105 [label=<squared_error = 0.0<br/>samples = 1<br/>value = 5.503>, fillcolor="#f7d8c2"] ;
103 -> 105 ;
106 [label=<squared_error = 0.0<br/>samples = 8<br/>value = 5.501>, fillcolor="#f7d8c2"] ;
98 -> 106 ;
107 [label=<brightness &le; -85.0<br/>squared_error = 1.569<br/>samples = 120<br/>value = 1.596>, fillcolor="#fdf5ef"] ;
3 -> 107 ;
108 [label=<threshold &le; 65.0<br/>squared_error = 0.716<br/>samples = 80<br/>value = 1.053>, fillcolor="#fef9f6"] ;
107 -> 108 ;
109 [label=<brightness &le; -95.0<br/>squared_error = 0.136<br/>samples = 40<br/>value = 0.621>, fillcolor="#fefcfb"] ;
108 -> 109 ;
110 [label=<contrast &le; 1.75<br/>squared_error = 0.017<br/>samples = 20<br/>value = 0.452>, fillcolor="#fffdfd"] ;
109 -> 110 ;
111 [label=<threshold &le; 55.0<br/>squared_error = 0.021<br/>samples = 10<br/>value = 0.416>, fillcolor="#fffefd"] ;
110 -> 111 ;
112 [label=<morph &le; 8.0<br/>squared_error = 0.001<br/>samples = 5<br/>value = 0.326>, fillcolor="#fffefe"] ;
111 -> 112 ;
113 [label=<morph &le; 2.0<br/>squared_error = 0.001<br/>samples = 4<br/>value = 0.315>, fillcolor="#fffefe"] ;
112 -> 113 ;
114 [label=<squared_error = 0.0<br/>samples = 1<br/>value = 0.365>, fillcolor="#fffefe"] ;
113 -> 114 ;
115 [label=<morph &le; 6.0<br/>squared_error = 0.0<br/>samples = 3<br/>value = 0.298>, fillcolor="#fffffe"] ;
113 -> 115 ;
116 [label=<morph &le; 4.0<br/>squared_error = 0.0<br/>samples = 2<br/>value = 0.292>, fillcolor="#fffffe"] ;
115 -> 116 ;
117 [label=<squared_error = 0.0<br/>samples = 1<br/>value = 0.302>, fillcolor="#fffffe"] ;
116 -> 117 ;
118 [label=<squared_error = 0.0<br/>samples = 1<br/>value = 0.283>, fillcolor="#ffffff"] ;
116 -> 118 ;
119 [label=<squared_error = 0.0<br/>samples = 1<br/>value = 0.309>, fillcolor="#fffffe"] ;
115 -> 119 ;
120 [label=<squared_error = 0.0<br/>samples = 1<br/>value = 0.37>, fillcolor="#fffefe"] ;
112 -> 120 ;
121 [label=<morph &le; 6.0<br/>squared_error = 0.024<br/>samples = 5<br/>value = 0.506>, fillcolor="#fffdfc"] ;
111 -> 121 ;
122 [label=<morph &le; 4.0<br/>squared_error = 0.005<br/>samples = 3<br/>value = 0.393>, fillcolor="#fffefd"] ;
121 -> 122 ;
123 [label=<morph &le; 2.0<br/>squared_error = 0.0<br/>samples = 2<br/>value = 0.344>, fillcolor="#fffefe"] ;
122 -> 123 ;
124 [label=<squared_error = 0.0<br/>samples = 1<br/>value = 0.322>, fillcolor="#fffefe"] ;
123 -> 124 ;
125 [label=<squared_error = 0.0<br/>samples = 1<br/>value = 0.366>, fillcolor="#fffefe"] ;
123 -> 125 ;
126 [label=<squared_error = 0.0<br/>samples = 1<br/>value = 0.492>, fillcolor="#fffdfc"] ;
122 -> 126 ;
127 [label=<morph &le; 8.0<br/>squared_error = 0.005<br/>samples = 2<br/>value = 0.675>, fillcolor="#fefcfa"] ;
121 -> 127 ;
128 [label=<squared_error = 0.0<br/>samples = 1<br/>value = 0.604>, fillcolor="#fefcfb"] ;
127 -> 128 ;
129 [label=<squared_error = 0.0<br/>samples = 1<br/>value = 0.745>, fillcolor="#fefbf9"] ;
127 -> 129 ;
130 [label=<threshold &le; 55.0<br/>squared_error = 0.011<br/>samples = 10<br/>value = 0.488>, fillcolor="#fffdfc"] ;
110 -> 130 ;
131 [label=<morph &le; 4.0<br/>squared_error = 0.007<br/>samples = 5<br/>value = 0.567>, fillcolor="#fffdfb"] ;
130 -> 131 ;
132 [label=<morph &le; 2.0<br/>squared_error = 0.002<br/>samples = 2<br/>value = 0.661>, fillcolor="#fefcfa"] ;
131 -> 132 ;
133 [label=<squared_error = 0.0<br/>samples = 1<br/>value = 0.707>, fillcolor="#fefcfa"] ;
132 -> 133 ;
134 [label=<squared_error = 0.0<br/>samples = 1<br/>value = 0.616>, fillcolor="#fefcfb"] ;
132 -> 134 ;
135 [label=<morph &le; 6.0<br/>squared_error = 0.001<br/>samples = 3<br/>value = 0.504>, fillcolor="#fffdfc"] ;
131 -> 135 ;
136 [label=<squared_error = 0.0<br/>samples = 1<br/>value = 0.539>, fillcolor="#fffdfc"] ;
135 -> 136 ;
137 [label=<morph &le; 8.0<br/>squared_error = 0.0<br/>samples = 2<br/>value = 0.486>, fillcolor="#fffdfc"] ;
135 -> 137 ;
138 [label=<squared_error = 0.0<br/>samples = 1<br/>value = 0.498>, fillcolor="#fffdfc"] ;
137 -> 138 ;
139 [label=<squared_error = 0.0<br/>samples = 1<br/>value = 0.474>, fillcolor="#fffdfc"] ;
137 -> 139 ;
140 [label=<morph &le; 2.0<br/>squared_error = 0.003<br/>samples = 5<br/>value = 0.41>, fillcolor="#fffefd"] ;
130 -> 140 ;
141 [label=<squared_error = 0.0<br/>samples = 1<br/>value = 0.512>, fillcolor="#fffdfc"] ;
140 -> 141 ;
142 [label=<morph &le; 4.0<br/>squared_error = 0.001<br/>samples = 4<br/>value = 0.385>, fillcolor="#fffefd"] ;
140 -> 142 ;
143 [label=<squared_error = 0.0<br/>samples = 1<br/>value = 0.431>, fillcolor="#fffefd"] ;
142 -> 143 ;
144 [label=<morph &le; 6.0<br/>squared_error = 0.0<br/>samples = 3<br/>value = 0.369>, fillcolor="#fffefe"] ;
142 -> 144 ;
145 [label=<squared_error = 0.0<br/>samples = 1<br/>value = 0.377>, fillcolor="#fffefd"] ;
144 -> 145 ;
146 [label=<morph &le; 8.0<br/>squared_error = 0.0<br/>samples = 2<br/>value = 0.365>, fillcolor="#fffefe"] ;
144 -> 146 ;
147 [label=<squared_error = 0.0<br/>samples = 1<br/>value = 0.36>, fillcolor="#fffefe"] ;
146 -> 147 ;
148 [label=<squared_error = 0.0<br/>samples = 1<br/>value = 0.371>, fillcolor="#fffefe"] ;
146 -> 148 ;
149 [label=<contrast &le; 1.75<br/>squared_error = 0.197<br/>samples = 20<br/>value = 0.789>, fillcolor="#fefbf9"] ;
109 -> 149 ;
150 [label=<threshold &le; 55.0<br/>squared_error = 0.128<br/>samples = 10<br/>value = 1.141>, fillcolor="#fef8f5"] ;
149 -> 150 ;
151 [label=<morph &le; 6.0<br/>squared_error = 0.018<br/>samples = 5<br/>value = 0.808>, fillcolor="#fefbf9"] ;
150 -> 151 ;
152 [label=<morph &le; 4.0<br/>squared_error = 0.004<br/>samples = 3<br/>value = 0.709>, fillcolor="#fefcfa"] ;
151 -> 152 ;
153 [label=<morph &le; 2.0<br/>squared_error = 0.0<br/>samples = 2<br/>value = 0.667>, fillcolor="#fefcfa"] ;
152 -> 153 ;
154 [label=<squared_error = 0.0<br/>samples = 1<br/>value = 0.649>, fillcolor="#fefcfa"] ;
153 -> 154 ;
155 [label=<squared_error = 0.0<br/>samples = 1<br/>value = 0.685>, fillcolor="#fefcfa"] ;
153 -> 155 ;
156 [label=<squared_error = 0.0<br/>samples = 1<br/>value = 0.793>, fillcolor="#fefbf9"] ;
152 -> 156 ;
157 [label=<morph &le; 8.0<br/>squared_error = 0.004<br/>samples = 2<br/>value = 0.955>, fillcolor="#fefaf7"] ;
151 -> 157 ;
158 [label=<squared_error = 0.0<br/>samples = 1<br/>value = 0.895>, fillcolor="#fefaf8"] ;
157 -> 158 ;
159 [label=<squared_error = 0.0<br/>samples = 1<br/>value = 1.015>, fillcolor="#fef9f6"] ;
157 -> 159 ;
160 [label=<morph &le; 6.0<br/>squared_error = 0.014<br/>samples = 5<br/>value = 1.475>, fillcolor="#fdf6f1"] ;
150 -> 160 ;
161 [label=<morph &le; 4.0<br/>squared_error = 0.002<br/>samples = 3<br/>value = 1.387>, fillcolor="#fdf7f2"] ;
160 -> 161 ;
162 [label=<morph &le; 2.0<br/>squared_error = 0.0<br/>samples = 2<br/>value = 1.356>, fillcolor="#fdf7f2"] ;
161 -> 162 ;
163 [label=<squared_error = 0.0<br/>samples = 1<br/>value = 1.345>, fillcolor="#fdf7f2"] ;
162 -> 163 ;
164 [label=<squared_error = 0.0<br/>samples = 1<br/>value = 1.367>, fillcolor="#fdf7f2"] ;
162 -> 164 ;
165 [label=<squared_error = 0.0<br/>samples = 1<br/>value = 1.449>, fillcolor="#fdf6f1"] ;
161 -> 165 ;
166 [label=<morph &le; 8.0<br/>squared_error = 0.004<br/>samples = 2<br/>value = 1.608>, fillcolor="#fdf5ef"] ;
160 -> 166 ;
167 [label=<squared_error = 0.0<br/>samples = 1<br/>value = 1.547>, fillcolor="#fdf5f0"] ;
166 -> 167 ;
168 [label=<squared_error = 0.0<br/>samples = 1<br/>value = 1.668>, fillcolor="#fdf5ef"] ;
166 -> 168 ;
169 [label=<threshold &le; 55.0<br/>squared_error = 0.019<br/>samples = 10<br/>value = 0.437>, fillcolor="#fffefd"] ;
149 -> 169 ;
170 [label=<morph &le; 8.0<br/>squared_error = 0.003<br/>samples = 5<br/>value = 0.347>, fillcolor="#fffefe"] ;
169 -> 170 ;
171 [label=<morph &le; 2.0<br/>squared_error = 0.001<br/>samples = 4<br/>value = 0.325>, fillcolor="#fffefe"] ;
170 -> 171 ;
172 [label=<squared_error = 0.0<br/>samples = 1<br/>value = 0.366>, fillcolor="#fffefe"] ;
171 -> 172 ;
173 [label=<morph &le; 6.0<br/>squared_error = 0.0<br/>samples = 3<br/>value = 0.311>, fillcolor="#fffffe"] ;
171 -> 173 ;
174 [label=<morph &le; 4.0<br/>squared_error = 0.0<br/>samples = 2<br/>value = 0.296>, fillcolor="#fffffe"] ;
173 -> 174 ;
175 [label=<squared_error = 0.0<br/>samples = 1<br/>value = 0.298>, fillcolor="#fffffe"] ;
174 -> 175 ;
176 [label=<squared_error = 0.0<br/>samples = 1<br/>value = 0.294>, fillcolor="#fffffe"] ;
174 -> 176 ;
177 [label=<squared_error = 0.0<br/>samples = 1<br/>value = 0.341>, fillcolor="#fffefe"] ;
173 -> 177 ;
178 [label=<squared_error = 0.0<br/>samples = 1<br/>value = 0.439>, fillcolor="#fffefd"] ;
170 -> 178 ;
179 [label=<morph &le; 6.0<br/>squared_error = 0.019<br/>samples = 5<br/>value = 0.527>, fillcolor="#fffdfc"] ;
169 -> 179 ;
180 [label=<morph &le; 4.0<br/>squared_error = 0.004<br/>samples = 3<br/>value = 0.426>, fillcolor="#fffefd"] ;
179 -> 180 ;
181 [label=<morph &le; 2.0<br/>squared_error = 0.0<br/>samples = 2<br/>value = 0.383>, fillcolor="#fffefd"] ;
180 -> 181 ;
182 [label=<squared_error = 0.0<br/>samples = 1<br/>value = 0.369>, fillcolor="#fffefe"] ;
181 -> 182 ;
183 [label=<squared_error = 0.0<br/>samples = 1<br/>value = 0.396>, fillcolor="#fffefd"] ;
181 -> 183 ;
184 [label=<squared_error = 0.0<br/>samples = 1<br/>value = 0.512>, fillcolor="#fffdfc"] ;
180 -> 184 ;
185 [label=<morph &le; 8.0<br/>squared_error = 0.004<br/>samples = 2<br/>value = 0.678>, fillcolor="#fefcfa"] ;
179 -> 185 ;
186 [label=<squared_error = 0.0<br/>samples = 1<br/>value = 0.613>, fillcolor="#fefcfb"] ;
185 -> 186 ;
187 [label=<squared_error = 0.0<br/>samples = 1<br/>value = 0.743>, fillcolor="#fefbf9"] ;
185 -> 187 ;
188 [label=<contrast &le; 1.75<br/>squared_error = 0.924<br/>samples = 40<br/>value = 1.485>, fillcolor="#fdf6f1"] ;
108 -> 188 ;
189 [label=<brightness &le; -95.0<br/>squared_error = 0.707<br/>samples = 20<br/>value = 2.165>, fillcolor="#fcf1e9"] ;
188 -> 189 ;
190 [label=<threshold &le; 75.0<br/>squared_error = 0.16<br/>samples = 10<br/>value = 1.469>, fillcolor="#fdf6f1"] ;
189 -> 190 ;
191 [label=<morph &le; 6.0<br/>squared_error = 0.02<br/>samples = 5<br/>value = 1.092>, fillcolor="#fef9f5"] ;
190 -> 191 ;
192 [label=<morph &le; 4.0<br/>squared_error = 0.004<br/>samples = 3<br/>value = 0.991>, fillcolor="#fefaf6"] ;
191 -> 192 ;
193 [label=<morph &le; 2.0<br/>squared_error = 0.001<br/>samples = 2<br/>value = 0.947>, fillcolor="#fefaf7"] ;
192 -> 193 ;
194 [label=<squared_error = 0.0<br/>samples = 1<br/>value = 0.92>, fillcolor="#fefaf7"] ;
193 -> 194 ;
195 [label=<squared_error = 0.0<br/>samples = 1<br/>value = 0.974>, fillcolor="#fefaf7"] ;
193 -> 195 ;
196 [label=<squared_error = 0.0<br/>samples = 1<br/>value = 1.078>, fillcolor="#fef9f5"] ;
192 -> 196 ;
197 [label=<morph &le; 8.0<br/>squared_error = 0.004<br/>samples = 2<br/>value = 1.243>, fillcolor="#fdf8f4"] ;
191 -> 197 ;
198 [label=<squared_error = 0.0<br/>samples = 1<br/>value = 1.18>, fillcolor="#fef8f4"] ;
197 -> 198 ;
199 [label=<squared_error = 0.0<br/>samples = 1<br/>value = 1.307>, fillcolor="#fdf7f3"] ;
197 -> 199 ;
200 [label=<morph &le; 6.0<br/>squared_error = 0.017<br/>samples = 5<br/>value = 1.846>, fillcolor="#fdf3ed"] ;
190 -> 200 ;
201 [label=<morph &le; 4.0<br/>squared_error = 0.002<br/>samples = 3<br/>value = 1.75>, fillcolor="#fdf4ee"] ;
200 -> 201 ;
202 [label=<morph &le; 2.0<br/>squared_error = 0.0<br/>samples = 2<br/>value = 1.716>, fillcolor="#fdf4ee"] ;
201 -> 202 ;
203 [label=<squared_error = 0.0<br/>samples = 1<br/>value = 1.703>, fillcolor="#fdf4ee"] ;
202 -> 203 ;
204 [label=<squared_error = 0.0<br/>samples = 1<br/>value = 1.729>, fillcolor="#fdf4ee"] ;
202 -> 204 ;
205 [label=<squared_error = 0.0<br/>samples = 1<br/>value = 1.817>, fillcolor="#fdf3ed"] ;
201 -> 205 ;
206 [label=<morph &le; 8.0<br/>squared_error = 0.004<br/>samples = 2<br/>value = 1.99>, fillcolor="#fcf2eb"] ;
200 -> 206 ;
207 [label=<squared_error = 0.0<br/>samples = 1<br/>value = 1.926>, fillcolor="#fcf3ec"] ;
206 -> 207 ;
208 [label=<squared_error = 0.0<br/>samples = 1<br/>value = 2.054>, fillcolor="#fcf2ea"] ;
206 -> 208 ;
209 [label=<threshold &le; 75.0<br/>squared_error = 0.283<br/>samples = 10<br/>value = 2.862>, fillcolor="#fbece1"] ;
189 -> 209 ;
210 [label=<morph &le; 6.0<br/>squared_error = 0.01<br/>samples = 5<br/>value = 2.336>, fillcolor="#fcf0e7"] ;
209 -> 210 ;
211 [label=<morph &le; 4.0<br/>squared_error = 0.001<br/>samples = 3<br/>value = 2.262>, fillcolor="#fcf0e8"] ;
210 -> 211 ;
212 [label=<morph &le; 2.0<br/>squared_error = 0.0<br/>samples = 2<br/>value = 2.241>, fillcolor="#fcf0e8"] ;
211 -> 212 ;
213 [label=<squared_error = 0.0<br/>samples = 1<br/>value = 2.239>, fillcolor="#fcf0e8"] ;
212 -> 213 ;
214 [label=<squared_error = 0.0<br/>samples = 1<br/>value = 2.242>, fillcolor="#fcf0e8"] ;
212 -> 214 ;
215 [label=<squared_error = 0.0<br/>samples = 1<br/>value = 2.304>, fillcolor="#fcf0e7"] ;
211 -> 215 ;
216 [label=<morph &le; 8.0<br/>squared_error = 0.003<br/>samples = 2<br/>value = 2.447>, fillcolor="#fcefe6"] ;
210 -> 216 ;
217 [label=<squared_error = 0.0<br/>samples = 1<br/>value = 2.392>, fillcolor="#fcefe6"] ;
216 -> 217 ;
218 [label=<squared_error = 0.0<br/>samples = 1<br/>value = 2.502>, fillcolor="#fceee5"] ;
216 -> 218 ;
219 [label=<morph &le; 8.0<br/>squared_error = 0.002<br/>samples = 5<br/>value = 3.388>, fillcolor="#fae8db"] ;
209 -> 219 ;
220 [label=<morph &le; 6.0<br/>squared_error = 0.0<br/>samples = 4<br/>value = 3.368>, fillcolor="#fae8db"] ;
219 -> 220 ;
221 [label=<morph &le; 2.0<br/>squared_error = 0.0<br/>samples = 3<br/>value = 3.359>, fillcolor="#fae8db"] ;
220 -> 221 ;
222 [label=<squared_error = 0.0<br/>samples = 1<br/>value = 3.381>, fillcolor="#fae8db"] ;
221 -> 222 ;
223 [label=<morph &le; 4.0<br/>squared_error = 0.0<br/>samples = 2<br/>value = 3.348>, fillcolor="#fae8db"] ;
221 -> 223 ;
224 [label=<squared_error = 0.0<br/>samples = 1<br/>value = 3.348>, fillcolor="#fae8db"] ;
223 -> 224 ;
225 [label=<squared_error = 0.0<br/>samples = 1<br/>value = 3.347>, fillcolor="#fae8db"] ;
223 -> 225 ;
226 [label=<squared_error = 0.0<br/>samples = 1<br/>value = 3.394>, fillcolor="#fae8db"] ;
220 -> 226 ;
227 [label=<squared_error = 0.0<br/>samples = 1<br/>value = 3.468>, fillcolor="#fae7da"] ;
219 -> 227 ;
228 [label=<brightness &le; -95.0<br/>squared_error = 0.215<br/>samples = 20<br/>value = 0.804>, fillcolor="#fefbf9"] ;
188 -> 228 ;
229 [label=<threshold &le; 75.0<br/>squared_error = 0.022<br/>samples = 10<br/>value = 0.401>, fillcolor="#fffefd"] ;
228 -> 229 ;
230 [label=<morph &le; 8.0<br/>squared_error = 0.004<br/>samples = 5<br/>value = 0.307>, fillcolor="#fffffe"] ;
229 -> 230 ;
231 [label=<morph &le; 6.0<br/>squared_error = 0.001<br/>samples = 4<br/>value = 0.279>, fillcolor="#ffffff"] ;
230 -> 231 ;
232 [label=<morph &le; 2.0<br/>squared_error = 0.0<br/>samples = 3<br/>value = 0.267>, fillcolor="#ffffff"] ;
231 -> 232 ;
233 [label=<squared_error = 0.0<br/>samples = 1<br/>value = 0.293>, fillcolor="#fffffe"] ;
232 -> 233 ;
234 [label=<morph &le; 4.0<br/>squared_error = 0.0<br/>samples = 2<br/>value = 0.253>, fillcolor="#ffffff"] ;
232 -> 234 ;
235 [label=<squared_error = 0.0<br/>samples = 1<br/>value = 0.246>, fillcolor="#ffffff"] ;
234 -> 235 ;
236 [label=<squared_error = 0.0<br/>samples = 1<br/>value = 0.26>, fillcolor="#ffffff"] ;
234 -> 236 ;
237 [label=<squared_error = 0.0<br/>samples = 1<br/>value = 0.316>, fillcolor="#fffefe"] ;
231 -> 237 ;
238 [label=<squared_error = 0.0<br/>samples = 1<br/>value = 0.421>, fillcolor="#fffefd"] ;
230 -> 238 ;
239 [label=<morph &le; 6.0<br/>squared_error = 0.024<br/>samples = 5<br/>value = 0.494>, fillcolor="#fffdfc"] ;
229 -> 239 ;
240 [label=<morph &le; 4.0<br/>squared_error = 0.005<br/>samples = 3<br/>value = 0.383>, fillcolor="#fffefd"] ;
239 -> 240 ;
241 [label=<morph &le; 2.0<br/>squared_error = 0.0<br/>samples = 2<br/>value = 0.334>, fillcolor="#fffefe"] ;
240 -> 241 ;
242 [label=<squared_error = 0.0<br/>samples = 1<br/>value = 0.312>, fillcolor="#fffffe"] ;
241 -> 242 ;
243 [label=<squared_error = 0.0<br/>samples = 1<br/>value = 0.356>, fillcolor="#fffefe"] ;
241 -> 243 ;
244 [label=<squared_error = 0.0<br/>samples = 1<br/>value = 0.481>, fillcolor="#fffdfc"] ;
240 -> 244 ;
245 [label=<morph &le; 8.0<br/>squared_error = 0.005<br/>samples = 2<br/>value = 0.662>, fillcolor="#fefcfa"] ;
239 -> 245 ;
246 [label=<squared_error = 0.0<br/>samples = 1<br/>value = 0.593>, fillcolor="#fefcfb"] ;
245 -> 246 ;
247 [label=<squared_error = 0.0<br/>samples = 1<br/>value = 0.731>, fillcolor="#fefbf9"] ;
245 -> 247 ;
248 [label=<threshold &le; 75.0<br/>squared_error = 0.081<br/>samples = 10<br/>value = 1.208>, fillcolor="#fef8f4"] ;
228 -> 248 ;
249 [label=<morph &le; 6.0<br/>squared_error = 0.017<br/>samples = 5<br/>value = 0.952>, fillcolor="#fefaf7"] ;
248 -> 249 ;
250 [label=<morph &le; 4.0<br/>squared_error = 0.004<br/>samples = 3<br/>value = 0.857>, fillcolor="#fefbf8"] ;
249 -> 250 ;
251 [label=<morph &le; 2.0<br/>squared_error = 0.0<br/>samples = 2<br/>value = 0.817>, fillcolor="#fefbf8"] ;
250 -> 251 ;
252 [label=<squared_error = 0.0<br/>samples = 1<br/>value = 0.798>, fillcolor="#fefbf9"] ;
251 -> 252 ;
253 [label=<squared_error = 0.0<br/>samples = 1<br/>value = 0.836>, fillcolor="#fefbf8"] ;
251 -> 253 ;
254 [label=<squared_error = 0.0<br/>samples = 1<br/>value = 0.938>, fillcolor="#fefaf7"] ;
250 -> 254 ;
255 [label=<morph &le; 8.0<br/>squared_error = 0.004<br/>samples = 2<br/>value = 1.093>, fillcolor="#fef9f5"] ;
249 -> 255 ;
256 [label=<squared_error = 0.0<br/>samples = 1<br/>value = 1.03>, fillcolor="#fef9f6"] ;
255 -> 256 ;
257 [label=<squared_error = 0.0<br/>samples = 1<br/>value = 1.157>, fillcolor="#fef8f5"] ;
255 -> 257 ;
258 [label=<morph &le; 6.0<br/>squared_error = 0.014<br/>samples = 5<br/>value = 1.464>, fillcolor="#fdf6f1"] ;
248 -> 258 ;
259 [label=<morph &le; 4.0<br/>squared_error = 0.002<br/>samples = 3<br/>value = 1.376>, fillcolor="#fdf7f2"] ;
258 -> 259 ;
260 [label=<morph &le; 2.0<br/>squared_error = 0.0<br/>samples = 2<br/>value = 1.344>, fillcolor="#fdf7f2"] ;
259 -> 260 ;
261 [label=<squared_error = 0.0<br/>samples = 1<br/>value = 1.332>, fillcolor="#fdf7f2"] ;
260 -> 261 ;
262 [label=<squared_error = 0.0<br/>samples = 1<br/>value = 1.357>, fillcolor="#fdf7f2"] ;
260 -> 262 ;
263 [label=<squared_error = 0.0<br/>samples = 1<br/>value = 1.438>, fillcolor="#fdf6f1"] ;
259 -> 263 ;
264 [label=<morph &le; 8.0<br/>squared_error = 0.004<br/>samples = 2<br/>value = 1.597>, fillcolor="#fdf5ef"] ;
258 -> 264 ;
265 [label=<squared_error = 0.0<br/>samples = 1<br/>value = 1.536>, fillcolor="#fdf6f0"] ;
264 -> 265 ;
266 [label=<squared_error = 0.0<br/>samples = 1<br/>value = 1.657>, fillcolor="#fdf5ef"] ;
264 -> 266 ;
267 [label=<threshold &le; 65.0<br/>squared_error = 1.508<br/>samples = 40<br/>value = 2.681>, fillcolor="#fbede3"] ;
107 -> 267 ;
268 [label=<contrast &le; 1.75<br/>squared_error = 0.495<br/>samples = 20<br/>value = 1.859>, fillcolor="#fdf3ec"] ;
267 -> 268 ;
269 [label=<threshold &le; 55.0<br/>squared_error = 0.258<br/>samples = 10<br/>value = 2.433>, fillcolor="#fcefe6"] ;
268 -> 269 ;
270 [label=<morph &le; 6.0<br/>squared_error = 0.008<br/>samples = 5<br/>value = 1.931>, fillcolor="#fcf3ec"] ;
269 -> 270 ;
271 [label=<morph &le; 4.0<br/>squared_error = 0.001<br/>samples = 3<br/>value = 1.865>, fillcolor="#fdf3ec"] ;
270 -> 271 ;
272 [label=<morph &le; 2.0<br/>squared_error = 0.0<br/>samples = 2<br/>value = 1.848>, fillcolor="#fdf3ed"] ;
271 -> 272 ;
273 [label=<squared_error = 0.0<br/>samples = 1<br/>value = 1.857>, fillcolor="#fdf3ec"] ;
272 -> 273 ;
274 [label=<squared_error = 0.0<br/>samples = 1<br/>value = 1.84>, fillcolor="#fdf3ed"] ;
272 -> 274 ;
275 [label=<squared_error = 0.0<br/>samples = 1<br/>value = 1.9>, fillcolor="#fcf3ec"] ;
271 -> 275 ;
276 [label=<morph &le; 8.0<br/>squared_error = 0.003<br/>samples = 2<br/>value = 2.029>, fillcolor="#fcf2ea"] ;
270 -> 276 ;
277 [label=<squared_error = 0.0<br/>samples = 1<br/>value = 1.975>, fillcolor="#fcf2eb"] ;
276 -> 277 ;
278 [label=<squared_error = 0.0<br/>samples = 1<br/>value = 2.082>, fillcolor="#fcf2ea"] ;
276 -> 278 ;
279 [label=<morph &le; 6.0<br/>squared_error = 0.003<br/>samples = 5<br/>value = 2.936>, fillcolor="#fbebe0"] ;
269 -> 279 ;
280 [label=<morph &le; 2.0<br/>squared_error = 0.0<br/>samples = 3<br/>value = 2.897>, fillcolor="#fbece0"] ;
279 -> 280 ;
281 [label=<squared_error = 0.0<br/>samples = 1<br/>value = 2.91>, fillcolor="#fbebe0"] ;
280 -> 281 ;
282 [label=<morph &le; 4.0<br/>squared_error = 0.0<br/>samples = 2<br/>value = 2.89>, fillcolor="#fbece1"] ;
280 -> 282 ;
283 [label=<squared_error = 0.0<br/>samples = 1<br/>value = 2.877>, fillcolor="#fbece1"] ;
282 -> 283 ;
284 [label=<squared_error = 0.0<br/>samples = 1<br/>value = 2.903>, fillcolor="#fbece0"] ;
282 -> 284 ;
285 [label=<morph &le; 8.0<br/>squared_error = 0.001<br/>samples = 2<br/>value = 2.994>, fillcolor="#fbebdf"] ;
279 -> 285 ;
286 [label=<squared_error = 0.0<br/>samples = 1<br/>value = 2.959>, fillcolor="#fbebe0"] ;
285 -> 286 ;
287 [label=<squared_error = 0.0<br/>samples = 1<br/>value = 3.029>, fillcolor="#fbebdf"] ;
285 -> 287 ;
288 [label=<threshold &le; 55.0<br/>squared_error = 0.071<br/>samples = 10<br/>value = 1.284>, fillcolor="#fdf7f3"] ;
268 -> 288 ;
289 [label=<morph &le; 6.0<br/>squared_error = 0.009<br/>samples = 5<br/>value = 1.034>, fillcolor="#fef9f6"] ;
288 -> 289 ;
290 [label=<morph &le; 4.0<br/>squared_error = 0.001<br/>samples = 3<br/>value = 0.964>, fillcolor="#fefaf7"] ;
289 -> 290 ;
291 [label=<morph &le; 2.0<br/>squared_error = 0.0<br/>samples = 2<br/>value = 0.938>, fillcolor="#fefaf7"] ;
290 -> 291 ;
292 [label=<squared_error = 0.0<br/>samples = 1<br/>value = 0.933>, fillcolor="#fefaf7"] ;
291 -> 292 ;
293 [label=<squared_error = 0.0<br/>samples = 1<br/>value = 0.943>, fillcolor="#fefaf7"] ;
291 -> 293 ;
294 [label=<squared_error = 0.0<br/>samples = 1<br/>value = 1.015>, fillcolor="#fef9f6"] ;
290 -> 294 ;
295 [label=<morph &le; 8.0<br/>squared_error = 0.003<br/>samples = 2<br/>value = 1.14>, fillcolor="#fef8f5"] ;
289 -> 295 ;
296 [label=<squared_error = 0.0<br/>samples = 1<br/>value = 1.088>, fillcolor="#fef9f5"] ;
295 -> 296 ;
297 [label=<squared_error = 0.0<br/>samples = 1<br/>value = 1.192>, fillcolor="#fef8f4"] ;
295 -> 297 ;
298 [label=<morph &le; 6.0<br/>squared_error = 0.008<br/>samples = 5<br/>value = 1.534>, fillcolor="#fdf6f0"] ;
288 -> 298 ;
299 [label=<morph &le; 4.0<br/>squared_error = 0.001<br/>samples = 3<br/>value = 1.467>, fillcolor="#fdf6f1"] ;
298 -> 299 ;
300 [label=<morph &le; 2.0<br/>squared_error = 0.0<br/>samples = 2<br/>value = 1.449>, fillcolor="#fdf6f1"] ;
299 -> 300 ;
301 [label=<squared_error = 0.0<br/>samples = 1<br/>value = 1.453>, fillcolor="#fdf6f1"] ;
300 -> 301 ;
302 [label=<squared_error = 0.0<br/>samples = 1<br/>value = 1.446>, fillcolor="#fdf6f1"] ;
300 -> 302 ;
303 [label=<squared_error = 0.0<br/>samples = 1<br/>value = 1.502>, fillcolor="#fdf6f1"] ;
299 -> 303 ;
304 [label=<morph &le; 8.0<br/>squared_error = 0.003<br/>samples = 2<br/>value = 1.635>, fillcolor="#fdf5ef"] ;
298 -> 304 ;
305 [label=<squared_error = 0.0<br/>samples = 1<br/>value = 1.583>, fillcolor="#fdf5f0"] ;
304 -> 305 ;
306 [label=<squared_error = 0.0<br/>samples = 1<br/>value = 1.688>, fillcolor="#fdf4ee"] ;
304 -> 306 ;
307 [label=<contrast &le; 1.75<br/>squared_error = 1.168<br/>samples = 20<br/>value = 3.504>, fillcolor="#fae7d9"] ;
267 -> 307 ;
308 [label=<threshold &le; 75.0<br/>squared_error = 0.283<br/>samples = 10<br/>value = 4.478>, fillcolor="#f9e0ce"] ;
307 -> 308 ;
309 [label=<morph &le; 2.0<br/>squared_error = 0.002<br/>samples = 5<br/>value = 3.951>, fillcolor="#f9e4d4"] ;
308 -> 309 ;
310 [label=<squared_error = 0.0<br/>samples = 1<br/>value = 4.016>, fillcolor="#f9e3d4"] ;
309 -> 310 ;
311 [label=<morph &le; 8.0<br/>squared_error = 0.001<br/>samples = 4<br/>value = 3.934>, fillcolor="#f9e4d5"] ;
309 -> 311 ;
312 [label=<morph &le; 4.0<br/>squared_error = 0.0<br/>samples = 3<br/>value = 3.922>, fillcolor="#f9e4d5"] ;
311 -> 312 ;
313 [label=<squared_error = 0.0<br/>samples = 1<br/>value = 3.939>, fillcolor="#f9e4d4"] ;
312 -> 313 ;
314 [label=<morph &le; 6.0<br/>squared_error = 0.0<br/>samples = 2<br/>value = 3.913>, fillcolor="#f9e4d5"] ;
312 -> 314 ;
315 [label=<squared_error = 0.0<br/>samples = 1<br/>value = 3.902>, fillcolor="#f9e4d5"] ;
314 -> 315 ;
316 [label=<squared_error = 0.0<br/>samples = 1<br/>value = 3.924>, fillcolor="#f9e4d5"] ;
314 -> 316 ;
317 [label=<squared_error = 0.0<br/>samples = 1<br/>value = 3.972>, fillcolor="#f9e4d4"] ;
311 -> 317 ;
318 [label=<morph &le; 4.0<br/>squared_error = 0.008<br/>samples = 5<br/>value = 5.006>, fillcolor="#f8dcc8"] ;
308 -> 318 ;
319 [label=<morph &le; 2.0<br/>squared_error = 0.003<br/>samples = 2<br/>value = 5.107>, fillcolor="#f8dbc7"] ;
318 -> 319 ;
320 [label=<squared_error = 0.0<br/>samples = 1<br/>value = 5.165>, fillcolor="#f8dbc6"] ;
319 -> 320 ;
321 [label=<squared_error = 0.0<br/>samples = 1<br/>value = 5.048>, fillcolor="#f8dcc8"] ;
319 -> 321 ;
322 [label=<morph &le; 6.0<br/>squared_error = 0.0<br/>samples = 3<br/>value = 4.939>, fillcolor="#f8ddc9"] ;
318 -> 322 ;
323 [label=<squared_error = 0.0<br/>samples = 1<br/>value = 4.952>, fillcolor="#f8ddc9"] ;
322 -> 323 ;
324 [label=<morph &le; 8.0<br/>squared_error = 0.0<br/>samples = 2<br/>value = 4.932>, fillcolor="#f8ddc9"] ;
322 -> 324 ;
325 [label=<squared_error = 0.0<br/>samples = 1<br/>value = 4.926>, fillcolor="#f8ddc9"] ;
324 -> 325 ;
326 [label=<squared_error = 0.0<br/>samples = 1<br/>value = 4.939>, fillcolor="#f8ddc9"] ;
324 -> 326 ;
327 [label=<threshold &le; 75.0<br/>squared_error = 0.153<br/>samples = 10<br/>value = 2.529>, fillcolor="#fceee5"] ;
307 -> 327 ;
328 [label=<morph &le; 6.0<br/>squared_error = 0.007<br/>samples = 5<br/>value = 2.144>, fillcolor="#fcf1e9"] ;
327 -> 328 ;
329 [label=<morph &le; 4.0<br/>squared_error = 0.0<br/>samples = 3<br/>value = 2.086>, fillcolor="#fcf2ea"] ;
328 -> 329 ;
330 [label=<morph &le; 2.0<br/>squared_error = 0.0<br/>samples = 2<br/>value = 2.074>, fillcolor="#fcf2ea"] ;
329 -> 330 ;
331 [label=<squared_error = 0.0<br/>samples = 1<br/>value = 2.084>, fillcolor="#fcf2ea"] ;
330 -> 331 ;
332 [label=<squared_error = 0.0<br/>samples = 1<br/>value = 2.065>, fillcolor="#fcf2ea"] ;
330 -> 332 ;
333 [label=<squared_error = 0.0<br/>samples = 1<br/>value = 2.11>, fillcolor="#fcf1ea"] ;
329 -> 333 ;
334 [label=<morph &le; 8.0<br/>squared_error = 0.003<br/>samples = 2<br/>value = 2.232>, fillcolor="#fcf0e8"] ;
328 -> 334 ;
335 [label=<squared_error = 0.0<br/>samples = 1<br/>value = 2.177>, fillcolor="#fcf1e9"] ;
334 -> 335 ;
336 [label=<squared_error = 0.0<br/>samples = 1<br/>value = 2.288>, fillcolor="#fcf0e7"] ;
334 -> 336 ;
337 [label=<morph &le; 6.0<br/>squared_error = 0.003<br/>samples = 5<br/>value = 2.914>, fillcolor="#fbebe0"] ;
327 -> 337 ;
338 [label=<morph &le; 2.0<br/>squared_error = 0.0<br/>samples = 3<br/>value = 2.875>, fillcolor="#fbece1"] ;
337 -> 338 ;
339 [label=<squared_error = 0.0<br/>samples = 1<br/>value = 2.888>, fillcolor="#fbece1"] ;
338 -> 339 ;
340 [label=<morph &le; 4.0<br/>squared_error = 0.0<br/>samples = 2<br/>value = 2.869>, fillcolor="#fbece1"] ;
338 -> 340 ;
341 [label=<squared_error = 0.0<br/>samples = 1<br/>value = 2.856>, fillcolor="#fbece1"] ;
340 -> 341 ;
342 [label=<squared_error = 0.0<br/>samples = 1<br/>value = 2.882>, fillcolor="#fbece1"] ;
340 -> 342 ;
343 [label=<morph &le; 8.0<br/>squared_error = 0.001<br/>samples = 2<br/>value = 2.972>, fillcolor="#fbebe0"] ;
337 -> 343 ;
344 [label=<squared_error = 0.0<br/>samples = 1<br/>value = 2.938>, fillcolor="#fbebe0"] ;
343 -> 344 ;
345 [label=<squared_error = 0.0<br/>samples = 1<br/>value = 3.006>, fillcolor="#fbebdf"] ;
343 -> 345 ;
346 [label=<threshold &le; 115.0<br/>squared_error = 0.897<br/>samples = 495<br/>value = 5.163>, fillcolor="#f8dbc6"] ;
2 -> 346 ;
347 [label=<contrast &le; 1.75<br/>squared_error = 2.12<br/>samples = 135<br/>value = 4.453>, fillcolor="#f9e0cf"] ;
346 -> 347 ;
348 [label=<brightness &le; -95.0<br/>squared_error = 0.526<br/>samples = 90<br/>value = 5.211>, fillcolor="#f7dbc6"] ;
347 -> 348 ;
349 [label=<contrast &le; 1.25<br/>squared_error = 1.034<br/>samples = 30<br/>value = 4.714>, fillcolor="#f8decc"] ;
348 -> 349 ;
350 [label=<morph &le; 2.0<br/>squared_error = 0.002<br/>samples = 15<br/>value = 5.532>, fillcolor="#f7d8c2"] ;
349 -> 350 ;
351 [label=<threshold &le; 105.0<br/>squared_error = 0.0<br/>samples = 3<br/>value = 5.617>, fillcolor="#f7d8c1"] ;
350 -> 351 ;
352 [label=<threshold &le; 95.0<br/>squared_error = 0.0<br/>samples = 2<br/>value = 5.627>, fillcolor="#f7d8c1"] ;
351 -> 352 ;
353 [label=<squared_error = 0.0<br/>samples = 1<br/>value = 5.637>, fillcolor="#f7d7c1"] ;
352 -> 353 ;
354 [label=<squared_error = 0.0<br/>samples = 1<br/>value = 5.617>, fillcolor="#f7d8c1"] ;
352 -> 354 ;
355 [label=<squared_error = 0.0<br/>samples = 1<br/>value = 5.596>, fillcolor="#f7d8c1"] ;
351 -> 355 ;
356 [label=<morph &le; 4.0<br/>squared_error = 0.0<br/>samples = 12<br/>value = 5.511>, fillcolor="#f7d8c2"] ;
350 -> 356 ;
357 [label=<threshold &le; 105.0<br/>squared_error = 0.0<br/>samples = 3<br/>value = 5.538>, fillcolor="#f7d8c2"] ;
356 -> 357 ;
358 [label=<threshold &le; 95.0<br/>squared_error = 0.0<br/>samples = 2<br/>value = 5.544>, fillcolor="#f7d8c2"] ;
357 -> 358 ;
359 [label=<squared_error = 0.0<br/>samples = 1<br/>value = 5.55>, fillcolor="#f7d8c2"] ;
358 -> 359 ;
360 [label=<squared_error = 0.0<br/>samples = 1<br/>value = 5.539>, fillcolor="#f7d8c2"] ;
358 -> 360 ;
361 [label=<squared_error = 0.0<br/>samples = 1<br/>value = 5.526>, fillcolor="#f7d8c2"] ;
357 -> 361 ;
362 [label=<morph &le; 6.0<br/>squared_error = 0.0<br/>samples = 9<br/>value = 5.501>, fillcolor="#f7d8c2"] ;
356 -> 362 ;
363 [label=<threshold &le; 105.0<br/>squared_error = 0.0<br/>samples = 3<br/>value = 5.502>, fillcolor="#f7d8c2"] ;
362 -> 363 ;
364 [label=<squared_error = 0.0<br/>samples = 2<br/>value = 5.502>, fillcolor="#f7d8c2"] ;
363 -> 364 ;
365 [label=<squared_error = 0.0<br/>samples = 1<br/>value = 5.501>, fillcolor="#f7d8c2"] ;
363 -> 365 ;
366 [label=<squared_error = 0.0<br/>samples = 6<br/>value = 5.501>, fillcolor="#f7d8c2"] ;
362 -> 366 ;
367 [label=<threshold &le; 105.0<br/>squared_error = 0.727<br/>samples = 15<br/>value = 3.896>, fillcolor="#f9e4d5"] ;
349 -> 367 ;
368 [label=<threshold &le; 95.0<br/>squared_error = 0.269<br/>samples = 10<br/>value = 3.372>, fillcolor="#fae8db"] ;
367 -> 368 ;
369 [label=<morph &le; 6.0<br/>squared_error = 0.009<br/>samples = 5<br/>value = 2.859>, fillcolor="#fbece1"] ;
368 -> 369 ;
370 [label=<morph &le; 4.0<br/>squared_error = 0.001<br/>samples = 3<br/>value = 2.787>, fillcolor="#fbece2"] ;
369 -> 370 ;
371 [label=<morph &le; 2.0<br/>squared_error = 0.0<br/>samples = 2<br/>value = 2.767>, fillcolor="#fbede2"] ;
370 -> 371 ;
372 [label=<squared_error = 0.0<br/>samples = 1<br/>value = 2.763>, fillcolor="#fbede2"] ;
371 -> 372 ;
373 [label=<squared_error = 0.0<br/>samples = 1<br/>value = 2.771>, fillcolor="#fbece2"] ;
371 -> 373 ;
374 [label=<squared_error = 0.0<br/>samples = 1<br/>value = 2.829>, fillcolor="#fbece1"] ;
370 -> 374 ;
375 [label=<morph &le; 8.0<br/>squared_error = 0.002<br/>samples = 2<br/>value = 2.967>, fillcolor="#fbebe0"] ;
369 -> 375 ;
376 [label=<squared_error = 0.0<br/>samples = 1<br/>value = 2.922>, fillcolor="#fbebe0"] ;
375 -> 376 ;
377 [label=<squared_error = 0.0<br/>samples = 1<br/>value = 3.011>, fillcolor="#fbebdf"] ;
375 -> 377 ;
378 [label=<morph &le; 6.0<br/>squared_error = 0.002<br/>samples = 5<br/>value = 3.885>, fillcolor="#f9e4d5"] ;
368 -> 378 ;
379 [label=<morph &le; 2.0<br/>squared_error = 0.0<br/>samples = 3<br/>value = 3.85>, fillcolor="#fae5d5"] ;
378 -> 379 ;
380 [label=<squared_error = 0.0<br/>samples = 1<br/>value = 3.869>, fillcolor="#fae4d5"] ;
379 -> 380 ;
381 [label=<morph &le; 4.0<br/>squared_error = 0.0<br/>samples = 2<br/>value = 3.84>, fillcolor="#fae5d6"] ;
379 -> 381 ;
382 [label=<squared_error = 0.0<br/>samples = 1<br/>value = 3.835>, fillcolor="#fae5d6"] ;
381 -> 382 ;
383 [label=<squared_error = 0.0<br/>samples = 1<br/>value = 3.845>, fillcolor="#fae5d6"] ;
381 -> 383 ;
384 [label=<morph &le; 8.0<br/>squared_error = 0.001<br/>samples = 2<br/>value = 3.938>, fillcolor="#f9e4d4"] ;
378 -> 384 ;
385 [label=<squared_error = 0.0<br/>samples = 1<br/>value = 3.906>, fillcolor="#f9e4d5"] ;
384 -> 385 ;
386 [label=<squared_error = 0.0<br/>samples = 1<br/>value = 3.97>, fillcolor="#f9e4d4"] ;
384 -> 386 ;
387 [label=<morph &le; 2.0<br/>squared_error = 0.001<br/>samples = 5<br/>value = 4.942>, fillcolor="#f8ddc9"] ;
367 -> 387 ;
388 [label=<squared_error = 0.0<br/>samples = 1<br/>value = 5.013>, fillcolor="#f8dcc8"] ;
387 -> 388 ;
389 [label=<morph &le; 4.0<br/>squared_error = 0.0<br/>samples = 4<br/>value = 4.924>, fillcolor="#f8ddc9"] ;
387 -> 389 ;
390 [label=<squared_error = 0.0<br/>samples = 1<br/>value = 4.94>, fillcolor="#f8ddc9"] ;
389 -> 390 ;
391 [label=<morph &le; 8.0<br/>squared_error = 0.0<br/>samples = 3<br/>value = 4.919>, fillcolor="#f8ddc9"] ;
389 -> 391 ;
392 [label=<morph &le; 6.0<br/>squared_error = 0.0<br/>samples = 2<br/>value = 4.909>, fillcolor="#f8ddc9"] ;
391 -> 392 ;
393 [label=<squared_error = 0.0<br/>samples = 1<br/>value = 4.903>, fillcolor="#f8ddc9"] ;
392 -> 393 ;
394 [label=<squared_error = 0.0<br/>samples = 1<br/>value = 4.916>, fillcolor="#f8ddc9"] ;
392 -> 394 ;
395 [label=<squared_error = 0.0<br/>samples = 1<br/>value = 4.939>, fillcolor="#f8ddc9"] ;
391 -> 395 ;
396 [label=<threshold &le; 95.0<br/>squared_error = 0.087<br/>samples = 60<br/>value = 5.46>, fillcolor="#f7d9c3"] ;
348 -> 396 ;
397 [label=<brightness &le; -85.0<br/>squared_error = 0.21<br/>samples = 20<br/>value = 5.305>, fillcolor="#f7dac5"] ;
396 -> 397 ;
398 [label=<contrast &le; 1.25<br/>squared_error = 0.264<br/>samples = 10<br/>value = 5.033>, fillcolor="#f8dcc8"] ;
397 -> 398 ;
399 [label=<morph &le; 2.0<br/>squared_error = 0.004<br/>samples = 5<br/>value = 5.544>, fillcolor="#f7d8c2"] ;
398 -> 399 ;
400 [label=<squared_error = 0.0<br/>samples = 1<br/>value = 5.654>, fillcolor="#f7d7c1"] ;
399 -> 400 ;
401 [label=<morph &le; 4.0<br/>squared_error = 0.001<br/>samples = 4<br/>value = 5.517>, fillcolor="#f7d8c2"] ;
399 -> 401 ;
402 [label=<squared_error = 0.0<br/>samples = 1<br/>value = 5.563>, fillcolor="#f7d8c2"] ;
401 -> 402 ;
403 [label=<morph &le; 6.0<br/>squared_error = 0.0<br/>samples = 3<br/>value = 5.501>, fillcolor="#f7d8c2"] ;
401 -> 403 ;
404 [label=<squared_error = 0.0<br/>samples = 1<br/>value = 5.502>, fillcolor="#f7d8c2"] ;
403 -> 404 ;
405 [label=<squared_error = 0.0<br/>samples = 2<br/>value = 5.501>, fillcolor="#f7d8c2"] ;
403 -> 405 ;
406 [label=<morph &le; 2.0<br/>squared_error = 0.001<br/>samples = 5<br/>value = 4.522>, fillcolor="#f9e0ce"] ;
398 -> 406 ;
407 [label=<squared_error = 0.0<br/>samples = 1<br/>value = 4.578>, fillcolor="#f8dfcd"] ;
406 -> 407 ;
408 [label=<morph &le; 8.0<br/>squared_error = 0.001<br/>samples = 4<br/>value = 4.509>, fillcolor="#f9e0ce"] ;
406 -> 408 ;
409 [label=<morph &le; 4.0<br/>squared_error = 0.0<br/>samples = 3<br/>value = 4.497>, fillcolor="#f9e0ce"] ;
408 -> 409 ;
410 [label=<squared_error = 0.0<br/>samples = 1<br/>value = 4.51>, fillcolor="#f9e0ce"] ;
409 -> 410 ;
411 [label=<morph &le; 6.0<br/>squared_error = 0.0<br/>samples = 2<br/>value = 4.49>, fillcolor="#f9e0ce"] ;
409 -> 411 ;
412 [label=<squared_error = 0.0<br/>samples = 1<br/>value = 4.475>, fillcolor="#f9e0ce"] ;
411 -> 412 ;
413 [label=<squared_error = 0.0<br/>samples = 1<br/>value = 4.504>, fillcolor="#f9e0ce"] ;
411 -> 413 ;
414 [label=<squared_error = 0.0<br/>samples = 1<br/>value = 4.545>, fillcolor="#f8dfcd"] ;
408 -> 414 ;
415 [label=<morph &le; 4.0<br/>squared_error = 0.01<br/>samples = 10<br/>value = 5.576>, fillcolor="#f7d8c2"] ;
397 -> 415 ;
416 [label=<morph &le; 2.0<br/>squared_error = 0.006<br/>samples = 4<br/>value = 5.68>, fillcolor="#f7d7c0"] ;
415 -> 416 ;
417 [label=<contrast &le; 1.25<br/>squared_error = 0.003<br/>samples = 2<br/>value = 5.739>, fillcolor="#f7d7c0"] ;
416 -> 417 ;
418 [label=<squared_error = 0.0<br/>samples = 1<br/>value = 5.68>, fillcolor="#f7d7c0"] ;
417 -> 418 ;
419 [label=<squared_error = 0.0<br/>samples = 1<br/>value = 5.797>, fillcolor="#f7d6bf"] ;
417 -> 419 ;
420 [label=<contrast &le; 1.25<br/>squared_error = 0.002<br/>samples = 2<br/>value = 5.622>, fillcolor="#f7d8c1"] ;
416 -> 420 ;
421 [label=<squared_error = 0.0<br/>samples = 1<br/>value = 5.578>, fillcolor="#f7d8c2"] ;
420 -> 421 ;
422 [label=<squared_error = 0.0<br/>samples = 1<br/>value = 5.666>, fillcolor="#f7d7c1"] ;
420 -> 422 ;
423 [label=<morph &le; 6.0<br/>squared_error = 0.0<br/>samples = 6<br/>value = 5.507>, fillcolor="#f7d8c2"] ;
415 -> 423 ;
424 [label=<contrast &le; 1.25<br/>squared_error = 0.0<br/>samples = 2<br/>value = 5.518>, fillcolor="#f7d8c2"] ;
423 -> 424 ;
425 [label=<squared_error = 0.0<br/>samples = 1<br/>value = 5.502>, fillcolor="#f7d8c2"] ;
424 -> 425 ;
426 [label=<squared_error = 0.0<br/>samples = 1<br/>value = 5.534>, fillcolor="#f7d8c2"] ;
424 -> 426 ;
427 [label=<morph &le; 8.0<br/>squared_error = 0.0<br/>samples = 4<br/>value = 5.502>, fillcolor="#f7d8c2"] ;
423 -> 427 ;
428 [label=<contrast &le; 1.25<br/>squared_error = 0.0<br/>samples = 2<br/>value = 5.502>, fillcolor="#f7d8c2"] ;
427 -> 428 ;
429 [label=<squared_error = 0.0<br/>samples = 1<br/>value = 5.501>, fillcolor="#f7d8c2"] ;
428 -> 429 ;
430 [label=<squared_error = 0.0<br/>samples = 1<br/>value = 5.504>, fillcolor="#f7d8c2"] ;
428 -> 430 ;
431 [label=<squared_error = 0.0<br/>samples = 2<br/>value = 5.501>, fillcolor="#f7d8c2"] ;
427 -> 431 ;
432 [label=<morph &le; 2.0<br/>squared_error = 0.007<br/>samples = 40<br/>value = 5.537>, fillcolor="#f7d8c2"] ;
396 -> 432 ;
433 [label=<brightness &le; -85.0<br/>squared_error = 0.004<br/>samples = 8<br/>value = 5.663>, fillcolor="#f7d7c1"] ;
432 -> 433 ;
434 [label=<threshold &le; 105.0<br/>squared_error = 0.003<br/>samples = 4<br/>value = 5.627>, fillcolor="#f7d8c1"] ;
433 -> 434 ;
435 [label=<contrast &le; 1.25<br/>squared_error = 0.002<br/>samples = 2<br/>value = 5.593>, fillcolor="#f7d8c1"] ;
434 -> 435 ;
436 [label=<squared_error = 0.0<br/>samples = 1<br/>value = 5.637>, fillcolor="#f7d7c1"] ;
435 -> 436 ;
437 [label=<squared_error = 0.0<br/>samples = 1<br/>value = 5.55>, fillcolor="#f7d8c2"] ;
435 -> 437 ;
438 [label=<contrast &le; 1.25<br/>squared_error = 0.002<br/>samples = 2<br/>value = 5.66>, fillcolor="#f7d7c1"] ;
434 -> 438 ;
439 [label=<squared_error = 0.0<br/>samples = 1<br/>value = 5.617>, fillcolor="#f7d8c1"] ;
438 -> 439 ;
440 [label=<squared_error = 0.0<br/>samples = 1<br/>value = 5.702>, fillcolor="#f7d7c0"] ;
438 -> 440 ;
441 [label=<contrast &le; 1.25<br/>squared_error = 0.003<br/>samples = 4<br/>value = 5.699>, fillcolor="#f7d7c0"] ;
433 -> 441 ;
442 [label=<threshold &le; 105.0<br/>squared_error = 0.0<br/>samples = 2<br/>value = 5.646>, fillcolor="#f7d7c1"] ;
441 -> 442 ;
443 [label=<squared_error = 0.0<br/>samples = 1<br/>value = 5.654>, fillcolor="#f7d7c1"] ;
442 -> 443 ;
444 [label=<squared_error = 0.0<br/>samples = 1<br/>value = 5.637>, fillcolor="#f7d7c1"] ;
442 -> 444 ;
445 [label=<threshold &le; 105.0<br/>squared_error = 0.0<br/>samples = 2<br/>value = 5.752>, fillcolor="#f7d7c0"] ;
441 -> 445 ;
446 [label=<squared_error = 0.0<br/>samples = 1<br/>value = 5.766>, fillcolor="#f7d7bf"] ;
445 -> 446 ;
447 [label=<squared_error = 0.0<br/>samples = 1<br/>value = 5.739>, fillcolor="#f7d7c0"] ;
445 -> 447 ;
448 [label=<morph &le; 4.0<br/>squared_error = 0.003<br/>samples = 32<br/>value = 5.506>, fillcolor="#f7d8c2"] ;
432 -> 448 ;
449 [label=<brightness &le; -85.0<br/>squared_error = 0.003<br/>samples = 8<br/>value = 5.563>, fillcolor="#f7d8c2"] ;
448 -> 449 ;
450 [label=<threshold &le; 105.0<br/>squared_error = 0.003<br/>samples = 4<br/>value = 5.533>, fillcolor="#f7d8c2"] ;
449 -> 450 ;
451 [label=<contrast &le; 1.25<br/>squared_error = 0.003<br/>samples = 2<br/>value = 5.499>, fillcolor="#f7d8c2"] ;
450 -> 451 ;
452 [label=<squared_error = 0.0<br/>samples = 1<br/>value = 5.55>, fillcolor="#f7d8c2"] ;
451 -> 452 ;
453 [label=<squared_error = 0.0<br/>samples = 1<br/>value = 5.447>, fillcolor="#f7d9c3"] ;
451 -> 453 ;
454 [label=<contrast &le; 1.25<br/>squared_error = 0.001<br/>samples = 2<br/>value = 5.566>, fillcolor="#f7d8c2"] ;
450 -> 454 ;
455 [label=<squared_error = 0.0<br/>samples = 1<br/>value = 5.539>, fillcolor="#f7d8c2"] ;
454 -> 455 ;
456 [label=<squared_error = 0.0<br/>samples = 1<br/>value = 5.594>, fillcolor="#f7d8c1"] ;
454 -> 456 ;
457 [label=<contrast &le; 1.25<br/>squared_error = 0.001<br/>samples = 4<br/>value = 5.594>, fillcolor="#f7d8c1"] ;
449 -> 457 ;
458 [label=<threshold &le; 105.0<br/>squared_error = 0.0<br/>samples = 2<br/>value = 5.556>, fillcolor="#f7d8c2"] ;
457 -> 458 ;
459 [label=<squared_error = 0.0<br/>samples = 1<br/>value = 5.563>, fillcolor="#f7d8c2"] ;
458 -> 459 ;
460 [label=<squared_error = 0.0<br/>samples = 1<br/>value = 5.55>, fillcolor="#f7d8c2"] ;
458 -> 460 ;
461 [label=<threshold &le; 105.0<br/>squared_error = 0.0<br/>samples = 2<br/>value = 5.631>, fillcolor="#f7d8c1"] ;
457 -> 461 ;
462 [label=<squared_error = 0.0<br/>samples = 1<br/>value = 5.641>, fillcolor="#f7d7c1"] ;
461 -> 462 ;
463 [label=<squared_error = 0.0<br/>samples = 1<br/>value = 5.621>, fillcolor="#f7d8c1"] ;
461 -> 463 ;
464 [label=<brightness &le; -85.0<br/>squared_error = 0.002<br/>samples = 24<br/>value = 5.486>, fillcolor="#f7d9c3"] ;
448 -> 464 ;
465 [label=<threshold &le; 105.0<br/>squared_error = 0.003<br/>samples = 12<br/>value = 5.47>, fillcolor="#f7d9c3"] ;
464 -> 465 ;
466 [label=<contrast &le; 1.25<br/>squared_error = 0.004<br/>samples = 6<br/>value = 5.438>, fillcolor="#f7d9c3"] ;
465 -> 466 ;
467 [label=<morph &le; 6.0<br/>squared_error = 0.0<br/>samples = 3<br/>value = 5.501>, fillcolor="#f7d8c2"] ;
466 -> 467 ;
468 [label=<squared_error = 0.0<br/>samples = 1<br/>value = 5.502>, fillcolor="#f7d8c2"] ;
467 -> 468 ;
469 [label=<squared_error = 0.0<br/>samples = 2<br/>value = 5.501>, fillcolor="#f7d8c2"] ;
467 -> 469 ;
470 [label=<morph &le; 8.0<br/>squared_error = 0.0<br/>samples = 3<br/>value = 5.375>, fillcolor="#f7d9c4"] ;
466 -> 470 ;
471 [label=<morph &le; 6.0<br/>squared_error = 0.0<br/>samples = 2<br/>value = 5.368>, fillcolor="#f7d9c4"] ;
470 -> 471 ;
472 [label=<squared_error = 0.0<br/>samples = 1<br/>value = 5.36>, fillcolor="#f7dac4"] ;
471 -> 472 ;
473 [label=<squared_error = 0.0<br/>samples = 1<br/>value = 5.375>, fillcolor="#f7d9c4"] ;
471 -> 473 ;
474 [label=<squared_error = 0.0<br/>samples = 1<br/>value = 5.389>, fillcolor="#f7d9c4"] ;
470 -> 474 ;
475 [label=<morph &le; 6.0<br/>squared_error = 0.0<br/>samples = 6<br/>value = 5.502>, fillcolor="#f7d8c2"] ;
465 -> 475 ;
476 [label=<contrast &le; 1.25<br/>squared_error = 0.0<br/>samples = 2<br/>value = 5.502>, fillcolor="#f7d8c2"] ;
475 -> 476 ;
477 [label=<squared_error = 0.0<br/>samples = 1<br/>value = 5.502>, fillcolor="#f7d8c2"] ;
476 -> 477 ;
478 [label=<squared_error = 0.0<br/>samples = 1<br/>value = 5.503>, fillcolor="#f7d8c2"] ;
476 -> 478 ;
479 [label=<squared_error = 0.0<br/>samples = 4<br/>value = 5.501>, fillcolor="#f7d8c2"] ;
475 -> 479 ;
480 [label=<morph &le; 6.0<br/>squared_error = 0.0<br/>samples = 12<br/>value = 5.503>, fillcolor="#f7d8c2"] ;
464 -> 480 ;
481 [label=<contrast &le; 1.25<br/>squared_error = 0.0<br/>samples = 4<br/>value = 5.507>, fillcolor="#f7d8c2"] ;
480 -> 481 ;
482 [label=<threshold &le; 105.0<br/>squared_error = 0.0<br/>samples = 2<br/>value = 5.502>, fillcolor="#f7d8c2"] ;
481 -> 482 ;
483 [label=<squared_error = 0.0<br/>samples = 1<br/>value = 5.502>, fillcolor="#f7d8c2"] ;
482 -> 483 ;
484 [label=<squared_error = 0.0<br/>samples = 1<br/>value = 5.502>, fillcolor="#f7d8c2"] ;
482 -> 484 ;
485 [label=<threshold &le; 105.0<br/>squared_error = 0.0<br/>samples = 2<br/>value = 5.512>, fillcolor="#f7d8c2"] ;
481 -> 485 ;
486 [label=<squared_error = 0.0<br/>samples = 1<br/>value = 5.518>, fillcolor="#f7d8c2"] ;
485 -> 486 ;
487 [label=<squared_error = 0.0<br/>samples = 1<br/>value = 5.507>, fillcolor="#f7d8c2"] ;
485 -> 487 ;
488 [label=<squared_error = 0.0<br/>samples = 8<br/>value = 5.501>, fillcolor="#f7d8c2"] ;
480 -> 488 ;
489 [label=<brightness &le; -85.0<br/>squared_error = 1.86<br/>samples = 45<br/>value = 2.937>, fillcolor="#fbebe0"] ;
347 -> 489 ;
490 [label=<brightness &le; -95.0<br/>squared_error = 0.788<br/>samples = 30<br/>value = 2.164>, fillcolor="#fcf1e9"] ;
489 -> 490 ;
491 [label=<threshold &le; 105.0<br/>squared_error = 0.234<br/>samples = 15<br/>value = 1.476>, fillcolor="#fdf6f1"] ;
490 -> 491 ;
492 [label=<threshold &le; 95.0<br/>squared_error = 0.086<br/>samples = 10<br/>value = 1.183>, fillcolor="#fef8f4"] ;
491 -> 492 ;
493 [label=<morph &le; 6.0<br/>squared_error = 0.021<br/>samples = 5<br/>value = 0.926>, fillcolor="#fefaf7"] ;
492 -> 493 ;
494 [label=<morph &le; 4.0<br/>squared_error = 0.005<br/>samples = 3<br/>value = 0.82>, fillcolor="#fefbf8"] ;
493 -> 494 ;
495 [label=<morph &le; 2.0<br/>squared_error = 0.001<br/>samples = 2<br/>value = 0.774>, fillcolor="#fefbf9"] ;
494 -> 495 ;
496 [label=<squared_error = 0.0<br/>samples = 1<br/>value = 0.748>, fillcolor="#fefbf9"] ;
495 -> 496 ;
497 [label=<squared_error = 0.0<br/>samples = 1<br/>value = 0.801>, fillcolor="#fefbf9"] ;
495 -> 497 ;
498 [label=<squared_error = 0.0<br/>samples = 1<br/>value = 0.912>, fillcolor="#fefaf7"] ;
494 -> 498 ;
499 [label=<morph &le; 8.0<br/>squared_error = 0.005<br/>samples = 2<br/>value = 1.084>, fillcolor="#fef9f5"] ;
493 -> 499 ;
500 [label=<squared_error = 0.0<br/>samples = 1<br/>value = 1.016>, fillcolor="#fef9f6"] ;
499 -> 500 ;
501 [label=<squared_error = 0.0<br/>samples = 1<br/>value = 1.152>, fillcolor="#fef8f5"] ;
499 -> 501 ;
502 [label=<morph &le; 6.0<br/>squared_error = 0.018<br/>samples = 5<br/>value = 1.441>, fillcolor="#fdf6f1"] ;
492 -> 502 ;
503 [label=<morph &le; 4.0<br/>squared_error = 0.003<br/>samples = 3<br/>value = 1.342>, fillcolor="#fdf7f2"] ;
502 -> 503 ;
504 [label=<morph &le; 2.0<br/>squared_error = 0.0<br/>samples = 2<br/>value = 1.306>, fillcolor="#fdf7f3"] ;
503 -> 504 ;
505 [label=<squared_error = 0.0<br/>samples = 1<br/>value = 1.287>, fillcolor="#fdf7f3"] ;
504 -> 505 ;
506 [label=<squared_error = 0.0<br/>samples = 1<br/>value = 1.325>, fillcolor="#fdf7f3"] ;
504 -> 506 ;
507 [label=<squared_error = 0.0<br/>samples = 1<br/>value = 1.413>, fillcolor="#fdf6f2"] ;
503 -> 507 ;
508 [label=<morph &le; 8.0<br/>squared_error = 0.004<br/>samples = 2<br/>value = 1.59>, fillcolor="#fdf5f0"] ;
502 -> 508 ;
509 [label=<squared_error = 0.0<br/>samples = 1<br/>value = 1.526>, fillcolor="#fdf6f0"] ;
508 -> 509 ;
510 [label=<squared_error = 0.0<br/>samples = 1<br/>value = 1.654>, fillcolor="#fdf5ef"] ;
508 -> 510 ;
511 [label=<morph &le; 6.0<br/>squared_error = 0.014<br/>samples = 5<br/>value = 2.062>, fillcolor="#fcf2ea"] ;
491 -> 511 ;
512 [label=<morph &le; 4.0<br/>squared_error = 0.002<br/>samples = 3<br/>value = 1.974>, fillcolor="#fcf2eb"] ;
511 -> 512 ;
513 [label=<morph &le; 2.0<br/>squared_error = 0.0<br/>samples = 2<br/>value = 1.945>, fillcolor="#fcf3eb"] ;
512 -> 513 ;
514 [label=<squared_error = 0.0<br/>samples = 1<br/>value = 1.933>, fillcolor="#fcf3ec"] ;
513 -> 514 ;
515 [label=<squared_error = 0.0<br/>samples = 1<br/>value = 1.957>, fillcolor="#fcf2eb"] ;
513 -> 515 ;
516 [label=<squared_error = 0.0<br/>samples = 1<br/>value = 2.031>, fillcolor="#fcf2ea"] ;
512 -> 516 ;
517 [label=<morph &le; 8.0<br/>squared_error = 0.004<br/>samples = 2<br/>value = 2.195>, fillcolor="#fcf1e9"] ;
511 -> 517 ;
518 [label=<squared_error = 0.0<br/>samples = 1<br/>value = 2.13>, fillcolor="#fcf1e9"] ;
517 -> 518 ;
519 [label=<squared_error = 0.0<br/>samples = 1<br/>value = 2.26>, fillcolor="#fcf0e8"] ;
517 -> 519 ;
520 [label=<threshold &le; 95.0<br/>squared_error = 0.397<br/>samples = 15<br/>value = 2.851>, fillcolor="#fbece1"] ;
490 -> 520 ;
521 [label=<morph &le; 6.0<br/>squared_error = 0.011<br/>samples = 5<br/>value = 2.083>, fillcolor="#fcf2ea"] ;
520 -> 521 ;
522 [label=<morph &le; 4.0<br/>squared_error = 0.001<br/>samples = 3<br/>value = 2.006>, fillcolor="#fcf2eb"] ;
521 -> 522 ;
523 [label=<morph &le; 2.0<br/>squared_error = 0.0<br/>samples = 2<br/>value = 1.982>, fillcolor="#fcf2eb"] ;
522 -> 523 ;
524 [label=<squared_error = 0.0<br/>samples = 1<br/>value = 1.976>, fillcolor="#fcf2eb"] ;
523 -> 524 ;
525 [label=<squared_error = 0.0<br/>samples = 1<br/>value = 1.988>, fillcolor="#fcf2eb"] ;
523 -> 525 ;
526 [label=<squared_error = 0.0<br/>samples = 1<br/>value = 2.055>, fillcolor="#fcf2ea"] ;
522 -> 526 ;
527 [label=<morph &le; 8.0<br/>squared_error = 0.004<br/>samples = 2<br/>value = 2.199>, fillcolor="#fcf1e9"] ;
521 -> 527 ;
528 [label=<squared_error = 0.0<br/>samples = 1<br/>value = 2.136>, fillcolor="#fcf1e9"] ;
527 -> 528 ;
529 [label=<squared_error = 0.0<br/>samples = 1<br/>value = 2.262>, fillcolor="#fcf0e8"] ;
527 -> 529 ;
530 [label=<threshold &le; 105.0<br/>squared_error = 0.147<br/>samples = 10<br/>value = 3.235>, fillcolor="#fae9dd"] ;
520 -> 530 ;
531 [label=<morph &le; 6.0<br/>squared_error = 0.006<br/>samples = 5<br/>value = 2.857>, fillcolor="#fbece1"] ;
530 -> 531 ;
532 [label=<morph &le; 4.0<br/>squared_error = 0.0<br/>samples = 3<br/>value = 2.798>, fillcolor="#fbece2"] ;
531 -> 532 ;
533 [label=<morph &le; 2.0<br/>squared_error = 0.0<br/>samples = 2<br/>value = 2.784>, fillcolor="#fbece2"] ;
532 -> 533 ;
534 [label=<squared_error = 0.0<br/>samples = 1<br/>value = 2.785>, fillcolor="#fbece2"] ;
533 -> 534 ;
535 [label=<squared_error = 0.0<br/>samples = 1<br/>value = 2.784>, fillcolor="#fbece2"] ;
533 -> 535 ;
536 [label=<squared_error = 0.0<br/>samples = 1<br/>value = 2.825>, fillcolor="#fbece1"] ;
532 -> 536 ;
537 [label=<morph &le; 8.0<br/>squared_error = 0.002<br/>samples = 2<br/>value = 2.945>, fillcolor="#fbebe0"] ;
531 -> 537 ;
538 [label=<squared_error = 0.0<br/>samples = 1<br/>value = 2.903>, fillcolor="#fbece0"] ;
537 -> 538 ;
539 [label=<squared_error = 0.0<br/>samples = 1<br/>value = 2.987>, fillcolor="#fbebdf"] ;
537 -> 539 ;
540 [label=<morph &le; 8.0<br/>squared_error = 0.001<br/>samples = 5<br/>value = 3.614>, fillcolor="#fae6d8"] ;
530 -> 540 ;
541 [label=<morph &le; 2.0<br/>squared_error = 0.0<br/>samples = 4<br/>value = 3.598>, fillcolor="#fae6d8"] ;
540 -> 541 ;
542 [label=<squared_error = 0.0<br/>samples = 1<br/>value = 3.627>, fillcolor="#fae6d8"] ;
541 -> 542 ;
543 [label=<morph &le; 6.0<br/>squared_error = 0.0<br/>samples = 3<br/>value = 3.588>, fillcolor="#fae7d9"] ;
541 -> 543 ;
544 [label=<morph &le; 4.0<br/>squared_error = 0.0<br/>samples = 2<br/>value = 3.577>, fillcolor="#fae7d9"] ;
543 -> 544 ;
545 [label=<squared_error = 0.0<br/>samples = 1<br/>value = 3.584>, fillcolor="#fae7d9"] ;
544 -> 545 ;
546 [label=<squared_error = 0.0<br/>samples = 1<br/>value = 3.57>, fillcolor="#fae7d9"] ;
544 -> 546 ;
547 [label=<squared_error = 0.0<br/>samples = 1<br/>value = 3.61>, fillcolor="#fae6d8"] ;
543 -> 547 ;
548 [label=<squared_error = 0.0<br/>samples = 1<br/>value = 3.678>, fillcolor="#fae6d7"] ;
540 -> 548 ;
549 [label=<threshold &le; 95.0<br/>squared_error = 0.415<br/>samples = 15<br/>value = 4.484>, fillcolor="#f9e0ce"] ;
489 -> 549 ;
550 [label=<morph &le; 2.0<br/>squared_error = 0.001<br/>samples = 5<br/>value = 3.662>, fillcolor="#fae6d8"] ;
549 -> 550 ;
551 [label=<squared_error = 0.0<br/>samples = 1<br/>value = 3.725>, fillcolor="#fae5d7"] ;
550 -> 551 ;
552 [label=<morph &le; 8.0<br/>squared_error = 0.001<br/>samples = 4<br/>value = 3.646>, fillcolor="#fae6d8"] ;
550 -> 552 ;
553 [label=<morph &le; 4.0<br/>squared_error = 0.0<br/>samples = 3<br/>value = 3.634>, fillcolor="#fae6d8"] ;
552 -> 553 ;
554 [label=<squared_error = 0.0<br/>samples = 1<br/>value = 3.653>, fillcolor="#fae6d8"] ;
553 -> 554 ;
555 [label=<morph &le; 6.0<br/>squared_error = 0.0<br/>samples = 2<br/>value = 3.624>, fillcolor="#fae6d8"] ;
553 -> 555 ;
556 [label=<squared_error = 0.0<br/>samples = 1<br/>value = 3.619>, fillcolor="#fae6d8"] ;
555 -> 556 ;
557 [label=<squared_error = 0.0<br/>samples = 1<br/>value = 3.63>, fillcolor="#fae6d8"] ;
555 -> 557 ;
558 [label=<squared_error = 0.0<br/>samples = 1<br/>value = 3.684>, fillcolor="#fae6d7"] ;
552 -> 558 ;
559 [label=<threshold &le; 105.0<br/>squared_error = 0.115<br/>samples = 10<br/>value = 4.895>, fillcolor="#f8ddc9"] ;
549 -> 559 ;
560 [label=<morph &le; 2.0<br/>squared_error = 0.003<br/>samples = 5<br/>value = 4.566>, fillcolor="#f8dfcd"] ;
559 -> 560 ;
561 [label=<squared_error = 0.0<br/>samples = 1<br/>value = 4.675>, fillcolor="#f8dfcc"] ;
560 -> 561 ;
562 [label=<morph &le; 4.0<br/>squared_error = 0.001<br/>samples = 4<br/>value = 4.538>, fillcolor="#f9e0ce"] ;
560 -> 562 ;
563 [label=<squared_error = 0.0<br/>samples = 1<br/>value = 4.576>, fillcolor="#f8dfcd"] ;
562 -> 563 ;
564 [label=<morph &le; 8.0<br/>squared_error = 0.0<br/>samples = 3<br/>value = 4.526>, fillcolor="#f9e0ce"] ;
562 -> 564 ;
565 [label=<morph &le; 6.0<br/>squared_error = 0.0<br/>samples = 2<br/>value = 4.517>, fillcolor="#f9e0ce"] ;
564 -> 565 ;
566 [label=<squared_error = 0.0<br/>samples = 1<br/>value = 4.519>, fillcolor="#f9e0ce"] ;
565 -> 566 ;
567 [label=<squared_error = 0.0<br/>samples = 1<br/>value = 4.516>, fillcolor="#f9e0ce"] ;
565 -> 567 ;
568 [label=<squared_error = 0.0<br/>samples = 1<br/>value = 4.542>, fillcolor="#f9e0ce"] ;
564 -> 568 ;
569 [label=<morph &le; 4.0<br/>squared_error = 0.009<br/>samples = 5<br/>value = 5.224>, fillcolor="#f7dbc6"] ;
559 -> 569 ;
570 [label=<morph &le; 2.0<br/>squared_error = 0.004<br/>samples = 2<br/>value = 5.332>, fillcolor="#f7dac4"] ;
569 -> 570 ;
571 [label=<squared_error = 0.0<br/>samples = 1<br/>value = 5.393>, fillcolor="#f7d9c4"] ;
570 -> 571 ;
572 [label=<squared_error = 0.0<br/>samples = 1<br/>value = 5.27>, fillcolor="#f7dac5"] ;
570 -> 572 ;
573 [label=<morph &le; 6.0<br/>squared_error = 0.0<br/>samples = 3<br/>value = 5.152>, fillcolor="#f8dbc6"] ;
569 -> 573 ;
574 [label=<squared_error = 0.0<br/>samples = 1<br/>value = 5.167>, fillcolor="#f8dbc6"] ;
573 -> 574 ;
575 [label=<morph &le; 8.0<br/>squared_error = 0.0<br/>samples = 2<br/>value = 5.145>, fillcolor="#f8dbc7"] ;
573 -> 575 ;
576 [label=<squared_error = 0.0<br/>samples = 1<br/>value = 5.142>, fillcolor="#f8dbc7"] ;
575 -> 576 ;
577 [label=<squared_error = 0.0<br/>samples = 1<br/>value = 5.149>, fillcolor="#f8dbc7"] ;
575 -> 577 ;
578 [label=<contrast &le; 1.75<br/>squared_error = 0.178<br/>samples = 360<br/>value = 5.429>, fillcolor="#f7d9c3"] ;
346 -> 578 ;
579 [label=<morph &le; 2.0<br/>squared_error = 0.002<br/>samples = 240<br/>value = 5.522>, fillcolor="#f7d8c2"] ;
578 -> 579 ;
580 [label=<contrast &le; 1.25<br/>squared_error = 0.004<br/>samples = 48<br/>value = 5.58>, fillcolor="#f7d8c2"] ;
579 -> 580 ;
581 [label=<threshold &le; 145.0<br/>squared_error = 0.001<br/>samples = 24<br/>value = 5.53>, fillcolor="#f7d8c2"] ;
580 -> 581 ;
582 [label=<brightness &le; -95.0<br/>squared_error = 0.001<br/>samples = 9<br/>value = 5.57>, fillcolor="#f7d8c2"] ;
581 -> 582 ;
583 [label=<threshold &le; 125.0<br/>squared_error = 0.0<br/>samples = 3<br/>value = 5.545>, fillcolor="#f7d8c2"] ;
582 -> 583 ;
584 [label=<squared_error = 0.0<br/>samples = 1<br/>value = 5.569>, fillcolor="#f7d8c2"] ;
583 -> 584 ;
585 [label=<threshold &le; 135.0<br/>squared_error = 0.0<br/>samples = 2<br/>value = 5.533>, fillcolor="#f7d8c2"] ;
583 -> 585 ;
586 [label=<squared_error = 0.0<br/>samples = 1<br/>value = 5.545>, fillcolor="#f7d8c2"] ;
585 -> 586 ;
587 [label=<squared_error = 0.0<br/>samples = 1<br/>value = 5.522>, fillcolor="#f7d8c2"] ;
585 -> 587 ;
588 [label=<threshold &le; 135.0<br/>squared_error = 0.001<br/>samples = 6<br/>value = 5.582>, fillcolor="#f7d8c2"] ;
582 -> 588 ;
589 [label=<threshold &le; 125.0<br/>squared_error = 0.0<br/>samples = 4<br/>value = 5.594>, fillcolor="#f7d8c1"] ;
588 -> 589 ;
590 [label=<brightness &le; -85.0<br/>squared_error = 0.0<br/>samples = 2<br/>value = 5.607>, fillcolor="#f7d8c1"] ;
589 -> 590 ;
591 [label=<squared_error = 0.0<br/>samples = 1<br/>value = 5.596>, fillcolor="#f7d8c1"] ;
590 -> 591 ;
592 [label=<squared_error = 0.0<br/>samples = 1<br/>value = 5.617>, fillcolor="#f7d8c1"] ;
590 -> 592 ;
593 [label=<brightness &le; -85.0<br/>squared_error = 0.0<br/>samples = 2<br/>value = 5.582>, fillcolor="#f7d8c2"] ;
589 -> 593 ;
594 [label=<squared_error = 0.0<br/>samples = 1<br/>value = 5.569>, fillcolor="#f7d8c2"] ;
593 -> 594 ;
595 [label=<squared_error = 0.0<br/>samples = 1<br/>value = 5.596>, fillcolor="#f7d8c1"] ;
593 -> 595 ;
596 [label=<brightness &le; -85.0<br/>squared_error = 0.0<br/>samples = 2<br/>value = 5.557>, fillcolor="#f7d8c2"] ;
588 -> 596 ;
597 [label=<squared_error = 0.0<br/>samples = 1<br/>value = 5.545>, fillcolor="#f7d8c2"] ;
596 -> 597 ;
598 [label=<squared_error = 0.0<br/>samples = 1<br/>value = 5.569>, fillcolor="#f7d8c2"] ;
596 -> 598 ;
599 [label=<threshold &le; 155.0<br/>squared_error = 0.0<br/>samples = 15<br/>value = 5.507>, fillcolor="#f7d8c2"] ;
581 -> 599 ;
600 [label=<brightness &le; -85.0<br/>squared_error = 0.0<br/>samples = 3<br/>value = 5.523>, fillcolor="#f7d8c2"] ;
599 -> 600 ;
601 [label=<brightness &le; -95.0<br/>squared_error = 0.0<br/>samples = 2<br/>value = 5.512>, fillcolor="#f7d8c2"] ;
600 -> 601 ;
602 [label=<squared_error = 0.0<br/>samples = 1<br/>value = 5.502>, fillcolor="#f7d8c2"] ;
601 -> 602 ;
603 [label=<squared_error = 0.0<br/>samples = 1<br/>value = 5.522>, fillcolor="#f7d8c2"] ;
601 -> 603 ;
604 [label=<squared_error = 0.0<br/>samples = 1<br/>value = 5.545>, fillcolor="#f7d8c2"] ;
600 -> 604 ;
605 [label=<threshold &le; 165.0<br/>squared_error = 0.0<br/>samples = 12<br/>value = 5.503>, fillcolor="#f7d8c2"] ;
599 -> 605 ;
606 [label=<brightness &le; -85.0<br/>squared_error = 0.0<br/>samples = 3<br/>value = 5.508>, fillcolor="#f7d8c2"] ;
605 -> 606 ;
607 [label=<brightness &le; -95.0<br/>squared_error = 0.0<br/>samples = 2<br/>value = 5.501>, fillcolor="#f7d8c2"] ;
606 -> 607 ;
608 [label=<squared_error = 0.0<br/>samples = 1<br/>value = 5.501>, fillcolor="#f7d8c2"] ;
607 -> 608 ;
609 [label=<squared_error = 0.0<br/>samples = 1<br/>value = 5.502>, fillcolor="#f7d8c2"] ;
607 -> 609 ;
610 [label=<squared_error = 0.0<br/>samples = 1<br/>value = 5.522>, fillcolor="#f7d8c2"] ;
606 -> 610 ;
611 [label=<threshold &le; 175.0<br/>squared_error = 0.0<br/>samples = 9<br/>value = 5.501>, fillcolor="#f7d8c2"] ;
605 -> 611 ;
612 [label=<brightness &le; -85.0<br/>squared_error = 0.0<br/>samples = 3<br/>value = 5.501>, fillcolor="#f7d8c2"] ;
611 -> 612 ;
613 [label=<squared_error = 0.0<br/>samples = 2<br/>value = 5.501>, fillcolor="#f7d8c2"] ;
612 -> 613 ;
614 [label=<squared_error = 0.0<br/>samples = 1<br/>value = 5.502>, fillcolor="#f7d8c2"] ;
612 -> 614 ;
615 [label=<squared_error = 0.0<br/>samples = 6<br/>value = 5.501>, fillcolor="#f7d8c2"] ;
611 -> 615 ;
616 [label=<threshold &le; 155.0<br/>squared_error = 0.001<br/>samples = 24<br/>value = 5.63>, fillcolor="#f7d8c1"] ;
580 -> 616 ;
617 [label=<brightness &le; -85.0<br/>squared_error = 0.001<br/>samples = 12<br/>value = 5.658>, fillcolor="#f7d7c1"] ;
616 -> 617 ;
618 [label=<threshold &le; 135.0<br/>squared_error = 0.0<br/>samples = 8<br/>value = 5.646>, fillcolor="#f7d7c1"] ;
617 -> 618 ;
619 [label=<brightness &le; -95.0<br/>squared_error = 0.0<br/>samples = 4<br/>value = 5.659>, fillcolor="#f7d7c1"] ;
618 -> 619 ;
620 [label=<threshold &le; 125.0<br/>squared_error = 0.0<br/>samples = 2<br/>value = 5.646>, fillcolor="#f7d7c1"] ;
619 -> 620 ;
621 [label=<squared_error = 0.0<br/>samples = 1<br/>value = 5.649>, fillcolor="#f7d7c1"] ;
620 -> 621 ;
622 [label=<squared_error = 0.0<br/>samples = 1<br/>value = 5.643>, fillcolor="#f7d7c1"] ;
620 -> 622 ;
623 [label=<threshold &le; 125.0<br/>squared_error = 0.0<br/>samples = 2<br/>value = 5.672>, fillcolor="#f7d7c0"] ;
619 -> 623 ;
624 [label=<squared_error = 0.0<br/>samples = 1<br/>value = 5.68>, fillcolor="#f7d7c0"] ;
623 -> 624 ;
625 [label=<squared_error = 0.0<br/>samples = 1<br/>value = 5.663>, fillcolor="#f7d7c1"] ;
623 -> 625 ;
626 [label=<brightness &le; -95.0<br/>squared_error = 0.0<br/>samples = 4<br/>value = 5.634>, fillcolor="#f7d8c1"] ;
618 -> 626 ;
627 [label=<threshold &le; 145.0<br/>squared_error = 0.0<br/>samples = 2<br/>value = 5.624>, fillcolor="#f7d8c1"] ;
626 -> 627 ;
628 [label=<squared_error = 0.0<br/>samples = 1<br/>value = 5.631>, fillcolor="#f7d8c1"] ;
627 -> 628 ;
629 [label=<squared_error = 0.0<br/>samples = 1<br/>value = 5.618>, fillcolor="#f7d8c1"] ;
627 -> 629 ;
630 [label=<threshold &le; 145.0<br/>squared_error = 0.0<br/>samples = 2<br/>value = 5.643>, fillcolor="#f7d7c1"] ;
626 -> 630 ;
631 [label=<squared_error = 0.0<br/>samples = 1<br/>value = 5.648>, fillcolor="#f7d7c1"] ;
630 -> 631 ;
632 [label=<squared_error = 0.0<br/>samples = 1<br/>value = 5.637>, fillcolor="#f7d7c1"] ;
630 -> 632 ;
633 [label=<threshold &le; 135.0<br/>squared_error = 0.0<br/>samples = 4<br/>value = 5.683>, fillcolor="#f7d7c0"] ;
617 -> 633 ;
634 [label=<threshold &le; 125.0<br/>squared_error = 0.0<br/>samples = 2<br/>value = 5.703>, fillcolor="#f7d7c0"] ;
633 -> 634 ;
635 [label=<squared_error = 0.0<br/>samples = 1<br/>value = 5.714>, fillcolor="#f7d7c0"] ;
634 -> 635 ;
636 [label=<squared_error = 0.0<br/>samples = 1<br/>value = 5.691>, fillcolor="#f7d7c0"] ;
634 -> 636 ;
637 [label=<threshold &le; 145.0<br/>squared_error = 0.0<br/>samples = 2<br/>value = 5.663>, fillcolor="#f7d7c1"] ;
633 -> 637 ;
638 [label=<squared_error = 0.0<br/>samples = 1<br/>value = 5.671>, fillcolor="#f7d7c1"] ;
637 -> 638 ;
639 [label=<squared_error = 0.0<br/>samples = 1<br/>value = 5.655>, fillcolor="#f7d7c1"] ;
637 -> 639 ;
640 [label=<brightness &le; -95.0<br/>squared_error = 0.001<br/>samples = 12<br/>value = 5.602>, fillcolor="#f7d8c1"] ;
616 -> 640 ;
641 [label=<threshold &le; 175.0<br/>squared_error = 0.0<br/>samples = 4<br/>value = 5.579>, fillcolor="#f7d8c2"] ;
640 -> 641 ;
642 [label=<threshold &le; 165.0<br/>squared_error = 0.0<br/>samples = 2<br/>value = 5.596>, fillcolor="#f7d8c1"] ;
641 -> 642 ;
643 [label=<squared_error = 0.0<br/>samples = 1<br/>value = 5.604>, fillcolor="#f7d8c1"] ;
642 -> 643 ;
644 [label=<squared_error = 0.0<br/>samples = 1<br/>value = 5.588>, fillcolor="#f7d8c1"] ;
642 -> 644 ;
645 [label=<threshold &le; 185.0<br/>squared_error = 0.0<br/>samples = 2<br/>value = 5.561>, fillcolor="#f7d8c2"] ;
641 -> 645 ;
646 [label=<squared_error = 0.0<br/>samples = 1<br/>value = 5.57>, fillcolor="#f7d8c2"] ;
645 -> 646 ;
647 [label=<squared_error = 0.0<br/>samples = 1<br/>value = 5.553>, fillcolor="#f7d8c2"] ;
645 -> 647 ;
648 [label=<threshold &le; 175.0<br/>squared_error = 0.0<br/>samples = 8<br/>value = 5.613>, fillcolor="#f7d8c1"] ;
640 -> 648 ;
649 [label=<brightness &le; -85.0<br/>squared_error = 0.0<br/>samples = 4<br/>value = 5.627>, fillcolor="#f7d8c1"] ;
648 -> 649 ;
650 [label=<threshold &le; 165.0<br/>squared_error = 0.0<br/>samples = 2<br/>value = 5.618>, fillcolor="#f7d8c1"] ;
649 -> 650 ;
651 [label=<squared_error = 0.0<br/>samples = 1<br/>value = 5.624>, fillcolor="#f7d8c1"] ;
650 -> 651 ;
652 [label=<squared_error = 0.0<br/>samples = 1<br/>value = 5.612>, fillcolor="#f7d8c1"] ;
650 -> 652 ;
653 [label=<threshold &le; 165.0<br/>squared_error = 0.0<br/>samples = 2<br/>value = 5.637>, fillcolor="#f7d7c1"] ;
649 -> 653 ;
654 [label=<squared_error = 0.0<br/>samples = 1<br/>value = 5.643>, fillcolor="#f7d7c1"] ;
653 -> 654 ;
655 [label=<squared_error = 0.0<br/>samples = 1<br/>value = 5.631>, fillcolor="#f7d8c1"] ;
653 -> 655 ;
656 [label=<brightness &le; -85.0<br/>squared_error = 0.0<br/>samples = 4<br/>value = 5.599>, fillcolor="#f7d8c1"] ;
648 -> 656 ;
657 [label=<threshold &le; 185.0<br/>squared_error = 0.0<br/>samples = 2<br/>value = 5.587>, fillcolor="#f7d8c1"] ;
656 -> 657 ;
658 [label=<squared_error = 0.0<br/>samples = 1<br/>value = 5.596>, fillcolor="#f7d8c1"] ;
657 -> 658 ;
659 [label=<squared_error = 0.0<br/>samples = 1<br/>value = 5.579>, fillcolor="#f7d8c2"] ;
657 -> 659 ;
660 [label=<threshold &le; 185.0<br/>squared_error = 0.0<br/>samples = 2<br/>value = 5.611>, fillcolor="#f7d8c1"] ;
656 -> 660 ;
661 [label=<squared_error = 0.0<br/>samples = 1<br/>value = 5.618>, fillcolor="#f7d8c1"] ;
660 -> 661 ;
662 [label=<squared_error = 0.0<br/>samples = 1<br/>value = 5.604>, fillcolor="#f7d8c1"] ;
660 -> 662 ;
663 [label=<morph &le; 4.0<br/>squared_error = 0.0<br/>samples = 192<br/>value = 5.508>, fillcolor="#f7d8c2"] ;
579 -> 663 ;
664 [label=<contrast &le; 1.25<br/>squared_error = 0.001<br/>samples = 48<br/>value = 5.527>, fillcolor="#f7d8c2"] ;
663 -> 664 ;
665 [label=<threshold &le; 135.0<br/>squared_error = 0.0<br/>samples = 24<br/>value = 5.506>, fillcolor="#f7d8c2"] ;
664 -> 665 ;
666 [label=<brightness &le; -85.0<br/>squared_error = 0.0<br/>samples = 6<br/>value = 5.519>, fillcolor="#f7d8c2"] ;
665 -> 666 ;
667 [label=<brightness &le; -95.0<br/>squared_error = 0.0<br/>samples = 4<br/>value = 5.513>, fillcolor="#f7d8c2"] ;
666 -> 667 ;
668 [label=<threshold &le; 125.0<br/>squared_error = 0.0<br/>samples = 2<br/>value = 5.507>, fillcolor="#f7d8c2"] ;
667 -> 668 ;
669 [label=<squared_error = 0.0<br/>samples = 1<br/>value = 5.511>, fillcolor="#f7d8c2"] ;
668 -> 669 ;
670 [label=<squared_error = 0.0<br/>samples = 1<br/>value = 5.503>, fillcolor="#f7d8c2"] ;
668 -> 670 ;
671 [label=<threshold &le; 125.0<br/>squared_error = 0.0<br/>samples = 2<br/>value = 5.519>, fillcolor="#f7d8c2"] ;
667 -> 671 ;
672 [label=<squared_error = 0.0<br/>samples = 1<br/>value = 5.526>, fillcolor="#f7d8c2"] ;
671 -> 672 ;
673 [label=<squared_error = 0.0<br/>samples = 1<br/>value = 5.511>, fillcolor="#f7d8c2"] ;
671 -> 673 ;
674 [label=<threshold &le; 125.0<br/>squared_error = 0.0<br/>samples = 2<br/>value = 5.533>, fillcolor="#f7d8c2"] ;
666 -> 674 ;
675 [label=<squared_error = 0.0<br/>samples = 1<br/>value = 5.539>, fillcolor="#f7d8c2"] ;
674 -> 675 ;
676 [label=<squared_error = 0.0<br/>samples = 1<br/>value = 5.526>, fillcolor="#f7d8c2"] ;
674 -> 676 ;
677 [label=<threshold &le; 145.0<br/>squared_error = 0.0<br/>samples = 18<br/>value = 5.502>, fillcolor="#f7d8c2"] ;
665 -> 677 ;
678 [label=<brightness &le; -85.0<br/>squared_error = 0.0<br/>samples = 3<br/>value = 5.505>, fillcolor="#f7d8c2"] ;
677 -> 678 ;
679 [label=<brightness &le; -95.0<br/>squared_error = 0.0<br/>samples = 2<br/>value = 5.502>, fillcolor="#f7d8c2"] ;
678 -> 679 ;
680 [label=<squared_error = 0.0<br/>samples = 1<br/>value = 5.501>, fillcolor="#f7d8c2"] ;
679 -> 680 ;
681 [label=<squared_error = 0.0<br/>samples = 1<br/>value = 5.503>, fillcolor="#f7d8c2"] ;
679 -> 681 ;
682 [label=<squared_error = 0.0<br/>samples = 1<br/>value = 5.511>, fillcolor="#f7d8c2"] ;
678 -> 682 ;
683 [label=<threshold &le; 155.0<br/>squared_error = 0.0<br/>samples = 15<br/>value = 5.501>, fillcolor="#f7d8c2"] ;
677 -> 683 ;
684 [label=<brightness &le; -85.0<br/>squared_error = 0.0<br/>samples = 3<br/>value = 5.502>, fillcolor="#f7d8c2"] ;
683 -> 684 ;
685 [label=<squared_error = 0.0<br/>samples = 2<br/>value = 5.501>, fillcolor="#f7d8c2"] ;
684 -> 685 ;
686 [label=<squared_error = 0.0<br/>samples = 1<br/>value = 5.503>, fillcolor="#f7d8c2"] ;
684 -> 686 ;
687 [label=<squared_error = 0.0<br/>samples = 12<br/>value = 5.501>, fillcolor="#f7d8c2"] ;
683 -> 687 ;
688 [label=<threshold &le; 155.0<br/>squared_error = 0.001<br/>samples = 24<br/>value = 5.548>, fillcolor="#f7d8c2"] ;
664 -> 688 ;
689 [label=<brightness &le; -85.0<br/>squared_error = 0.0<br/>samples = 12<br/>value = 5.565>, fillcolor="#f7d8c2"] ;
688 -> 689 ;
690 [label=<threshold &le; 135.0<br/>squared_error = 0.0<br/>samples = 8<br/>value = 5.557>, fillcolor="#f7d8c2"] ;
689 -> 690 ;
691 [label=<brightness &le; -95.0<br/>squared_error = 0.0<br/>samples = 4<br/>value = 5.566>, fillcolor="#f7d8c2"] ;
690 -> 691 ;
692 [label=<threshold &le; 125.0<br/>squared_error = 0.0<br/>samples = 2<br/>value = 5.558>, fillcolor="#f7d8c2"] ;
691 -> 692 ;
693 [label=<squared_error = 0.0<br/>samples = 1<br/>value = 5.562>, fillcolor="#f7d8c2"] ;
692 -> 693 ;
694 [label=<squared_error = 0.0<br/>samples = 1<br/>value = 5.554>, fillcolor="#f7d8c2"] ;
692 -> 694 ;
695 [label=<threshold &le; 125.0<br/>squared_error = 0.0<br/>samples = 2<br/>value = 5.573>, fillcolor="#f7d8c2"] ;
691 -> 695 ;
696 [label=<squared_error = 0.0<br/>samples = 1<br/>value = 5.578>, fillcolor="#f7d8c2"] ;
695 -> 696 ;
697 [label=<squared_error = 0.0<br/>samples = 1<br/>value = 5.568>, fillcolor="#f7d8c2"] ;
695 -> 697 ;
698 [label=<brightness &le; -95.0<br/>squared_error = 0.0<br/>samples = 4<br/>value = 5.549>, fillcolor="#f7d8c2"] ;
690 -> 698 ;
699 [label=<threshold &le; 145.0<br/>squared_error = 0.0<br/>samples = 2<br/>value = 5.543>, fillcolor="#f7d8c2"] ;
698 -> 699 ;
700 [label=<squared_error = 0.0<br/>samples = 1<br/>value = 5.547>, fillcolor="#f7d8c2"] ;
699 -> 700 ;
701 [label=<squared_error = 0.0<br/>samples = 1<br/>value = 5.539>, fillcolor="#f7d8c2"] ;
699 -> 701 ;
702 [label=<threshold &le; 145.0<br/>squared_error = 0.0<br/>samples = 2<br/>value = 5.554>, fillcolor="#f7d8c2"] ;
698 -> 702 ;
703 [label=<squared_error = 0.0<br/>samples = 1<br/>value = 5.559>, fillcolor="#f7d8c2"] ;
702 -> 703 ;
704 [label=<squared_error = 0.0<br/>samples = 1<br/>value = 5.55>, fillcolor="#f7d8c2"] ;
702 -> 704 ;
705 [label=<threshold &le; 135.0<br/>squared_error = 0.0<br/>samples = 4<br/>value = 5.581>, fillcolor="#f7d8c2"] ;
689 -> 705 ;
706 [label=<threshold &le; 125.0<br/>squared_error = 0.0<br/>samples = 2<br/>value = 5.594>, fillcolor="#f7d8c1"] ;
705 -> 706 ;
707 [label=<squared_error = 0.0<br/>samples = 1<br/>value = 5.602>, fillcolor="#f7d8c1"] ;
706 -> 707 ;
708 [label=<squared_error = 0.0<br/>samples = 1<br/>value = 5.586>, fillcolor="#f7d8c1"] ;
706 -> 708 ;
709 [label=<threshold &le; 145.0<br/>squared_error = 0.0<br/>samples = 2<br/>value = 5.568>, fillcolor="#f7d8c2"] ;
705 -> 709 ;
710 [label=<squared_error = 0.0<br/>samples = 1<br/>value = 5.573>, fillcolor="#f7d8c2"] ;
709 -> 710 ;
711 [label=<squared_error = 0.0<br/>samples = 1<br/>value = 5.563>, fillcolor="#f7d8c2"] ;
709 -> 711 ;
712 [label=<brightness &le; -95.0<br/>squared_error = 0.0<br/>samples = 12<br/>value = 5.53>, fillcolor="#f7d8c2"] ;
688 -> 712 ;
713 [label=<threshold &le; 175.0<br/>squared_error = 0.0<br/>samples = 4<br/>value = 5.518>, fillcolor="#f7d8c2"] ;
712 -> 713 ;
714 [label=<threshold &le; 165.0<br/>squared_error = 0.0<br/>samples = 2<br/>value = 5.527>, fillcolor="#f7d8c2"] ;
713 -> 714 ;
715 [label=<squared_error = 0.0<br/>samples = 1<br/>value = 5.532>, fillcolor="#f7d8c2"] ;
714 -> 715 ;
716 [label=<squared_error = 0.0<br/>samples = 1<br/>value = 5.522>, fillcolor="#f7d8c2"] ;
714 -> 716 ;
717 [label=<threshold &le; 185.0<br/>squared_error = 0.0<br/>samples = 2<br/>value = 5.508>, fillcolor="#f7d8c2"] ;
713 -> 717 ;
718 [label=<squared_error = 0.0<br/>samples = 1<br/>value = 5.511>, fillcolor="#f7d8c2"] ;
717 -> 718 ;
719 [label=<squared_error = 0.0<br/>samples = 1<br/>value = 5.505>, fillcolor="#f7d8c2"] ;
717 -> 719 ;
720 [label=<threshold &le; 175.0<br/>squared_error = 0.0<br/>samples = 8<br/>value = 5.537>, fillcolor="#f7d8c2"] ;
712 -> 720 ;
721 [label=<brightness &le; -85.0<br/>squared_error = 0.0<br/>samples = 4<br/>value = 5.545>, fillcolor="#f7d8c2"] ;
720 -> 721 ;
722 [label=<threshold &le; 165.0<br/>squared_error = 0.0<br/>samples = 2<br/>value = 5.539>, fillcolor="#f7d8c2"] ;
721 -> 722 ;
723 [label=<squared_error = 0.0<br/>samples = 1<br/>value = 5.543>, fillcolor="#f7d8c2"] ;
722 -> 723 ;
724 [label=<squared_error = 0.0<br/>samples = 1<br/>value = 5.535>, fillcolor="#f7d8c2"] ;
722 -> 724 ;
725 [label=<threshold &le; 165.0<br/>squared_error = 0.0<br/>samples = 2<br/>value = 5.551>, fillcolor="#f7d8c2"] ;
721 -> 725 ;
726 [label=<squared_error = 0.0<br/>samples = 1<br/>value = 5.554>, fillcolor="#f7d8c2"] ;
725 -> 726 ;
727 [label=<squared_error = 0.0<br/>samples = 1<br/>value = 5.547>, fillcolor="#f7d8c2"] ;
725 -> 727 ;
728 [label=<brightness &le; -85.0<br/>squared_error = 0.0<br/>samples = 4<br/>value = 5.529>, fillcolor="#f7d8c2"] ;
720 -> 728 ;
729 [label=<threshold &le; 185.0<br/>squared_error = 0.0<br/>samples = 2<br/>value = 5.522>, fillcolor="#f7d8c2"] ;
728 -> 729 ;
730 [label=<squared_error = 0.0<br/>samples = 1<br/>value = 5.527>, fillcolor="#f7d8c2"] ;
729 -> 730 ;
731 [label=<squared_error = 0.0<br/>samples = 1<br/>value = 5.517>, fillcolor="#f7d8c2"] ;
729 -> 731 ;
732 [label=<threshold &le; 185.0<br/>squared_error = 0.0<br/>samples = 2<br/>value = 5.535>, fillcolor="#f7d8c2"] ;
728 -> 732 ;
733 [label=<squared_error = 0.0<br/>samples = 1<br/>value = 5.539>, fillcolor="#f7d8c2"] ;
732 -> 733 ;
734 [label=<squared_error = 0.0<br/>samples = 1<br/>value = 5.532>, fillcolor="#f7d8c2"] ;
732 -> 734 ;
735 [label=<morph &le; 6.0<br/>squared_error = 0.0<br/>samples = 144<br/>value = 5.501>, fillcolor="#f7d8c2"] ;
663 -> 735 ;
736 [label=<contrast &le; 1.25<br/>squared_error = 0.0<br/>samples = 48<br/>value = 5.502>, fillcolor="#f7d8c2"] ;
735 -> 736 ;
737 [label=<threshold &le; 125.0<br/>squared_error = 0.0<br/>samples = 24<br/>value = 5.501>, fillcolor="#f7d8c2"] ;
736 -> 737 ;
738 [label=<brightness &le; -85.0<br/>squared_error = 0.0<br/>samples = 3<br/>value = 5.501>, fillcolor="#f7d8c2"] ;
737 -> 738 ;
739 [label=<squared_error = 0.0<br/>samples = 2<br/>value = 5.501>, fillcolor="#f7d8c2"] ;
738 -> 739 ;
740 [label=<squared_error = 0.0<br/>samples = 1<br/>value = 5.502>, fillcolor="#f7d8c2"] ;
738 -> 740 ;
741 [label=<squared_error = 0.0<br/>samples = 21<br/>value = 5.501>, fillcolor="#f7d8c2"] ;
737 -> 741 ;
742 [label=<threshold &le; 165.0<br/>squared_error = 0.0<br/>samples = 24<br/>value = 5.502>, fillcolor="#f7d8c2"] ;
736 -> 742 ;
743 [label=<brightness &le; -85.0<br/>squared_error = 0.0<br/>samples = 15<br/>value = 5.502>, fillcolor="#f7d8c2"] ;
742 -> 743 ;
744 [label=<threshold &le; 135.0<br/>squared_error = 0.0<br/>samples = 10<br/>value = 5.502>, fillcolor="#f7d8c2"] ;
743 -> 744 ;
745 [label=<squared_error = 0.0<br/>samples = 4<br/>value = 5.502>, fillcolor="#f7d8c2"] ;
744 -> 745 ;
746 [label=<threshold &le; 145.0<br/>squared_error = 0.0<br/>samples = 6<br/>value = 5.502>, fillcolor="#f7d8c2"] ;
744 -> 746 ;
747 [label=<brightness &le; -95.0<br/>squared_error = 0.0<br/>samples = 2<br/>value = 5.502>, fillcolor="#f7d8c2"] ;
746 -> 747 ;
748 [label=<squared_error = 0.0<br/>samples = 1<br/>value = 5.502>, fillcolor="#f7d8c2"] ;
747 -> 748 ;
749 [label=<squared_error = 0.0<br/>samples = 1<br/>value = 5.502>, fillcolor="#f7d8c2"] ;
747 -> 749 ;
750 [label=<squared_error = 0.0<br/>samples = 4<br/>value = 5.502>, fillcolor="#f7d8c2"] ;
746 -> 750 ;
751 [label=<threshold &le; 135.0<br/>squared_error = 0.0<br/>samples = 5<br/>value = 5.502>, fillcolor="#f7d8c2"] ;
743 -> 751 ;
752 [label=<threshold &le; 125.0<br/>squared_error = 0.0<br/>samples = 2<br/>value = 5.503>, fillcolor="#f7d8c2"] ;
751 -> 752 ;
753 [label=<squared_error = 0.0<br/>samples = 1<br/>value = 5.503>, fillcolor="#f7d8c2"] ;
752 -> 753 ;
754 [label=<squared_error = 0.0<br/>samples = 1<br/>value = 5.503>, fillcolor="#f7d8c2"] ;
752 -> 754 ;
755 [label=<squared_error = 0.0<br/>samples = 3<br/>value = 5.502>, fillcolor="#f7d8c2"] ;
751 -> 755 ;
756 [label=<brightness &le; -85.0<br/>squared_error = 0.0<br/>samples = 9<br/>value = 5.501>, fillcolor="#f7d8c2"] ;
742 -> 756 ;
757 [label=<threshold &le; 175.0<br/>squared_error = 0.0<br/>samples = 6<br/>value = 5.501>, fillcolor="#f7d8c2"] ;
756 -> 757 ;
758 [label=<brightness &le; -95.0<br/>squared_error = 0.0<br/>samples = 2<br/>value = 5.502>, fillcolor="#f7d8c2"] ;
757 -> 758 ;
759 [label=<squared_error = 0.0<br/>samples = 1<br/>value = 5.501>, fillcolor="#f7d8c2"] ;
758 -> 759 ;
760 [label=<squared_error = 0.0<br/>samples = 1<br/>value = 5.502>, fillcolor="#f7d8c2"] ;
758 -> 760 ;
761 [label=<squared_error = 0.0<br/>samples = 4<br/>value = 5.501>, fillcolor="#f7d8c2"] ;
757 -> 761 ;
762 [label=<squared_error = 0.0<br/>samples = 3<br/>value = 5.502>, fillcolor="#f7d8c2"] ;
756 -> 762 ;
763 [label=<squared_error = 0.0<br/>samples = 96<br/>value = 5.501>, fillcolor="#f7d8c2"] ;
735 -> 763 ;
764 [label=<threshold &le; 135.0<br/>squared_error = 0.479<br/>samples = 120<br/>value = 5.243>, fillcolor="#f7dac5"] ;
578 -> 764 ;
765 [label=<brightness &le; -95.0<br/>squared_error = 1.079<br/>samples = 30<br/>value = 4.554>, fillcolor="#f8dfcd"] ;
764 -> 765 ;
766 [label=<threshold &le; 125.0<br/>squared_error = 0.149<br/>samples = 10<br/>value = 3.216>, fillcolor="#fbe9dd"] ;
765 -> 766 ;
767 [label=<morph &le; 6.0<br/>squared_error = 0.009<br/>samples = 5<br/>value = 2.837>, fillcolor="#fbece1"] ;
766 -> 767 ;
768 [label=<morph &le; 4.0<br/>squared_error = 0.001<br/>samples = 3<br/>value = 2.766>, fillcolor="#fbede2"] ;
767 -> 768 ;
769 [label=<morph &le; 2.0<br/>squared_error = 0.0<br/>samples = 2<br/>value = 2.745>, fillcolor="#fbede2"] ;
768 -> 769 ;
770 [label=<squared_error = 0.0<br/>samples = 1<br/>value = 2.741>, fillcolor="#fbede2"] ;
769 -> 770 ;
771 [label=<squared_error = 0.0<br/>samples = 1<br/>value = 2.749>, fillcolor="#fbede2"] ;
769 -> 771 ;
772 [label=<squared_error = 0.0<br/>samples = 1<br/>value = 2.808>, fillcolor="#fbece1"] ;
768 -> 772 ;
773 [label=<morph &le; 8.0<br/>squared_error = 0.002<br/>samples = 2<br/>value = 2.944>, fillcolor="#fbebe0"] ;
767 -> 773 ;
774 [label=<squared_error = 0.0<br/>samples = 1<br/>value = 2.901>, fillcolor="#fbece0"] ;
773 -> 774 ;
775 [label=<squared_error = 0.0<br/>samples = 1<br/>value = 2.987>, fillcolor="#fbebdf"] ;
773 -> 775 ;
776 [label=<morph &le; 8.0<br/>squared_error = 0.002<br/>samples = 5<br/>value = 3.595>, fillcolor="#fae6d8"] ;
766 -> 776 ;
777 [label=<morph &le; 6.0<br/>squared_error = 0.001<br/>samples = 4<br/>value = 3.574>, fillcolor="#fae7d9"] ;
776 -> 777 ;
778 [label=<morph &le; 2.0<br/>squared_error = 0.0<br/>samples = 3<br/>value = 3.562>, fillcolor="#fae7d9"] ;
777 -> 778 ;
779 [label=<squared_error = 0.0<br/>samples = 1<br/>value = 3.58>, fillcolor="#fae7d9"] ;
778 -> 779 ;
780 [label=<morph &le; 4.0<br/>squared_error = 0.0<br/>samples = 2<br/>value = 3.553>, fillcolor="#fae7d9"] ;
778 -> 780 ;
781 [label=<squared_error = 0.0<br/>samples = 1<br/>value = 3.548>, fillcolor="#fae7d9"] ;
780 -> 781 ;
782 [label=<squared_error = 0.0<br/>samples = 1<br/>value = 3.558>, fillcolor="#fae7d9"] ;
780 -> 782 ;
783 [label=<squared_error = 0.0<br/>samples = 1<br/>value = 3.609>, fillcolor="#fae6d8"] ;
777 -> 783 ;
784 [label=<squared_error = 0.0<br/>samples = 1<br/>value = 3.678>, fillcolor="#fae6d7"] ;
776 -> 784 ;
785 [label=<brightness &le; -85.0<br/>squared_error = 0.201<br/>samples = 20<br/>value = 5.223>, fillcolor="#f7dbc6"] ;
765 -> 785 ;
786 [label=<threshold &le; 125.0<br/>squared_error = 0.112<br/>samples = 10<br/>value = 4.851>, fillcolor="#f8ddca"] ;
785 -> 786 ;
787 [label=<morph &le; 2.0<br/>squared_error = 0.001<br/>samples = 5<br/>value = 4.52>, fillcolor="#f9e0ce"] ;
786 -> 787 ;
788 [label=<squared_error = 0.0<br/>samples = 1<br/>value = 4.578>, fillcolor="#f8dfcd"] ;
787 -> 788 ;
789 [label=<morph &le; 8.0<br/>squared_error = 0.001<br/>samples = 4<br/>value = 4.506>, fillcolor="#f9e0ce"] ;
787 -> 789 ;
790 [label=<morph &le; 4.0<br/>squared_error = 0.0<br/>samples = 3<br/>value = 4.494>, fillcolor="#f9e0ce"] ;
789 -> 790 ;
791 [label=<squared_error = 0.0<br/>samples = 1<br/>value = 4.509>, fillcolor="#f9e0ce"] ;
790 -> 791 ;
792 [label=<morph &le; 6.0<br/>squared_error = 0.0<br/>samples = 2<br/>value = 4.486>, fillcolor="#f9e0ce"] ;
790 -> 792 ;
793 [label=<squared_error = 0.0<br/>samples = 1<br/>value = 4.471>, fillcolor="#f9e0ce"] ;
792 -> 793 ;
794 [label=<squared_error = 0.0<br/>samples = 1<br/>value = 4.501>, fillcolor="#f9e0ce"] ;
792 -> 794 ;
795 [label=<squared_error = 0.0<br/>samples = 1<br/>value = 4.541>, fillcolor="#f9e0ce"] ;
789 -> 795 ;
796 [label=<morph &le; 2.0<br/>squared_error = 0.004<br/>samples = 5<br/>value = 5.181>, fillcolor="#f8dbc6"] ;
786 -> 796 ;
797 [label=<squared_error = 0.0<br/>samples = 1<br/>value = 5.299>, fillcolor="#f7dac5"] ;
796 -> 797 ;
798 [label=<morph &le; 4.0<br/>squared_error = 0.001<br/>samples = 4<br/>value = 5.152>, fillcolor="#f8dbc6"] ;
796 -> 798 ;
799 [label=<squared_error = 0.0<br/>samples = 1<br/>value = 5.204>, fillcolor="#f7dbc6"] ;
798 -> 799 ;
800 [label=<morph &le; 8.0<br/>squared_error = 0.0<br/>samples = 3<br/>value = 5.134>, fillcolor="#f8dbc7"] ;
798 -> 800 ;
801 [label=<morph &le; 6.0<br/>squared_error = 0.0<br/>samples = 2<br/>value = 5.127>, fillcolor="#f8dbc7"] ;
800 -> 801 ;
802 [label=<squared_error = 0.0<br/>samples = 1<br/>value = 5.121>, fillcolor="#f8dbc7"] ;
801 -> 802 ;
803 [label=<squared_error = 0.0<br/>samples = 1<br/>value = 5.133>, fillcolor="#f8dbc7"] ;
801 -> 803 ;
804 [label=<squared_error = 0.0<br/>samples = 1<br/>value = 5.149>, fillcolor="#f8dbc7"] ;
800 -> 804 ;
805 [label=<morph &le; 4.0<br/>squared_error = 0.012<br/>samples = 10<br/>value = 5.595>, fillcolor="#f7d8c1"] ;
785 -> 805 ;
806 [label=<morph &le; 2.0<br/>squared_error = 0.004<br/>samples = 4<br/>value = 5.721>, fillcolor="#f7d7c0"] ;
805 -> 806 ;
807 [label=<threshold &le; 125.0<br/>squared_error = 0.0<br/>samples = 2<br/>value = 5.786>, fillcolor="#f7d6bf"] ;
806 -> 807 ;
808 [label=<squared_error = 0.0<br/>samples = 1<br/>value = 5.797>, fillcolor="#f7d6bf"] ;
807 -> 808 ;
809 [label=<squared_error = 0.0<br/>samples = 1<br/>value = 5.774>, fillcolor="#f7d6bf"] ;
807 -> 809 ;
810 [label=<threshold &le; 125.0<br/>squared_error = 0.0<br/>samples = 2<br/>value = 5.657>, fillcolor="#f7d7c1"] ;
806 -> 810 ;
811 [label=<squared_error = 0.0<br/>samples = 1<br/>value = 5.667>, fillcolor="#f7d7c1"] ;
810 -> 811 ;
812 [label=<squared_error = 0.0<br/>samples = 1<br/>value = 5.648>, fillcolor="#f7d7c1"] ;
810 -> 812 ;
813 [label=<morph &le; 6.0<br/>squared_error = 0.0<br/>samples = 6<br/>value = 5.511>, fillcolor="#f7d8c2"] ;
805 -> 813 ;
814 [label=<threshold &le; 125.0<br/>squared_error = 0.0<br/>samples = 2<br/>value = 5.528>, fillcolor="#f7d8c2"] ;
813 -> 814 ;
815 [label=<squared_error = 0.0<br/>samples = 1<br/>value = 5.534>, fillcolor="#f7d8c2"] ;
814 -> 815 ;
816 [label=<squared_error = 0.0<br/>samples = 1<br/>value = 5.522>, fillcolor="#f7d8c2"] ;
814 -> 816 ;
817 [label=<morph &le; 8.0<br/>squared_error = 0.0<br/>samples = 4<br/>value = 5.502>, fillcolor="#f7d8c2"] ;
813 -> 817 ;
818 [label=<threshold &le; 125.0<br/>squared_error = 0.0<br/>samples = 2<br/>value = 5.503>, fillcolor="#f7d8c2"] ;
817 -> 818 ;
819 [label=<squared_error = 0.0<br/>samples = 1<br/>value = 5.504>, fillcolor="#f7d8c2"] ;
818 -> 819 ;
820 [label=<squared_error = 0.0<br/>samples = 1<br/>value = 5.502>, fillcolor="#f7d8c2"] ;
818 -> 820 ;
821 [label=<squared_error = 0.0<br/>samples = 2<br/>value = 5.501>, fillcolor="#f7d8c2"] ;
817 -> 821 ;
822 [label=<brightness &le; -95.0<br/>squared_error = 0.069<br/>samples = 90<br/>value = 5.472>, fillcolor="#f7d9c3"] ;
764 -> 822 ;
823 [label=<threshold &le; 145.0<br/>squared_error = 0.151<br/>samples = 30<br/>value = 5.303>, fillcolor="#f7dac5"] ;
822 -> 823 ;
824 [label=<morph &le; 8.0<br/>squared_error = 0.001<br/>samples = 5<br/>value = 4.499>, fillcolor="#f9e0ce"] ;
823 -> 824 ;
825 [label=<morph &le; 2.0<br/>squared_error = 0.001<br/>samples = 4<br/>value = 4.489>, fillcolor="#f9e0ce"] ;
824 -> 825 ;
826 [label=<squared_error = 0.0<br/>samples = 1<br/>value = 4.523>, fillcolor="#f9e0ce"] ;
825 -> 826 ;
827 [label=<morph &le; 6.0<br/>squared_error = 0.0<br/>samples = 3<br/>value = 4.478>, fillcolor="#f9e0ce"] ;
825 -> 827 ;
828 [label=<morph &le; 4.0<br/>squared_error = 0.0<br/>samples = 2<br/>value = 4.466>, fillcolor="#f9e0ce"] ;
827 -> 828 ;
829 [label=<squared_error = 0.0<br/>samples = 1<br/>value = 4.469>, fillcolor="#f9e0ce"] ;
828 -> 829 ;
830 [label=<squared_error = 0.0<br/>samples = 1<br/>value = 4.463>, fillcolor="#f9e0ce"] ;
828 -> 830 ;
831 [label=<squared_error = 0.0<br/>samples = 1<br/>value = 4.501>, fillcolor="#f9e0ce"] ;
827 -> 831 ;
832 [label=<squared_error = 0.0<br/>samples = 1<br/>value = 4.541>, fillcolor="#f9e0ce"] ;
824 -> 832 ;
833 [label=<threshold &le; 155.0<br/>squared_error = 0.026<br/>samples = 25<br/>value = 5.464>, fillcolor="#f7d9c3"] ;
823 -> 833 ;
834 [label=<morph &le; 2.0<br/>squared_error = 0.002<br/>samples = 5<br/>value = 5.16>, fillcolor="#f8dbc6"] ;
833 -> 834 ;
835 [label=<squared_error = 0.0<br/>samples = 1<br/>value = 5.239>, fillcolor="#f7dac5"] ;
834 -> 835 ;
836 [label=<morph &le; 4.0<br/>squared_error = 0.0<br/>samples = 4<br/>value = 5.14>, fillcolor="#f8dbc7"] ;
834 -> 836 ;
837 [label=<squared_error = 0.0<br/>samples = 1<br/>value = 5.161>, fillcolor="#f8dbc6"] ;
836 -> 837 ;
838 [label=<morph &le; 8.0<br/>squared_error = 0.0<br/>samples = 3<br/>value = 5.133>, fillcolor="#f8dbc7"] ;
836 -> 838 ;
839 [label=<morph &le; 6.0<br/>squared_error = 0.0<br/>samples = 2<br/>value = 5.125>, fillcolor="#f8dbc7"] ;
838 -> 839 ;
840 [label=<squared_error = 0.0<br/>samples = 1<br/>value = 5.118>, fillcolor="#f8dbc7"] ;
839 -> 840 ;
841 [label=<squared_error = 0.0<br/>samples = 1<br/>value = 5.133>, fillcolor="#f8dbc7"] ;
839 -> 841 ;
842 [label=<squared_error = 0.0<br/>samples = 1<br/>value = 5.149>, fillcolor="#f8dbc7"] ;
838 -> 842 ;
843 [label=<morph &le; 2.0<br/>squared_error = 0.003<br/>samples = 20<br/>value = 5.54>, fillcolor="#f7d8c2"] ;
833 -> 843 ;
844 [label=<threshold &le; 175.0<br/>squared_error = 0.0<br/>samples = 4<br/>value = 5.64>, fillcolor="#f7d7c1"] ;
843 -> 844 ;
845 [label=<threshold &le; 165.0<br/>squared_error = 0.0<br/>samples = 2<br/>value = 5.648>, fillcolor="#f7d7c1"] ;
844 -> 845 ;
846 [label=<squared_error = 0.0<br/>samples = 1<br/>value = 5.65>, fillcolor="#f7d7c1"] ;
845 -> 846 ;
847 [label=<squared_error = 0.0<br/>samples = 1<br/>value = 5.646>, fillcolor="#f7d7c1"] ;
845 -> 847 ;
848 [label=<threshold &le; 185.0<br/>squared_error = 0.0<br/>samples = 2<br/>value = 5.633>, fillcolor="#f7d8c1"] ;
844 -> 848 ;
849 [label=<squared_error = 0.0<br/>samples = 1<br/>value = 5.638>, fillcolor="#f7d7c1"] ;
848 -> 849 ;
850 [label=<squared_error = 0.0<br/>samples = 1<br/>value = 5.627>, fillcolor="#f7d8c1"] ;
848 -> 850 ;
851 [label=<morph &le; 4.0<br/>squared_error = 0.001<br/>samples = 16<br/>value = 5.515>, fillcolor="#f7d8c2"] ;
843 -> 851 ;
852 [label=<threshold &le; 175.0<br/>squared_error = 0.0<br/>samples = 4<br/>value = 5.554>, fillcolor="#f7d8c2"] ;
851 -> 852 ;
853 [label=<threshold &le; 165.0<br/>squared_error = 0.0<br/>samples = 2<br/>value = 5.56>, fillcolor="#f7d8c2"] ;
852 -> 853 ;
854 [label=<squared_error = 0.0<br/>samples = 1<br/>value = 5.563>, fillcolor="#f7d8c2"] ;
853 -> 854 ;
855 [label=<squared_error = 0.0<br/>samples = 1<br/>value = 5.558>, fillcolor="#f7d8c2"] ;
853 -> 855 ;
856 [label=<threshold &le; 185.0<br/>squared_error = 0.0<br/>samples = 2<br/>value = 5.548>, fillcolor="#f7d8c2"] ;
852 -> 856 ;
857 [label=<squared_error = 0.0<br/>samples = 1<br/>value = 5.55>, fillcolor="#f7d8c2"] ;
856 -> 857 ;
858 [label=<squared_error = 0.0<br/>samples = 1<br/>value = 5.545>, fillcolor="#f7d8c2"] ;
856 -> 858 ;
859 [label=<morph &le; 6.0<br/>squared_error = 0.0<br/>samples = 12<br/>value = 5.501>, fillcolor="#f7d8c2"] ;
851 -> 859 ;
860 [label=<threshold &le; 175.0<br/>squared_error = 0.0<br/>samples = 4<br/>value = 5.502>, fillcolor="#f7d8c2"] ;
859 -> 860 ;
861 [label=<squared_error = 0.0<br/>samples = 2<br/>value = 5.502>, fillcolor="#f7d8c2"] ;
860 -> 861 ;
862 [label=<squared_error = 0.0<br/>samples = 2<br/>value = 5.502>, fillcolor="#f7d8c2"] ;
860 -> 862 ;
863 [label=<squared_error = 0.0<br/>samples = 8<br/>value = 5.501>, fillcolor="#f7d8c2"] ;
859 -> 863 ;
864 [label=<morph &le; 4.0<br/>squared_error = 0.006<br/>samples = 60<br/>value = 5.557>, fillcolor="#f7d8c2"] ;
822 -> 864 ;
865 [label=<morph &le; 2.0<br/>squared_error = 0.003<br/>samples = 24<br/>value = 5.64>, fillcolor="#f7d7c1"] ;
864 -> 865 ;
866 [label=<threshold &le; 165.0<br/>squared_error = 0.001<br/>samples = 12<br/>value = 5.692>, fillcolor="#f7d7c0"] ;
865 -> 866 ;
